tree
version=v4
num_class=1
num_tree_per_iteration=1
label_index=0
max_feature_idx=40
objective=regression
feature_names=txn_count txn_sum debit_count credit_count txn_mean n_distinct_accounts has_transactional has_investments has_mortgages n_financial_snapshots nii_mean nii_std nii_min nii_max nii_last nii_trend nir_mean nir_std nir_min nir_max nir_last fin_recency_days age is_valid_age age_band gender_encoded income_missing_flag annual_gross_income income_category_enc is_low_income customer_status_enc client_type_enc marital_status_enc occupation_category_enc industry_category_enc banking_type_enc onboarding_channel_enc certification_type_enc contact_preference_enc is_south_african top_city_flag
feature_infos=[1:18728] [-40620488:52406408] [0:12696] [0:11867] [-2054903.125:1306747] [0:41] [0:1] [0:1] [0:1] [0:282] [-58504.588571428569:35985.627209302322] [0:36536.645069362057] [-244024.03:7576.9099999999999] [-45662.199999999997:164842.89000000001] [-51880.860000000001:77764.470000000001] [-56954.800000000003:94425.529999999999] [-0.089999999999999789:16911.705500000004] [0:73624.91051612336] [-4721.5100000000002:958] [0:329709.20000000001] [-2.3700000000000001:49879.669999999998] [0:669] [16.005475701574266:106.3791923340178] [0:1] [0:7] [-1:1] [0:1] [0:314996257.04000002] [0:7] [-1:1] none [0:3] [0:3] [0:17] [0:17] [-1:2] [-1:2] [0:4] [0:2] [0:1] [0:1]
tree_sizes=9140 10221 9918 10428 11017 11026 10869 10694 11016 11026 11018 10998 10898 11031 11020 11075 11096 11062 11056 11018 11042 11115 11041 11073 11094 11123 11096 11044 11072 11124 11101 11115 11116 11088 11102 11086 11096 11121 11112 11183 11132 11140 11156 11106 11163 11098 11168 11144 11163 11169 11175 11150 11184 11182 11140 11150 11168 11188 11130 11166 11191 11213 11206 11142 11224 11141 11249 11189 11166 11170 11113 11164 11272 11219 11191 11199 11204 11225 11229 11204 11161 11224 11218 11276 11211 11258 11252 11239 11196 11226 11195 11252 11307 11268 11258 11275 11269 11287 11228 11201 11274 11288 11248 11271 11316 11295 11282 11171 11293 11295 11286 11290 11263 11234 11297 11266 11275 11270 11223 11329 11254 11300 11239 11275 11337 11261 11360 11278 11322 11320 11238 11313 11328 11296 11326 11280 11354 11286 11299 11274 11317 11299 11302 11379 11343 11248 11356 11243

Tree=0
num_leaves=113
num_cat=0
split_feature=2 0 2 0 0 0 9 35 35 0 35 1 0 2 0 0 27 9 3 0 9 9 9 2 9 12 9 0 4 0 13 16 0 4 1 0 15 3 9 3 1 1 12 10 2 19 12 15 16 9 0 13 4 15 3 27 8 0 2 11 1 17 4 28 0 11 0 33 19 9 0 2 0 2 12 0 0 15 9 0 13 0 0 4 12 16 0 11 13 33 15 3 9 3 17 2 11 16 1 3 3 17 15 17 15 17 28 15 4 10 0 16
split_gain=4593.46 862.592 434.542 173.662 132.572 61.8734 49.9887 28.7817 39.789 28.0734 19.1309 17.7541 15.8253 13.8606 13.3808 13.0289 12.5293 23.9182 15.1447 12.2979 11.6561 9.02822 8.49568 5.88743 5.70384 5.0112 4.69722 5.71009 4.66963 4.4588 4.37557 4.29581 4.20631 3.98317 3.66784 3.03236 2.68149 4.3842 2.53757 2.91358 3.86438 2.43646 2.39416 2.29542 4.62312 2.20806 3.76193 2.47063 1.81503 1.74085 1.68298 1.67491 1.6303 1.55452 2.90529 1.38331 1.24429 1.49808 1.71947 1.41828 4.1379 1.83458 1.21571 1.11689 1.08234 1.06127 1.00625 0.934816 1.57004 0.921297 0.919932 1.66842 0.893185 0.83682 0.833319 0.816888 0.77876 1.16585 0.703334 0.787235 0.669564 0.666327 0.645572 0.639181 0.607633 0.648965 0.606633 0.579485 0.559168 0.541764 0.488792 0.484817 0.452453 0.888653 0.575409 0.386538 0.368218 0.366449 0.350575 0.347844 0.347136 0.341145 0.336058 0.308715 0.303765 0.280919 0.242322 0.2342 0.233933 0.0991028 0.0842096 0.00812263
threshold=403.50000000000006 1976.5000000000002 83.500000000000014 1159.5000000000002 3297.0000000000005 410.50000000000006 14.500000000000002 1.0000000180025095e-35 -1.0000000180025095e-35 5032.5000000000009 1.0000000180025095e-35 9538.9267578125018 771.50000000000011 119.50000000000001 303.50000000000006 1514.0000000000002 699003.46000000008 8.5000000000000018 3.5000000000000004 2621.0000000000005 1.0000000180025095e-35 17.500000000000004 4.5000000000000009 8.5000000000000018 1.5000000000000002 -0.8849999999999999 16.500000000000004 542.50000000000011 92.547771453857436 1024.5000000000002 2405.4700000000007 9.6622767857142886 26.500000000000004 -430.54093933105463 -407.67510986328119 313.50000000000006 -41.864999999999988 119.50000000000001 19.500000000000004 140.50000000000003 80280.085937500015 106.9803810119629 -495.86499999999995 -39.603460144927531 896.50000000000011 124.87500000000001 -245.98499999999999 -2.1049999999999995 172.48626180836712 17.500000000000004 6572.5000000000009 454.34000000000009 -5302.3564453124991 -62.240000000000023 92.500000000000014 533932.80500000005 1.0000000180025095e-35 1219.0000000000002 957.50000000000011 142.20436831844717 -124912.77343749999 156.78584078842732 1452.1606445312502 3.5000000000000004 712.50000000000011 606.66723216927528 1749.5000000000002 1.0000000180025095e-35 701.73500000000001 32.500000000000007 2321.5000000000005 2269.0000000000005 485.50000000000006 351.50000000000006 -52.094999999999992 1935.5000000000002 211.50000000000003 -14.204999999999997 4.5000000000000009 96.500000000000014 102.19500000000001 686.50000000000011 1257.5000000000002 -269.72741699218744 -122.60499999999998 358.24095833333342 913.50000000000011 772.67516264812866 1.7950000000000002 1.5000000000000002 26.380000000000006 135.50000000000003 40.500000000000007 208.50000000000003 255.31918672041226 200.50000000000003 468.73280115423569 0.59000000000000019 -23307.032226562496 98.500000000000014 201.50000000000003 161.11895920452295 -46.294999999999995 88.16266129128384 -146.44999999999996 287.74342226606097 3.5000000000000004 84.995000000000019 12442.935546875002 309.73725000000007 3880.5000000000005 586.55891774891791
decision_type=2 2 2 2 2 2 2 2 2 2 2 2 2 2 2 2 2 2 2 2 2 2 2 2 2 2 2 2 2 2 2 2 2 2 2 2 2 2 2 2 2 2 2 2 2 2 2 2 2 2 2 2 2 2 2 2 2 2 2 2 2 2 2 2 2 2 2 2 2 2 2 2 2 2 2 2 2 2 2 2 2 2 2 2 2 2 2 2 2 2 2 2 2 2 2 2 2 2 2 2 2 2 2 2 2 2 2 2 2 2 2 2
left_child=2 3 7 12 19 6 11 8 20 110 13 14 21 76 28 49 18 32 24 70 23 41 25 -1 -10 -20 -7 48 34 33 31 95 -18 36 -4 -33 63 -38 -35 40 42 -2 -40 92 55 -23 51 -48 52 -5 -11 64 -28 99 -55 -45 57 58 -51 60 -59 106 -41 -14 65 90 84 86 -69 -58 -3 -72 -56 -29 -21 -68 77 -8 -9 -80 108 -53 -71 -75 85 103 -39 -65 -49 109 -47 -61 94 -94 104 -15 -96 -24 -66 -50 101 -93 -19 -17 -31 -105 -62 -106 -64 -84 -6 -87
right_child=1 4 5 15 9 26 10 78 16 50 -12 -13 29 30 -16 66 17 102 22 74 -22 45 97 -25 -26 -27 27 73 -30 43 -32 35 -34 38 -36 -37 37 67 39 62 -42 -43 -44 44 -46 46 47 88 53 56 -52 81 -54 54 72 -57 69 59 -60 91 61 -63 80 87 98 -67 75 68 -70 82 71 -73 -74 83 -76 -77 -78 -79 79 -81 -82 -83 89 -85 -86 111 -88 -89 -90 -91 -92 100 93 -95 96 -97 -98 -99 -100 -101 -102 -103 -104 105 107 -107 -108 -109 -110 -111 -112 -113
leaf_value=4.3171246213109136 4.3782559072693221 4.4048611842588619 4.3365226161506332 4.3984133670834833 4.4209253140846174 4.3754695231753438 4.3442074469503318 4.3235546744760436 4.3324981445888096 4.4344930164957459 4.3283108145872298 4.3827274015600421 4.3851950616356294 4.3629606674637955 4.377515556485311 4.3909942518194551 4.3510434480316436 4.3382521988756455 4.3556858090286292 4.4145591835863822 4.307315114489187 4.3791943210240758 4.3373524426424339 4.3418427455302631 4.3098204387731105 4.3363230370807635 4.3581361174785922 4.3653563242661289 4.3635368353899873 4.3828722304269236 4.3632085429158369 4.3433611743435208 4.370557609410378 4.3907521292849934 4.3566821035132461 4.3506030879427007 4.3649154098036762 4.3758357660838527 4.3777580380420789 4.3901586223772275 4.3839234441179409 4.392208690566024 4.363628763865564 4.3898094493190642 4.3673959384523107 4.3746178475853359 4.3551125939754511 4.3642941061816884 4.3679956569719298 4.3894370776217739 4.4464428872322168 4.3803169580804635 4.369353009550963 4.3482074091472942 4.3564399643128242 4.3796160412399834 4.4000182838100566 4.376268544705006 4.3784030118887749 4.3962244027730382 4.3960195898750838 4.3833544535306954 4.377442203887826 4.380567110065825 4.3777106474677918 4.3642770778720248 4.4014186113436455 4.3783152639492284 4.3686398425509427 4.3882709618168709 4.4095957661961256 4.3996734523239498 4.3654891080487053 4.3689816368320997 4.4051841133114253 4.3951681430246987 4.3462326199833932 4.3299447416320946 4.307021256060362 4.3203253436752211 4.3850876131928525 4.3731855933032708 4.3932835720612307 4.3758528964587606 4.3922542579250097 4.4009740863749505 4.3819073070860464 4.3740733441162094 4.3722173036661305 4.3894412614201244 4.368879945963279 4.3923429514345091 4.3926712136767945 4.3840685694757324 4.3787584506491237 4.354021858519233 4.3841904256221209 4.3276302633975687 4.3721077605730088 4.3605809945103085 4.3930189616010553 4.3867922793665253 4.3222471904234645 4.3975749329364149 4.3895507509841227 4.3922552314661214 4.3898490502711693 4.384833545966317 4.3817089376586109 4.3978685734983838 4.4255671302325519 4.3966805850996273
leaf_weight=27 22 307 23 37 190 30 23 39 27 111 66 36 29 23 24 22 22 22 28 330 107 25 43 25 52 34 21 38 23 24 23 154 21 24 21 150 37 24 22 21 32 21 22 21 20 29 22 20 20 31 55 25 38 36 34 25 21 21 20 38 34 22 22 28 21 36 180 37 26 36 197 28 28 34 25 39 22 56 114 46 35 20 55 24 35 85 35 20 23 32 39 23 22 26 20 22 22 131 25 29 84 36 26 112 27 27 20 27 22 29 229 41
leaf_count=27 22 307 23 37 190 30 23 39 27 111 66 36 29 23 24 22 22 22 28 330 107 25 43 25 52 34 21 38 23 24 23 154 21 24 21 150 37 24 22 21 32 21 22 21 20 29 22 20 20 31 55 25 38 36 34 25 21 21 20 38 34 22 22 28 21 36 180 37 26 36 197 28 28 34 25 39 22 56 114 46 35 20 55 24 35 85 35 20 23 32 39 23 22 26 20 22 22 131 25 29 84 36 26 112 27 27 20 27 22 29 229 41
internal_value=4.37967 4.39932 4.34008 4.38687 4.41688 4.35317 4.34788 4.32305 4.32682 4.428 4.34389 4.36502 4.37785 4.34617 4.35802 4.3952 4.33211 4.34303 4.32909 4.4095 4.3137 4.37246 4.33345 4.32801 4.31685 4.3445 4.36384 4.36271 4.35122 4.38049 4.34907 4.34819 4.36008 4.3787 4.34535 4.34682 4.37606 4.37385 4.3818 4.38051 4.37613 4.38513 4.37042 4.38382 4.37913 4.37052 4.36971 4.36341 4.35986 4.39184 4.43885 4.37189 4.36502 4.35792 4.35548 4.38432 4.39131 4.3901 4.38511 4.39099 4.38782 4.39105 4.38387 4.38062 4.37037 4.36863 4.39851 4.37668 4.37416 4.39351 4.40644 4.40847 4.36019 4.36901 4.41398 4.40039 4.33594 4.33356 4.3127 4.31043 4.38205 4.37714 4.39246 4.37166 4.39716 4.39771 4.37946 4.37786 4.3682 4.39366 4.37117 4.39262 4.38568 4.38825 4.38456 4.35806 4.38157 4.32976 4.3745 4.36325 4.39153 4.38918 4.32852 4.39598 4.38609 4.39666 4.39401 4.38738 4.37964 4.3951 4.42357 4.39974
internal_weight=5312 3550 1762 2078 1472 998 666 764 565 585 539 127 998 473 91 1080 406 91 315 887 159 328 236 52 79 62 332 302 67 670 372 349 43 436 44 304 236 159 200 176 76 43 44 234 66 285 260 65 206 539 166 195 59 147 98 46 502 329 51 278 97 76 100 77 150 104 541 122 63 173 532 225 62 96 355 219 101 79 199 160 79 45 152 58 322 287 59 48 43 116 68 181 168 48 120 45 42 174 46 49 143 59 48 161 78 139 54 54 44 84 419 126
internal_count=5312 3550 1762 2078 1472 998 666 764 565 585 539 127 998 473 91 1080 406 91 315 887 159 328 236 52 79 62 332 302 67 670 372 349 43 436 44 304 236 159 200 176 76 43 44 234 66 285 260 65 206 539 166 195 59 147 98 46 502 329 51 278 97 76 100 77 150 104 541 122 63 173 532 225 62 96 355 219 101 79 199 160 79 45 152 58 322 287 59 48 43 116 68 181 168 48 120 45 42 174 46 49 143 59 48 161 78 139 54 54 44 84 419 126
is_linear=0
shrinkage=1


Tree=1
num_leaves=118
num_cat=0
split_feature=2 2 2 2 2 2 1 2 9 2 2 9 9 9 22 3 2 2 22 9 22 3 9 3 22 3 3 2 3 3 13 27 22 15 22 13 3 3 22 21 2 9 9 2 13 3 3 3 9 2 32 3 9 21 12 2 3 14 7 22 19 13 2 22 12 11 3 3 2 3 10 34 3 34 19 2 14 38 9 15 13 2 15 14 15 15 3 1 9 10 11 28 14 27 2 11 3 10 10 14 15 3 9 13 32 27 10 2 2 1 1 3 1 10 3 1 1
split_gain=4341.81 852.701 320.125 192.568 102.793 38.7765 34.6007 28.2964 25.3797 24.445 24.4165 21.4838 19.2825 18.6068 17.366 13.7751 13.7464 13.4499 12.6039 29.3973 12.3689 10.3154 7.96562 7.60015 6.862 7.96426 6.40805 5.53849 5.08108 5.06828 4.97406 4.83385 4.80487 4.64983 6.3252 5.66326 3.84859 3.67111 3.56158 3.43795 3.39553 2.86547 2.76065 2.66654 3.18924 2.63154 2.5455 3.09293 2.18079 2.0638 1.89635 1.85936 2.73579 1.84372 2.35648 1.78802 1.71547 1.63464 1.53463 1.49431 1.46923 1.36914 1.36146 1.3112 1.96961 1.18676 1.00564 1.00416 0.967971 0.951232 1.2688 0.949382 0.925249 1.36296 1.72494 1.06697 1.03227 0.874742 0.863218 0.758382 0.7453 1.64122 0.709498 1.04551 0.681242 1.27584 0.669036 0.64664 0.931006 0.614432 0.578921 0.54033 0.799988 0.515416 0.515271 0.511332 0.466474 0.456141 0.378345 0.354153 0.755707 0.350988 0.562031 0.339317 0.313158 0.30591 0.29423 0.251162 0.233284 0.177989 0.152901 0.146617 0.145293 0.123979 0.0983021 0.0509934 0.0464191
threshold=351.50000000000006 1282.5000000000002 83.500000000000014 2780.0000000000005 761.50000000000011 215.50000000000003 11306.334960937502 43.500000000000007 6.5000000000000009 4214.5000000000009 1934.5000000000002 11.500000000000002 15.500000000000002 3.5000000000000004 47.015742642026019 80.500000000000014 519.50000000000011 992.50000000000011 56.277891854893916 1.5000000000000002 55.653661875427794 81.500000000000014 16.500000000000004 179.50000000000003 20.980150581793296 119.50000000000001 419.50000000000006 8.5000000000000018 380.50000000000006 4.5000000000000009 1.0000000180025095e-35 351248.97000000003 47.702943189596176 -81.184999999999974 44.554414784394261 -8.8949999999999978 368.50000000000006 111.50000000000001 41.728952772073931 2.5000000000000004 1623.5000000000002 31.500000000000004 39.500000000000007 124.50000000000001 506.48000000000008 164.50000000000003 145.50000000000003 124.50000000000001 17.500000000000004 43.500000000000007 1.5000000000000002 48.500000000000007 18.500000000000004 60.500000000000007 -118.12499999999999 712.50000000000011 98.500000000000014 -50.974999999999987 1.0000000180025095e-35 62.427104722792613 247.57000000000002 -0.94499999999999984 1835.5000000000002 58.424366872005486 -118.12499999999999 304.12132727453212 128.50000000000003 372.50000000000006 6301.0000000000009 70.500000000000014 -1.718 9.5000000000000018 258.50000000000006 1.5000000000000002 625.60000000000014 1034.5000000000002 -16.049999999999994 1.0000000180025095e-35 43.500000000000007 -11.204999999999997 -6.0549999999999988 863.50000000000011 1091.8150000000003 -41.414999999999992 -1.0000000180025095e-35 199.49000000000004 322.50000000000006 -87259.300781249985 21.500000000000004 -71.540202742993429 6.4249376924859751 5.5000000000000009 -244.91999999999999 299321.73500000004 604.50000000000011 219.34005060026132 204.50000000000003 -286.62788095238091 -543.02541666666662 -4.2849999999999993 -48.089999999999996 274.50000000000006 21.500000000000004 -5.1399999999999997 1.0000000180025095e-35 814930.31000000017 -21.322999999999997 469.50000000000006 877.00000000000011 -79566.660156249985 -60179.396484374993 232.50000000000003 -1344.2137451171873 25.911709956709959 223.50000000000003 -19155.748046874996 -1187768.1874999998
decision_type=2 2 2 2 2 2 2 2 2 2 2 2 2 2 2 2 2 2 2 2 2 2 2 2 2 2 2 2 2 2 2 2 2 2 2 2 2 2 2 2 2 2 2 2 2 2 2 2 2 2 2 2 2 2 2 2 2 2 2 2 2 2 2 2 2 2 2 2 2 2 2 2 2 2 2 2 2 2 2 2 2 2 2 2 2 2 2 2 2 2 2 2 2 2 2 2 2 2 2 2 2 2 2 2 2 2 2 2 2 2 2 2 2 2 2 2 2
left_child=2 4 6 10 16 11 7 18 -9 78 26 20 31 14 -8 43 22 23 19 -1 -4 41 -2 30 -18 33 40 -20 48 -21 80 -7 -32 -26 -35 -36 55 38 -24 -15 71 63 66 112 90 50 47 -12 -19 -41 56 52 -10 54 82 58 -23 116 59 84 -50 -60 -59 64 -14 -34 -17 86 -11 -40 79 -3 73 75 -75 -62 77 97 -5 -71 81 -6 83 96 89 -86 -48 88 -25 -27 -45 92 -63 -30 -61 -57 107 -76 -74 100 -77 102 -89 -81 -103 -97 -69 115 111 -58 -83 -90 -13 -108 -47 -39 -42
right_child=1 3 5 9 17 12 13 8 51 68 46 15 21 39 -16 42 24 28 27 29 -22 45 37 87 25 36 -28 -29 93 -31 32 -33 65 34 35 -37 -38 53 69 49 57 -43 -44 44 -46 114 67 -49 60 -51 -52 -53 -54 -55 -56 95 109 62 61 94 72 91 -64 -65 -66 -67 -68 106 -70 70 -72 -73 98 74 76 99 -78 -79 -80 103 -82 110 -84 -85 85 -87 -88 101 108 -91 -92 -93 -94 -95 -96 105 -98 -99 -100 -101 -102 104 -104 -105 -106 -107 113 -109 -110 -111 -112 -113 -114 -115 -116 -117 -118
leaf_value=-0.034123167133452939 0.0049619001550599935 0.019067475634089538 -0.0038250514259014065 0.040012259779018206 4.0629036939488001e-05 -0.012307414871195087 -0.0047929260764609681 -0.022682187307352088 -0.045954621698856356 0.052707726893601585 0.030480033358702294 -0.047843855884115577 -0.030042566402895106 -0.03458670741708382 -0.039551927963892612 -0.0319995171295272 0.014787762418389319 0.021764235544949769 -0.074942928616817159 -0.070524795391322934 -0.030694288232922553 -0.011245402786822524 -0.0031852806210517881 0.0029334018322240028 0.00035690512279397808 -0.0062768054242644993 0.028428031578718219 -0.061865167376480262 0.026860693737216616 -0.054245673947618346 -0.016055401352899415 0.0067306817042827602 -0.0040263288068319008 0.002485328478472573 -0.0059080816473940324 -0.02413441784233835 0.013114168087286609 -0.010957000017897891 -0.020403188575369612 -0.058057241086776443 0.019583612629345486 -0.021304843465983866 -0.015240826268558917 -0.0463442983675003 -0.024437927554760659 -0.013372424189325259 0.030558698622824648 0.014396379949731959 0.0035560896960752349 -0.043147125455109694 -0.02698175137686102 -0.039829240963160983 -0.059562939155532652 -0.015646513501631227 0.0034637593805673531 0.00068202970931306478 -0.023891479181125757 0.022327541384136392 -0.004976490863477406 -0.0028434732588421968 0.0067103234902024271 0.00023639999109913 0.013123398745059967 -0.026931684292377311 -0.045928559012711041 0.0042483151953667401 -0.022189820732921358 0.036611027294016898 0.064438529519658339 -0.0099337924984948985 -0.0070278286832571035 0.011102650888941506 0.010839878873642662 0.0010608924608677627 0.010822993235209504 0.018584158037019811 0.0048657052141747306 0.0063664619084447625 0.045877878450263629 -0.013793482814516339 0.011273136554116553 0.0059029493444680203 -0.0018449081314558331 -0.01261785906087607 -0.013134085083846002 -0.0031773609715617362 0.024077856341619852 0.013070556160704842 0.0053234711761772635 0.00083962567946450277 -0.036148465664295311 -1.3467892538756126e-05 0.0078479500604683866 0.01852923605814576 0.0025668532990204859 0.0087447818463136043 -0.0025367810097005629 0.017308292670496574 0.016441554718726391 0.019129154788255689 0.011043890313983991 0.0099953890236524432 0.0068323996113147586 -0.022238417088985444 0.016130302168767558 0.0033011462746474602 0.023698366438800637 -0.0046075313799083233 0.011801610167800009 -0.018072718316002892 0.010599953627213835 0.0097026760891894808 -0.039521561600871988 0.032484315229755527 -0.0083304574122386316 -0.0069934268715977667 0.026413965178908205
leaf_weight=48 35 349 33 296 38 22 21 33 49 161 25 58 34 22 35 53 23 23 103 67 29 31 26 27 39 20 127 132 22 65 20 24 27 20 28 37 20 20 35 51 20 39 22 24 27 22 283 26 20 37 37 24 82 20 20 29 31 62 22 26 21 21 29 46 20 34 30 93 37 20 24 21 28 22 36 22 27 23 109 20 21 22 21 35 23 26 45 28 24 21 131 28 33 44 37 20 26 28 73 24 57 25 39 20 32 25 21 25 37 56 23 23 73 52 20 24 138
leaf_count=48 35 349 33 296 38 22 21 33 49 161 25 58 34 22 35 53 23 23 103 67 29 31 26 27 39 20 127 132 22 65 20 24 27 20 28 37 20 20 35 51 20 39 22 24 27 22 283 26 20 37 37 24 82 20 20 29 31 62 22 26 21 21 29 46 20 34 30 93 37 20 24 21 28 22 36 22 27 23 109 20 21 22 21 35 23 26 45 28 24 21 131 28 33 44 37 20 26 28 73 24 57 25 39 20 32 25 21 25 37 56 23 23 73 52 20 24 138
internal_value=8.78361e-05 0.018259 -0.040595 0.0322218 0.0032131 -0.0279806 -0.0546764 -0.0581166 -0.047711 0.046236 0.025643 -0.0336926 -0.0207261 -0.0418885 -0.0268827 -0.0361557 -0.00412172 0.0103748 -0.0626973 -0.0555466 -0.0167283 -0.0232146 -0.0084859 0.00643615 -0.000853986 -0.00164715 0.0220319 -0.0679031 0.0138669 -0.0629993 0.00185242 -0.0023788 -0.00367329 -0.00815179 -0.0120494 -0.016537 0.000658888 -0.00990618 -0.0135376 -0.0491897 0.020671 -0.0295927 -0.0261547 -0.0394072 -0.0361774 -0.0185724 0.030531 0.0227728 0.0125277 -0.0523772 -0.0204412 -0.0528409 -0.0548822 -0.00707755 -0.00597275 -0.000121894 -0.0181557 0.0235685 -0.0013155 -0.00322455 0.0119067 0.00146839 0.0196015 -0.0325523 -0.0367089 0.000531513 -0.0287959 0.0312782 0.0552277 -0.0157291 -0.0135291 0.0186546 0.01235 0.0112401 0.00896224 0.0136227 0.0104385 0.0120589 0.0417074 -0.0159226 0.00617867 0.00473513 -0.00725692 -0.00808752 -0.00568514 -0.00808014 0.0297546 0.0100088 0.00808525 -0.00262717 -0.0380334 0.00327278 0.00500057 0.0217106 0.000277604 0.00394575 -0.00627314 0.0139291 0.0150395 0.0149251 0.0133873 0.0116282 0.00963738 -0.0185285 0.01371 0.00592327 0.0340747 -0.00758184 0.00965191 -0.0204281 0.0085471 0.00768648 -0.0435635 0.0303518 -0.0112908 -0.00906517 0.0256968
internal_weight=5284 3653 1631 1894 1759 862 769 603 188 603 1291 480 382 166 56 418 869 890 415 180 62 336 371 420 498 475 746 235 470 132 185 46 81 124 85 65 351 336 145 110 619 139 105 313 182 197 545 51 404 88 155 155 131 191 171 331 118 249 257 153 381 104 91 100 54 61 83 494 198 119 84 370 361 260 136 124 114 87 405 60 104 83 151 130 90 49 328 235 111 41 155 82 54 66 63 74 95 64 101 103 79 124 67 40 57 45 166 69 84 87 45 47 131 73 42 44 158
internal_count=5284 3653 1631 1894 1759 862 769 603 188 603 1291 480 382 166 56 418 869 890 415 180 62 336 371 420 498 475 746 235 470 132 185 46 81 124 85 65 351 336 145 110 619 139 105 313 182 197 545 51 404 88 155 155 131 191 171 331 118 249 257 153 381 104 91 100 54 61 83 494 198 119 84 370 361 260 136 124 114 87 405 60 104 83 151 130 90 49 328 235 111 41 155 82 54 66 63 74 95 64 101 103 79 124 67 40 57 45 166 69 84 87 45 47 131 73 42 44 158
is_linear=0
shrinkage=0.03


Tree=2
num_leaves=114
num_cat=0
split_feature=0 0 0 0 0 0 35 35 9 24 18 0 0 34 0 5 9 0 0 9 35 16 9 0 0 0 10 15 0 24 9 16 16 15 17 15 13 14 15 10 10 0 14 14 0 24 18 12 0 13 34 11 9 15 0 14 14 11 16 8 17 0 0 0 0 12 16 20 1 14 11 10 27 17 11 14 28 20 1 20 17 17 16 17 15 0 1 10 9 11 0 27 11 13 27 27 33 15 1 24 15 17 14 9 9 33 17 27 14 24 9 9 9
split_gain=4083.18 601.141 531.762 113.506 100.574 76.6476 54.8328 59.9434 37.8338 27.6835 19.6721 18.172 14.5429 14.3744 13.2084 12.9877 12.9796 15.9082 12.8122 12.5821 11.9232 11.3841 10.0299 11.0246 7.99852 7.18064 5.90929 5.82512 5.567 4.33481 4.16869 4.15752 4.08576 3.85013 3.5686 2.78765 4.5282 4.59704 4.76412 2.7332 4.42419 2.60906 2.24316 2.39373 2.22022 2.0231 1.97548 2.28857 1.92577 1.90609 1.78786 2.29748 2.09835 1.67884 1.64991 1.58982 1.52958 1.41951 1.39192 1.50397 1.37494 1.75882 1.32104 1.27101 1.22506 1.18077 1.1577 1.10326 1.02974 0.961449 1.29466 0.944763 0.894388 0.884721 0.872771 0.870244 0.826035 0.736894 0.684291 0.646388 0.593802 0.589219 1.15398 0.587404 1.39813 2.55865 0.577053 0.477564 0.47591 0.483873 0.670314 0.468908 0.461191 0.459511 0.452706 0.416006 0.39719 0.388602 0.377379 0.3727 0.372036 0.371438 0.334482 0.233667 0.221297 0.187809 0.166003 0.116939 0.0495606 0.0395946 0.0195667 0.0436701 0.35241
threshold=771.50000000000011 2022.5000000000002 218.50000000000003 3297.0000000000005 1159.5000000000002 410.50000000000006 1.0000000180025095e-35 -1.0000000180025095e-35 18.500000000000004 4.5000000000000009 1.0000000180025095e-35 5032.5000000000009 1547.0000000000002 1.0000000180025095e-35 12.500000000000002 1.0000000180025095e-35 3.5000000000000004 6.5000000000000009 91.500000000000014 13.500000000000002 1.0000000180025095e-35 46.671468253968257 16.500000000000004 508.50000000000006 2621.0000000000005 117.50000000000001 -1.3637499999999998 -0.67499999999999982 1024.5000000000002 2.5000000000000004 1.0000000180025095e-35 181.00347072419109 43.353955357142858 -1.0000000180025095e-35 18.113590388178107 -0.92000000000001247 54.110000000000007 -35.694999999999993 50.520000000000003 -39.603460144927531 -2.8197058823529408 313.50000000000006 -87.329999999999984 -134.02999999999997 867.50000000000011 3.5000000000000004 49.015000000000008 -364.24999999999994 853.50000000000011 2889.7200000000007 1.5000000000000002 262.68337322941187 18.500000000000004 0.27999999999999997 1749.5000000000002 10.610000000000001 -55.599999999999994 23.683297563704258 286.75582926829276 1.0000000180025095e-35 0.85961280112534089 178.50000000000003 1404.0000000000002 2321.5000000000005 712.50000000000011 -1326.6399999999996 423.7909166666667 440.92500000000001 5353.4245605468759 -319.50999999999993 596.50153553482403 -87.054849624060139 6177.5850000000009 156.78584078842732 311.51362190150934 -30.389999999999997 3.5000000000000004 553.88000000000022 11306.334960937502 590.81500000000017 213.72549113155856 593.0326640727958 489.66956709956713 221.88749029445577 -4.7049999999999992 112.50000000000001 37804.962890625007 -642.24799999999993 61.500000000000007 90.259824680002041 1219.0000000000002 445870.38500000007 42.654568475938738 -21.154999999999998 434098.43000000005 2466.6250000000005 1.0000000180025095e-35 -1036.1199999999997 113619.39062500001 4.5000000000000009 -48.089999999999996 127.73295780099998 -3.6749999999999994 39.500000000000007 37.500000000000007 1.0000000180025095e-35 201.75861617121015 186296.87000000002 1.3900000000000001 5.5000000000000009 22.500000000000004 13.500000000000002 20.500000000000004
decision_type=2 2 2 2 2 2 2 2 2 2 2 2 2 2 2 2 2 2 2 2 2 2 2 2 2 2 2 2 2 2 2 2 2 2 2 2 2 2 2 2 2 2 2 2 2 2 2 2 2 2 2 2 2 2 2 2 2 2 2 2 2 2 2 2 2 2 2 2 2 2 2 2 2 2 2 2 2 2 2 2 2 2 2 2 2 2 2 2 2 2 2 2 2 2 2 2 2 2 2 2 2 2 2 2 2 2 2 2 2 2 2 2 2
left_child=2 4 6 24 28 8 7 13 21 10 16 -5 50 -1 -11 -15 17 -9 27 -20 31 -4 34 53 63 30 -19 -18 35 -25 -8 68 -12 83 -7 46 37 44 48 78 -41 -33 43 64 -37 -44 47 69 -39 74 52 67 -6 66 77 -42 -55 -21 72 101 -35 -62 75 110 65 91 99 71 95 80 -71 -52 -47 -73 -38 81 -67 92 96 -56 -2 82 103 84 85 -16 -70 -46 89 94 -91 -31 -14 -48 -54 -10 104 -82 -80 -24 -43 -60 -58 -53 -30 -64 -93 -97 -92 -98 111 -3 -113
right_child=1 3 5 11 12 22 25 9 20 14 32 -13 54 15 33 -17 18 26 19 57 -22 -23 23 29 -26 -27 -28 -29 39 42 -32 41 -34 60 -36 36 49 38 -40 40 55 100 45 -45 87 58 93 -49 -50 -51 51 62 88 56 79 -57 102 -59 59 -61 61 -63 105 -65 -66 76 -68 -69 86 70 -72 73 -74 -75 -76 -77 -78 -79 98 -81 97 -83 -84 -85 -86 -87 -88 -89 -90 90 108 106 -94 -95 -96 107 109 -99 -100 -101 -102 -103 -104 -105 -106 -107 -108 -109 -110 -111 -112 112 -114
leaf_value=-0.069365850852366448 -0.00099928399873897445 0.026245279263366349 -0.018051578592795593 0.041933919982747592 0.022966711619070594 -0.0066781658867525089 -0.049706687206029887 -0.036080137988695735 -0.032660630358116963 -0.064966633935769402 -0.0576969919560417 0.054552373436093329 0.012037947634501117 -0.031936582907553634 -0.049372489099806932 -0.060036037140271878 -0.031742173204198476 0.0055935955867171278 -0.0067447709123102523 -0.023125267511898917 -0.048195183731414175 0.0058988191056996578 -0.008585573958232999 0.0010057962004352233 0.031828201551036904 -0.049179878715074288 -0.015806380996337303 -0.052462413813616784 0.00070837043918436395 -0.0056780053943395617 -0.068042803935102508 -0.035437834116471251 -0.037396676608920092 -0.039950597174638919 0.0073713344683356838 -0.0098310692645609387 0.0011594507442496251 0 -0.024100515818061385 -0.012602910369634629 0.0098403337973762654 -0.023716025087298177 -0.0059842916516354306 9.3630004227161396e-05 -0.0025228431979689046 -0.012953372077508405 -0.0014121038880465287 0.0086536788386830047 -0.012301628906566364 -0.0044491324107493128 0.0007785461705178021 0.01410392888094629 0.012282641108546937 -0.017025542187618044 0.020949536722089195 -0.0016695299712674956 -0.030917489768005901 -0.036633633102010933 -0.010677323346585036 -0.0047011627706233404 -0.055254100340515817 -0.04035354382673214 0.017013726052382716 0.027649352414267404 -0.0047789364658712748 -0.0097534625705500907 -0.0205620583904641 0.011341834870777254 -0.013402691576097693 0.0015457188838806288 -0.0081876597154845032 0.011648257300384681 -0.020908106839086147 0.0028399787442758679 0.0087128414271606339 0.0045753137996154174 -0.019112865293191537 0.011232310805808414 0.011343069623899646 0.013784072615206241 0.0010642499591090849 0.016187426694801877 0.0031790216846222224 -0.029201956936291282 -0.031854399459584695 -0.03517841429354214 -0.022747952851466829 0.002473975714249536 0.0071695066297596151 0.008099823059812189 0.013726969072581936 -0.0077409600207412783 0.01775349125437237 -0.0080020265436985278 0.0056666257126337816 -0.018679832315963249 0.0076178873266492574 0.0068501816631501749 0.0056611553652494749 -0.014956010540777985 -0.030087710804483862 -0.016988741526380181 -0.02143019179138355 0.0089710868443362412 0.0047621642254778865 0.011151883008224624 -0.012955372571117348 -0.026571567282346741 0.017717691344507038 0.0046114385509863492 0.024965597681843549 0.015059081684723495 0.021866732630711882
leaf_weight=93 27 21 38 439 20 36 29 25 20 35 30 159 27 30 46 43 31 20 25 20 36 32 23 28 359 52 25 36 31 34 147 122 29 42 28 26 31 20 22 20 21 48 31 24 29 32 20 38 25 30 39 30 27 40 231 20 23 39 29 23 66 28 45 230 37 21 34 28 20 25 22 21 46 23 26 27 26 32 29 23 20 20 21 20 32 40 23 39 21 24 139 21 221 21 22 22 27 26 27 32 88 31 26 31 22 20 26 27 24 22 156 24 66
leaf_count=93 27 21 38 439 20 36 29 25 20 35 30 159 27 30 46 43 31 20 25 20 36 32 23 28 359 52 25 36 31 34 147 122 29 42 28 26 31 20 22 20 21 48 31 24 29 32 20 38 25 30 39 30 27 40 231 20 23 39 29 23 66 28 45 230 37 21 34 28 20 25 22 21 46 23 26 27 26 32 29 23 20 20 21 20 32 40 23 39 21 24 139 21 221 21 22 22 27 26 27 32 88 31 26 31 22 20 26 27 24 22 156 24 66
internal_value=-0.000162153 0.0210062 -0.032623 0.0353155 0.00931578 -0.0185279 -0.0487445 -0.0446925 -0.0276776 -0.0400449 -0.0329049 0.0453795 0.0148175 -0.0608264 -0.0463781 -0.0491165 -0.0285125 -0.0173463 -0.033521 -0.0250864 -0.0311865 -0.0071317 -0.011801 -0.0130288 0.0282365 -0.0618955 -0.00631523 -0.0435273 8.3737e-05 -0.010256 -0.0653364 -0.029398 -0.0485585 -0.0437651 -0.000466514 -0.00183098 -0.00394888 -0.00691788 -0.0128755 0.00399605 -0.00134248 -0.0316786 -0.011092 -0.00863531 -0.00254911 -0.0134374 0.000799957 0.00233767 -0.00691783 0.00152757 0.0114855 0.00978293 0.0133075 -0.0192903 0.0184152 0.00424827 -0.0224965 -0.0325663 -0.0148082 -0.0116998 -0.0481471 -0.0513187 0.01178 0.0255774 -0.00991596 -0.0113291 -0.0158364 0.00619175 -0.0238843 0.000257824 -0.00302349 0.00430432 -0.0178879 0.00727603 0.0047474 0.00980215 -0.0152838 0.0165658 0.00607148 0.0203691 0.0024233 0.0110987 0.00964139 -0.0391098 -0.0405043 -0.0432853 -0.0188729 0.000293822 0.0124581 0.0128838 0.0136873 -0.00883935 0.0171941 -0.00496902 0.00954493 -0.0266502 0.00447147 0.00447456 0.00880359 -0.0125465 -0.0280503 -0.0142124 -0.0264727 0.0117306 0.00250366 0.0154518 -0.0108978 -0.0235328 0.0144373 0.00644728 0.0236849 0.0216513 0.0202698
internal_weight=5346 3236 2110 1454 1782 1127 983 755 476 589 280 598 1116 166 309 73 221 70 151 84 406 70 651 587 856 228 45 67 666 409 176 370 59 274 64 447 248 161 67 219 61 258 381 189 94 192 199 158 45 87 582 305 277 178 534 41 89 59 161 83 136 94 194 497 165 128 89 111 112 120 47 83 78 44 57 129 47 280 158 254 73 102 82 138 118 86 43 68 257 236 187 81 248 41 49 69 102 46 56 55 136 60 49 61 53 65 47 49 163 49 267 111 90
internal_count=5346 3236 2110 1454 1782 1127 983 755 476 589 280 598 1116 166 309 73 221 70 151 84 406 70 651 587 856 228 45 67 666 409 176 370 59 274 64 447 248 161 67 219 61 258 381 189 94 192 199 158 45 87 582 305 277 178 534 41 89 59 161 83 136 94 194 497 165 128 89 111 112 120 47 83 78 44 57 129 47 280 158 254 73 102 82 138 118 86 43 68 257 236 187 81 248 41 49 69 102 46 56 55 136 60 49 61 53 65 47 49 163 49 267 111 90
is_linear=0
shrinkage=0.03


Tree=3
num_leaves=120
num_cat=0
split_feature=0 0 2 0 0 9 0 34 9 2 2 0 17 0 0 22 2 35 1 22 0 14 22 14 2 22 1 2 22 3 15 0 22 4 13 17 7 3 27 13 14 13 1 15 21 3 4 22 0 8 19 14 14 19 13 0 34 12 13 13 0 9 33 15 0 2 0 13 17 2 13 22 3 35 15 15 15 12 1 14 15 13 33 28 1 2 4 14 15 15 3 1 12 4 1 2 3 20 3 1 13 19 27 2 28 1 2 15 34 9 15 14 17 1 1 1 1 15 1
split_gain=3858.32 768.775 331.766 147.82 129.173 52.6652 57.4928 29.9711 45.823 25.9296 24.1655 21.9247 23.7467 17.0262 16.4895 13.62 12.9945 8.91182 8.51599 6.78505 6.68985 6.08705 5.82805 5.80997 5.77213 5.42034 5.25685 4.98197 4.79107 4.65983 4.60674 4.01023 3.539 3.23183 2.90995 3.58275 2.78991 2.60387 2.60201 4.59918 2.52928 4.99206 3.92471 3.43773 2.51429 2.51047 2.44407 2.71289 2.38891 2.2872 2.26651 1.88672 4.19823 1.81365 1.72604 1.69083 1.6591 1.84102 1.61689 1.537 2.07044 1.4868 1.32877 1.31364 1.28504 1.28453 1.21926 1.20855 1.1691 1.10489 1.10424 1.1909 2.61788 1.05842 1.04532 0.996499 0.989206 0.957387 0.951504 0.880813 1.1729 0.955698 0.807494 0.800677 0.952841 1.31009 0.779961 0.753368 0.747691 0.741952 0.733087 0.721901 0.684011 0.634616 0.555038 0.505496 0.476211 0.452019 0.448369 0.427429 0.423614 0.408417 0.35555 0.319315 0.279634 0.221745 0.581284 0.192275 0.175552 0.200952 0.117029 0.102678 0.0994506 0.0874943 0.150355 0.0826866 0.0482725 0.0426649 0.00103885
threshold=530.50000000000011 1749.5000000000002 67.500000000000014 3179.5000000000005 1159.5000000000002 14.500000000000002 322.00000000000006 1.0000000180025095e-35 10.500000000000002 173.50000000000003 4214.5000000000009 26.500000000000004 0.53899917480531523 2340.5000000000005 796.50000000000011 47.015742642026019 17.500000000000004 1.0000000180025095e-35 2137.559936523438 53.613963039014379 410.50000000000006 -1.5599999999999998 36.318959616700894 -8.6449999999999978 1282.5000000000002 41.728952772073931 308.91003417968756 119.50000000000001 52.455852156057503 16.500000000000004 -36.61999999999999 1024.5000000000002 38.537987679671467 -430.54093933105463 1009.455 6.8431243876179613 1.0000000180025095e-35 56.500000000000007 474522.14000000007 -0.85499999999999987 -56.939999999999991 -1.0000000180025095e-35 40224.835937500007 26.380000000000006 64.500000000000014 109.50000000000001 -1955.5913085937498 78.617385352498303 6572.5000000000009 1.0000000180025095e-35 294.71000000000009 -81.909999999999982 -0.37499999999999994 896.94000000000017 1843.7850000000001 1502.5000000000002 1.5000000000000002 -114.22499999999998 -83.164999999999978 -25.234999999999996 913.50000000000011 31.500000000000004 6.5000000000000009 960.57500000000016 1894.5000000000002 519.50000000000011 602.50000000000011 3688.3000000000006 238.55331664762926 509.50000000000006 2405.4700000000007 57.204654346338138 176.50000000000003 1.0000000180025095e-35 47.800000000000011 2.3800000000000598 -197.13999999999996 -192.72999999999999 -17300.862304687496 -16.789999999999996 -171.76999999999995 187.79000000000002 1.0000000180025095e-35 1.5000000000000002 5962.1796875000009 877.00000000000011 3794.662231445313 1.0000000180025095e-35 0.27999999999999997 -0.67499999999999982 290.50000000000006 -358921.49999999994 -67.419999999999987 92.547771453857436 -116494.17187499999 1049.0000000000002 208.50000000000003 553.88000000000022 176.50000000000003 1816.3647460937502 34.385000000000012 658.63000000000011 1140.9300000000001 1071.5000000000002 2.5000000000000004 197011.23437500003 1446.5000000000002 71.295000000000016 1.0000000180025095e-35 36.500000000000007 65.200000000000003 -172.32499999999996 16.831030770835955 1.0000000180025095e-35 20965.764648437504 69968.550781250015 -221733.18749999997 8.9600000000000204 -25196.508789062496
decision_type=2 2 2 2 2 2 2 2 2 2 2 2 2 2 2 2 2 2 2 2 2 2 2 2 2 2 2 2 2 2 2 2 2 2 2 2 2 2 2 2 2 2 2 2 2 2 2 2 2 2 2 2 2 2 2 2 2 2 2 2 2 2 2 2 2 2 2 2 2 2 2 2 2 2 2 2 2 2 2 2 2 2 2 2 2 2 2 2 2 2 2 2 2 2 2 2 2 2 2 2 2 2 2 2 2 2 2 2 2 2 2 2 2 2 2 2 2 2 2
left_child=2 4 7 13 14 9 17 16 11 15 -5 12 19 40 22 23 -1 27 -17 -9 54 -13 65 -4 55 -22 93 37 32 -10 50 33 -11 46 35 -29 38 92 39 -35 64 43 91 -42 67 51 47 59 -12 58 -24 -32 -53 69 74 56 95 70 -27 60 -16 -55 -15 66 -3 -2 -47 83 -38 76 71 72 -58 -28 113 -68 -52 90 101 80 -61 -82 -40 102 85 108 -86 -81 -60 -39 -57 -43 -7 -18 103 96 107 105 -97 -37 -74 -77 -33 -73 -98 106 -26 -6 -85 -110 -90 -76 -14 118 -115 -96 -92 -100 -8
right_child=1 3 5 10 24 6 20 8 29 28 48 21 112 62 31 18 26 -19 -20 -21 25 -23 30 -25 97 49 73 34 -30 -31 45 44 -34 36 -36 99 68 89 82 -41 41 42 -44 -45 -46 63 -48 -49 -50 -51 53 52 -54 61 -56 77 57 -59 88 79 -62 -63 -64 -65 -66 -67 75 -69 -70 -71 -72 94 100 -75 111 78 -78 -79 -80 87 81 -83 -84 84 86 -87 -88 -89 110 -91 116 -93 -94 -95 115 98 104 -99 117 -101 -102 -103 -104 -105 -106 -107 -108 -109 109 -111 -112 -113 -114 114 -116 -117 -118 -119 -120
leaf_value=-0.067058624704800798 -0.001786715651100332 0.0189657562736954 0.00071539902716875078 0.039015874516666417 0.0099284387973353413 -0.046529931280923927 -0.023103232891531659 -0.023125324600213205 -0.064295733465912178 -0.00088420248708941725 0.048581835273955321 -0.011737802175635642 -0.071298178809029708 0.029477275634885891 -0.011658439285480059 -0.04326016239462227 -0.063504577912918456 -0.047725107981734079 -0.017573001848459245 -0.046110915447984423 -0.0067472335557277139 -0.030301990402372261 0.0045346058947034178 -0.018800792625834863 0.01566729106630866 -0.015098723556650311 -0.042794836432380343 -0.019342095074159175 -0.0075359776117678344 -0.049439524507623608 -0.007924041288820181 0.0058972491464916281 0.015654222827330231 0.0010833852834835208 -0.019175540770488709 -0.037042780632939802 0.010728270539630423 -0.0257612472474575 0.0062067964727557934 -0.016770008300298025 0.017738088298427022 0.018100714649918467 0.010914705118111202 0.0014584344037306995 -0.0056005960058258929 -0.015246108069483724 -0.012631388188136044 -0.012698489565402269 0.059697850215023961 -0.012594392979238181 -0.014798166016052508 -0.02567811173921631 -0.0099361462038564108 0.0049133841785686935 -0.015808270597032138 0.011751204854593826 -9.79264053074937e-05 0.00096051565686670643 -0.01922114070520756 -0.0022183612561361356 -7.7303689409745845e-05 -0.0053355235453695056 0.02076543259909076 -0.0024431049447845329 0.0243644768593534 0.008314063742108968 -0.0023966433724595441 -0.001792034433477304 0.0022706466746516521 -0.0031978586562410264 0.014757193066381118 0.0058500997261567555 0.012141395221237798 -0.057027120351791381 -0.025277378837977135 -0.003122733189425032 -0.0055260673156008128 0.0075595224186439415 -0.015132701095725809 -0.0062746505280956632 0.0088161154498146571 0.00081408225700002287 -0.00024433876519255779 0.0020328784154161161 0.011466622358617874 -0.0037161562433061391 0.0038734600409865375 0.0012183237502520735 -0.030261450863842451 -0.037935505900830023 0.019420529544455702 0.024640762532938201 -0.034244321869611731 -0.047820102195739747 0.014918194914127096 0.017079642942175267 0.015700888486257916 0.011667594724537237 0.013938497072884016 -0.030788200560267327 0.0057920256890356542 -0.009592060230333696 0.01244601925781795 0.01137536469372836 0.010821893748403949 0.022412989063904834 0.021010970548834908 0.0050629739078826138 0.0080274367240656692 0.00333877816516906 -0.022709803340211509 -0.035461466977000235 -0.051061441421508785 -0.016519831804292544 -0.023997446635230017 0.0099825014703356744 0.015007496862821278 0.0094617010988295065 -0.031114610109478233
leaf_weight=167 21 83 24 461 27 68 31 39 93 21 147 32 20 477 25 28 66 72 24 20 36 37 23 30 126 37 69 21 28 58 32 21 24 33 21 102 33 25 34 20 22 42 34 25 22 27 23 20 57 39 28 30 36 21 20 51 37 25 46 32 31 29 30 32 245 22 26 21 29 27 36 32 36 21 20 20 21 21 20 25 27 28 33 22 25 22 29 21 27 24 40 105 24 24 33 47 28 22 20 80 20 21 20 21 65 25 42 20 20 23 39 29 20 20 32 21 49 27 23
leaf_count=167 21 83 24 461 27 68 31 39 93 21 147 32 20 477 25 28 66 72 24 20 36 37 23 30 126 37 69 21 28 58 32 21 24 33 21 102 33 25 34 20 22 42 34 25 22 27 23 20 57 39 28 30 36 21 20 51 37 25 46 32 31 29 30 32 245 22 26 21 29 27 36 32 36 21 20 20 21 21 20 25 27 28 33 22 25 22 29 21 27 24 40 105 24 24 33 47 28 22 20 80 20 21 20 21 65 25 42 20 20 23 39 29 20 20 32 21 49 27 23
internal_value=0.000172527 0.0173974 -0.0374605 0.0319547 0.0044596 -0.0266148 -0.0297804 -0.0539203 -0.0468233 -0.0117303 0.043069 -0.0356019 -0.0447189 0.024965 -0.00249543 -0.0211384 -0.0602827 -0.0373275 -0.0320164 -0.0316057 -0.0214345 -0.022026 -0.00698684 -0.0102171 0.0130401 -0.0177835 -0.0536439 -0.0351434 0.00199135 -0.0589719 -0.00813494 0.000570581 0.00801963 -0.00117596 -0.0318473 -0.033043 0.00180041 -0.0400976 -0.000854584 -0.00578398 0.0212261 0.0184723 0.0207597 0.00935199 0.00378847 -0.0106766 -0.00352145 -0.00244926 0.0519785 -0.019834 -0.00390934 -0.0144561 -0.0174128 -0.00549789 -0.0259632 0.01159 0.0106424 0.00887892 -0.0216124 -0.00128777 -0.00541391 -0.000960221 0.0290096 -0.00803818 0.0230693 0.00338445 -0.00954774 0.00484318 0.00691874 -0.00839299 0.00969749 0.00870293 0.00603344 -0.0467388 -0.0271446 -0.00759203 -0.0110744 0.0144012 -0.0096837 0.000454596 0.00224152 0.00488321 0.00302839 0.00563078 0.00446005 0.00242036 0.00758793 -0.00283697 -0.023585 -0.0324236 0.0153452 0.0229274 -0.0437599 -0.0599265 0.010918 0.0125504 0.0110843 0.0173764 0.0145627 -0.0344932 0.0100678 -0.00665721 0.00938347 0.00826502 0.0124742 0.0179482 0.0171374 0.00806914 0.00456762 0.00572061 -0.0262494 -0.0319534 -0.0627452 -0.0246158 -0.021544 0.0132697 0.017218 0.0116799 -0.0270737
internal_weight=5355 3674 1681 1728 1946 1015 836 666 319 179 665 168 99 1063 1075 106 347 437 52 59 399 69 436 54 871 224 180 365 73 151 393 639 45 414 224 203 182 141 120 53 556 228 181 47 225 244 232 209 204 188 149 98 66 126 175 656 495 261 149 189 56 50 507 146 328 43 114 203 62 76 236 200 93 90 155 87 49 161 61 133 87 55 67 182 141 87 54 46 112 49 140 147 92 90 107 234 140 215 94 182 56 41 41 53 93 193 168 47 65 43 66 49 40 106 52 54 89 47 54
internal_count=5355 3674 1681 1728 1946 1015 836 666 319 179 665 168 99 1063 1075 106 347 437 52 59 399 69 436 54 871 224 180 365 73 151 393 639 45 414 224 203 182 141 120 53 556 228 181 47 225 244 232 209 204 188 149 98 66 126 175 656 495 261 149 189 56 50 507 146 328 43 114 203 62 76 236 200 93 90 155 87 49 161 61 133 87 55 67 182 141 87 54 46 112 49 140 147 92 90 107 234 140 215 94 182 56 41 41 53 93 193 168 47 65 43 66 49 40 106 52 54 89 47 54
is_linear=0
shrinkage=0.03


Tree=4
num_leaves=127
num_cat=0
split_feature=2 0 2 0 0 9 3 35 35 24 0 2 9 0 9 3 27 10 35 2 3 2 0 19 9 19 16 24 24 9 2 13 0 15 9 19 12 12 27 3 13 13 33 12 21 14 14 8 0 13 12 18 0 10 12 15 0 27 0 9 3 0 1 1 4 15 14 2 3 15 33 0 0 33 14 19 0 14 19 0 12 14 0 24 14 16 14 14 16 2 0 16 1 21 15 0 24 17 32 16 3 2 14 1 1 27 17 17 1 2 14 3 0 0 19 19 19 24 1 0 34 3 3 16 14 12
split_gain=3669.97 761.027 320.518 146.012 119.287 37.8208 40.6116 25.0343 40.5544 21.7245 21.262 20.8153 12.7185 12.3063 10.2194 24.5531 14.4387 9.9495 9.04751 8.07345 7.32914 6.87842 6.10498 5.47395 5.43539 13.5024 5.52892 5.41389 4.85098 7.64231 4.09875 4.09004 3.41206 4.31821 3.23398 3.13764 6.70607 3.12012 3.05535 2.98482 2.96298 2.58479 2.40899 2.39538 2.38749 2.15244 3.70917 1.97273 1.93615 1.85848 2.09007 2.24294 1.74486 1.73131 3.11712 1.5214 1.51725 1.51069 1.47512 1.43606 1.2974 1.27462 1.24787 1.23696 1.36011 1.23468 1.22513 1.09458 1.07914 1.05659 1.05335 1.03597 1.00916 1.35547 3.12576 0.99124 0.868191 0.85596 0.833891 0.834132 0.860499 0.809415 0.801721 2.09215 0.727429 0.707814 0.690837 0.690313 1.70499 0.660079 0.644676 0.58133 0.508175 0.496535 0.489371 0.473445 0.470385 0.591875 0.839854 0.443966 0.43269 0.521887 0.412872 0.381888 0.358002 0.355623 0.346841 0.463355 0.340017 0.322964 0.32159 0.317119 0.292433 1.56167 0.291246 0.271105 0.264637 0.231791 0.228691 0.217457 0.213566 0.17019 0.143406 0.10594 0.101724 0.0996038
threshold=351.50000000000006 1749.5000000000002 83.500000000000014 3179.5000000000005 1159.5000000000002 15.500000000000002 80.500000000000014 1.0000000180025095e-35 -1.0000000180025095e-35 4.5000000000000009 771.50000000000011 4214.5000000000009 16.500000000000004 2321.5000000000005 2.5000000000000004 5.5000000000000009 839919.81500000006 -0.87108630952380939 1.0000000180025095e-35 178.50000000000003 20.500000000000004 124.50000000000001 463.50000000000006 35.290000000000006 19.500000000000004 225.215 15.981428571428573 4.5000000000000009 4.5000000000000009 1.0000000180025095e-35 1071.5000000000002 2032.9200000000003 1024.5000000000002 -0.92000000000001247 35.500000000000007 47.230000000000011 -245.98499999999999 -12.484999999999998 229621.70500000002 119.50000000000001 1505.7500000000002 -0.064999999999999988 6.5000000000000009 -81.759999999999977 2.5000000000000004 -19.229999999999997 -10.784999999999998 1.0000000180025095e-35 117.50000000000001 0.9850000000000001 -805.92999999999995 24.095000000000002 602.50000000000011 -71.540202742993429 -90.254999999999981 26.380000000000006 580.50000000000011 625803.81500000006 7069.5000000000009 13.500000000000002 190.50000000000003 410.50000000000006 -15810.845214843748 -143415.49999999997 569.34329223632824 94.615000000000023 -61.939999999999991 1876.5000000000002 107.50000000000001 756.46500000000026 1.0000000180025095e-35 2063.5000000000005 1642.5000000000002 1.5000000000000002 -38.514999999999993 673.10000000000014 3715.5000000000005 -111.89999999999999 641.41500000000008 1443.5000000000002 -508.02499999999992 -61.939999999999991 2621.0000000000005 3.5000000000000004 -14.714999999999998 514.09875000000022 -222.43499999999997 -1.1349999999999996 243.9299873353597 229.50000000000003 694.50000000000011 214.46527096774196 -7476.2143554687491 57.500000000000007 12.42999999999998 1726.5000000000002 5.5000000000000009 124.44788734607253 1.0000000180025095e-35 183.02004545454548 148.50000000000003 1185.5000000000002 -0.66999999999999993 3236.974975585938 698.01971435546886 736857.97000000009 764.59435461502062 257.62322352362759 14791.594726562502 244.50000000000003 -163.98499999999999 45.500000000000007 227.50000000000003 303.50000000000006 1909.1650000000002 574.2650000000001 2441.8000000000006 5.5000000000000009 -70180.249999999985 942.50000000000011 1.0000000180025095e-35 121.50000000000001 398.50000000000006 368.01103535353542 -190.07499999999996 -1065.2199999999998
decision_type=2 2 2 2 2 2 2 2 2 2 2 2 2 2 2 2 2 2 2 2 2 2 2 2 2 2 2 2 2 2 2 2 2 2 2 2 2 2 2 2 2 2 2 2 2 2 2 2 2 2 2 2 2 2 2 2 2 2 2 2 2 2 2 2 2 2 2 2 2 2 2 2 2 2 2 2 2 2 2 2 2 2 2 2 2 2 2 2 2 2 2 2 2 2 2 2 2 2 2 2 2 2 2 2 2 2 2 2 2 2 2 2 2 2 2 2 2 2 2 2 2 2 2 2 2 2
left_child=2 4 7 13 10 9 18 8 28 20 12 76 38 45 16 23 17 -10 21 -11 -4 -7 47 -16 25 44 111 -19 29 -1 60 61 33 43 39 -14 40 -22 -2 -35 55 -38 82 66 -17 71 -47 65 -9 62 92 -52 99 93 -55 77 110 -43 -13 -32 85 69 70 -36 -65 109 68 114 -12 102 -34 94 73 78 100 -42 -5 90 79 115 -81 124 83 -15 -68 91 -64 106 -89 -67 118 -6 105 119 -3 -74 97 -70 -99 -24 -75 -102 112 -46 -101 -51 107 122 -49 -8 -57 -26 -23 -114 -48 -61 -109 -72 -37 -41 -98 -80 -62 -93 -58 -120
right_child=1 3 5 11 30 6 22 48 14 19 32 58 35 42 15 24 -18 27 -20 -21 37 31 52 -25 26 -27 -28 -29 -30 -31 59 -33 49 34 63 36 41 -39 -40 53 75 57 -44 -45 103 46 67 108 -50 50 51 -53 -54 54 -56 56 81 -59 -60 72 87 -63 86 64 -66 89 84 -69 96 -71 117 -73 95 74 -76 -77 -78 -79 121 80 -82 -83 -84 -85 -86 -87 -88 88 -90 -91 -92 123 -94 -95 -96 -97 120 98 -100 104 101 -103 -104 -105 -106 -107 -108 116 -110 -111 -112 -113 113 -115 -116 -117 -118 -119 125 -121 -122 -123 -124 -125 -126 -127
leaf_value=-0.034904926188290115 -0.0025978538907532179 0.022005487335143521 0.01071175812617425 0.035806049484998805 0.0034641360178913755 -0.038339143763367951 -0.022902971172760894 -0.062277903555824771 -0.01956318403374065 -0.034632738530297164 0.0088077243192290731 0.047972803998136235 -0.00016785501292906701 0.017815923774564587 -0.068147849939763541 -0.029017638122257976 -0.010330553041601723 -0.031743876315366758 -0.044770182329043749 -0.009587636443121092 -0.0018965201112799918 -0.021845687916438126 -0.0098715202948078517 -0.04704952899498098 -0.039093373308127573 -0.016508806826546787 -0.049781021580273324 -0.053385374452616721 -0.066772646676910963 -0.060491404737532145 0.021464207852880158 -0.014037603801914624 -0.00028477895124392078 -0.013519857638270447 0.0051721915774915767 -0.012325596794486046 -0.025689576352636016 -0.016261204987764361 0.012134396666893735 -0.00081664820693965476 -0.004795448041855074 -0.0082197213788186355 0.017118313878242461 0.011787363265725699 -0.048811065700885496 0.0049948283093316208 0.0212781400811092 -0.018596288484377929 -0.047109075233854089 0.0050701155229048289 -0.0093393939478389389 0.0032773894091015273 -0.0044650180845388346 -0.016618699409599813 0 -0.012043400637805462 -0.0074298872452589777 -0.018448726995337391 0.059325308825075633 0.017318478759378194 0.011098135465479426 -0.020307334933429955 0.0057966195077169694 -0.0057680811370887297 0.0033185729004012849 -0.032687031054496767 -0.0061412156652400473 0.011889912758022547 -0.0042836873879922282 -0.038955676436424252 0.0090545229104792933 0.024612490482842794 0.017406417257189537 0.016529694356996083 1.6883157766782312e-05 0.0042063568640234219 0.0404541115398434 -0.00089451241298862125 0.019314141456969081 0.011858187512077135 0.0038017450877680229 -0.012429561948991918 0.029344493145895139 0.027166882983172259 0.0012521584087184497 0.0012655425667762758 0.013787762910425664 0.013691726043820381 0.0027878950658966509 -0.021881084015592932 -0.0029279933680739739 0.007376302498838176 0.0081377373282676153 -0.0044886644645170731 0.017480376584025528 0.011915082284063102 0.0018935341920268028 0.0045196734587794963 -0.0029251747260039497 -0.018464458325079505 0.0059750918285413224 0.013142201638647488 -0.034908734300557305 -0.035241839515214611 -0.01231879090343512 -0.00019281498927865986 0.015821012728214266 0.0063621217999141663 -0.011182198973638671 -0.01646308467686176 -0.019906941909875187 -0.027009107753634451 -0.032891926798602221 -0.024844771321504738 0.014704720935360951 0.010414003034787518 0.011364995939149098 0.0038824925885668823 -0.005243130473986916 0.0030730525018728295 0.006159629808605782 0.014478882963476826 0.014876893899869174 0.012150635671535773 -0.0038048283850241984 -0.0093751468615539905
leaf_weight=23 20 121 30 217 22 103 66 178 21 32 21 166 31 36 47 22 21 25 59 20 38 28 23 33 21 31 85 36 91 39 26 20 32 37 36 21 26 21 31 27 22 30 27 21 37 20 112 25 28 21 27 22 20 20 20 20 30 30 39 23 100 23 23 33 25 29 26 23 20 23 22 151 98 22 25 20 241 22 23 28 25 37 303 184 20 21 24 22 33 23 22 22 22 21 77 34 30 34 21 41 21 27 33 21 30 22 24 39 20 29 20 21 70 77 21 20 21 20 22 22 20 136 31 20 20 20
leaf_count=23 20 121 30 217 22 103 66 178 21 32 21 166 31 36 47 22 21 25 59 20 38 28 23 33 21 31 85 36 91 39 26 20 32 37 36 21 26 21 31 27 22 30 27 21 37 20 112 25 28 21 27 22 20 20 20 20 30 30 39 23 100 23 23 33 25 29 26 23 20 23 22 151 98 22 25 20 241 22 23 28 25 37 303 184 20 21 24 22 33 23 22 22 22 21 77 34 30 34 21 41 21 27 33 21 30 22 24 39 20 29 20 21 70 77 21 20 21 20 22 22 20 136 31 20 20 20
internal_value=4.25626e-05 0.0165524 -0.0370134 0.0310607 0.00390859 -0.0245833 -0.0272931 -0.0510316 -0.0475404 -0.0102103 -0.00249001 0.0421522 -0.00760222 0.0241845 -0.0424794 -0.0453167 -0.0333391 -0.0389999 -0.0331996 -0.0254193 -0.00110718 -0.0312672 -0.0187868 -0.0601701 -0.0400805 -0.0342395 -0.0448549 -0.0452193 -0.0610809 -0.051752 0.0123057 -0.0284682 0.000806261 -0.000707768 -0.00345677 -0.00943333 -0.0102159 -0.00724518 0.0063605 -0.00622349 -0.0078665 -0.0175441 0.027394 0.0023902 -0.0407845 0.0207708 0.0176677 -0.0221113 -0.0604682 0.00373455 0.000940458 -0.00366246 -0.013018 -0.00364255 -0.008546 -0.00917898 -0.0114493 -0.013602 0.0504246 0.0140669 0.00974451 -0.0295331 0.00631313 0.000858308 -0.00181071 -0.0239402 0.0012911 0.0192312 0.00264421 -0.0303473 0.00373852 0.0222721 0.0136181 0.0126247 0.009261 -0.000440972 0.0383412 -0.00637547 0.0138251 0.0111966 0.00825431 -0.00896081 0.0278851 0.0257378 -0.00290463 0.0062946 0.0101419 0.0107923 0.00736961 -0.0284671 -0.00773229 0.00785375 0.00445872 -0.000717416 0.0203575 0.0161148 0.00152325 0 0.00162205 -0.0147401 0.0124735 0.0102537 -0.0291992 -0.0446295 -0.0161165 0.00236609 0.0116158 0.0109921 -0.0156811 -0.0211603 -0.016438 -0.0338896 -0.0279133 -0.0288934 0.0203801 0.0144849 0.00831991 0.00680899 -0.00929114 0.000896281 0.00374611 0.0153134 0.012121 0.00994926 -0.00614172 -0.00745279
internal_weight=5397 3734 1663 1738 1996 883 742 780 574 141 1133 663 444 1075 421 318 103 82 436 52 89 377 306 80 238 111 127 61 153 62 863 274 689 454 241 393 362 59 51 147 276 86 550 213 80 525 176 192 206 235 114 49 114 110 40 234 127 60 205 508 355 254 121 94 58 147 192 156 146 231 74 349 482 350 95 42 458 107 255 96 53 87 523 220 46 85 47 270 55 52 85 64 65 70 198 132 125 75 55 94 70 48 208 58 71 43 215 191 45 95 40 42 175 147 133 43 60 42 63 49 50 159 131 42 50 42
internal_count=5397 3734 1663 1738 1996 883 742 780 574 141 1133 663 444 1075 421 318 103 82 436 52 89 377 306 80 238 111 127 61 153 62 863 274 689 454 241 393 362 59 51 147 276 86 550 213 80 525 176 192 206 235 114 49 114 110 40 234 127 60 205 508 355 254 121 94 58 147 192 156 146 231 74 349 482 350 95 42 458 107 255 96 53 87 523 220 46 85 47 270 55 52 85 64 65 70 198 132 125 75 55 94 70 48 208 58 71 43 215 191 45 95 40 42 175 147 133 43 60 42 63 49 50 159 131 42 50 42
is_linear=0
shrinkage=0.03


Tree=5
num_leaves=127
num_cat=0
split_feature=2 0 2 0 0 2 35 35 0 22 35 0 22 16 19 34 22 0 0 11 11 0 11 14 2 15 22 15 0 14 28 10 0 10 16 0 14 22 16 0 34 0 14 15 21 4 0 15 2 0 4 14 10 0 11 4 2 4 19 11 11 4 22 0 15 0 15 36 14 28 14 10 34 38 16 27 21 2 22 22 22 14 15 14 21 16 15 27 0 22 22 34 4 21 0 0 2 14 4 19 10 27 28 16 14 14 15 16 19 37 4 19 14 4 0 16 0 11 16 11 15 2 2 16 16 27
split_gain=3411.48 646.577 352.53 136.767 93.977 40.8699 32.5544 32.5478 20.2091 15.3454 15.1288 12.758 12.7353 12.2545 19.2956 12.1281 11.3623 11.2017 11.0301 6.87767 6.22093 6.71284 6.07428 5.68907 5.21158 8.47742 5.14891 5.07592 4.20903 4.13154 4.06498 4.00969 3.81143 3.75854 3.75786 3.53116 3.48874 4.07226 3.45606 3.40294 3.37117 3.17317 2.96233 2.9235 2.9052 3.52534 3.55275 4.05448 2.65761 2.09206 2.01236 2.05919 1.94841 2.9231 1.92881 2.63531 1.90048 1.89394 1.8874 2.75551 2.13208 1.80541 2.78566 1.79801 1.71977 1.66087 1.52447 2.79104 1.51872 2.39814 1.77723 4.18404 1.3752 1.25737 1.19814 1.17481 1.14607 1.09428 1.07351 1.05554 1.83071 1.03127 1.00388 0.993769 0.946008 0.934313 0.913802 0.871275 0.848956 0.844037 1.00213 2.50131 0.817007 0.938656 0.815392 0.797741 0.789322 0.730698 1.19727 0.660556 0.641698 0.599162 0.571505 0.559933 0.526948 0.524817 0.518434 0.476515 0.51328 0.444675 0.896711 0.429626 0.512557 0.419305 0.38229 0.328965 0.275404 0.243103 0.232343 0.221884 0.250255 0.167879 0.232839 0.163125 0.153646 0.153492
threshold=403.50000000000006 1749.5000000000002 83.500000000000014 3179.5000000000005 1159.5000000000002 237.50000000000003 1.0000000180025095e-35 -1.0000000180025095e-35 4504.0000000000009 56.277891854893916 1.0000000180025095e-35 796.50000000000011 51.034907597535941 1.3571130952380954 14.380000000000001 1.0000000180025095e-35 41.984941820670777 341.50000000000006 2108.0000000000005 0.3776379632451502 7.1153408157327744 410.50000000000006 1.0000000180025095e-35 -47.124999999999993 17.500000000000004 -0.92000000000001247 41.253935660506507 -0.30499999999999994 5915.5000000000009 -87.329999999999984 1.5000000000000002 -42.915322674418597 1502.5000000000002 -17.564364937388188 0.83115384615384624 237.50000000000003 -100.72999999999998 56.284736481861749 170.74472756410259 26.500000000000004 1.5000000000000002 593.50000000000011 -0.034999999999999996 0.069999999999999937 65.500000000000014 16.383575439453129 901.50000000000011 5.1100000000000003 40.500000000000007 2621.0000000000005 -7894.3327636718741 -48.189999999999991 -33.023831168831158 353.50000000000006 241.02503443786807 -1285.0328369140623 625.50000000000011 -101.05029296874999 1183.0850000000003 20.571588885853 64.063322619018308 4008.953491210938 37.385352498288846 433.50000000000006 -62.240000000000023 712.50000000000011 1.0000000000000002 1.0000000180025095e-35 -35.694999999999993 2.5000000000000004 0.74500000000000011 -53.793482404692078 9.5000000000000018 1.5000000000000002 761.10827380952389 2441941.9650000003 63.500000000000007 1100.5000000000002 54.736481861738547 67.263518138261489 53.507186858316224 -38.514999999999993 -0.42499999999999993 10.610000000000001 3.5000000000000004 383.97095238095238 -237.47999999999999 319896.90000000008 204.50000000000003 78.197125256673516 50.819986310746067 2.5000000000000004 15401.163574218752 60.500000000000007 63.500000000000007 967.00000000000011 827.50000000000011 -134.02999999999997 12442.935546875002 730.35500000000013 335.37643750000007 55979.92500000001 3.5000000000000004 208.98502443792771 -56.939999999999991 -6.8499999999999988 11.650000000000004 172.48626180836712 465.25000000000006 1.0000000180025095e-35 -25758.823242187496 3804.6700000000005 -175.92999999999998 7476.9306640625009 1097.5000000000002 387.96782810685255 952.50000000000011 65.741090289559978 591.93452380952397 350.30284686458862 100.00500000000001 877.00000000000011 1034.5000000000002 46.671468253968257 429.3584737156512 898816.37000000011
decision_type=2 2 2 2 2 2 2 2 2 2 2 2 2 2 2 2 2 2 2 2 2 2 2 2 2 2 2 2 2 2 2 2 2 2 2 2 2 2 2 2 2 2 2 2 2 2 2 2 2 2 2 2 2 2 2 2 2 2 2 2 2 2 2 2 2 2 2 2 2 2 2 2 2 2 2 2 2 2 2 2 2 2 2 2 2 2 2 2 2 2 2 2 2 2 2 2 2 2 2 2 2 2 2 2 2 2 2 2 2 2 2 2 2 2 2 2 2 2 2 2 2 2 2 2 2 2
left_child=2 4 6 18 11 10 7 15 118 13 12 16 19 26 -15 94 31 66 72 -4 30 52 -17 35 -11 36 -9 48 -10 65 -7 -2 40 -25 -27 -21 -26 -38 50 -8 77 64 -12 -35 45 46 47 103 -16 89 -23 -52 53 -22 55 81 -49 -33 59 -31 -61 62 -47 82 86 79 67 -14 74 -70 71 -71 123 97 96 100 -51 119 -79 80 -18 -42 -19 104 -57 -67 -40 -54 -68 90 91 -20 93 99 -1 -64 109 113 -99 -56 107 -55 -82 -13 -66 -62 -29 108 -34 110 -48 112 -109 -63 -98 -43 -111 -114 -5 121 -121 -6 -123 -3 -125 -115
right_child=1 3 5 8 32 20 39 9 28 24 42 44 17 14 27 22 29 63 49 23 21 38 -24 33 25 34 -28 106 -30 58 -32 57 75 43 -36 -37 37 -39 41 -41 54 115 -44 -45 -46 61 68 56 -50 76 51 -53 87 101 92 84 -58 -59 -60 60 105 73 95 -65 83 85 88 -69 69 70 -72 -73 -74 -75 -76 -77 -78 78 -80 -81 102 -83 -84 -85 -86 -87 -88 -89 -90 -91 -92 -93 -94 -95 -96 -97 114 98 -100 -101 -102 -103 -104 -105 -106 -107 -108 111 -110 116 -112 -113 117 125 -116 -117 -118 -119 -120 120 -122 122 -124 124 -126 -127
leaf_value=-0.069450643837451934 -0.0054149110533974389 0.01473826997082394 -0.002488600027302037 0.037737239120703814 0.016173806700516831 -0.01338954751752317 -0.071853599962350481 -0.029047992556110805 0.043890713422906166 -0.054884593020658942 -0.047667080384865404 -0.0028492929834340298 -0.030681585802056807 -0.062609972781605183 -0.032201587507931083 -0.032605079483369298 -0.0020422309411858965 -0.014141759648054307 0.02461007008404802 -0.0027891966934714993 -0.0093972991285845645 -0.014887776561405348 -0.054487652121363458 -0.035576145606821978 -0.023847248084843155 -0.038215903991460791 -0.010402529053688049 -0.044985616940876536 0.054196798763491885 -0.003439992615154811 0.0030629601097769206 0.0037014028541743752 0.013287712842903351 -0.027994799969717859 -0.056418450988068879 -0.018580845893081274 -0.030244543804363772 -0.049768521337509149 -0.015956222413785078 -0.056744697349852519 0.0037036492162599009 -0.0045744415234242166 -0.030331705107092856 -0.01194772288531065 -0.0082194916901724615 0.017734458166573729 0.0050060750524699698 -0.0047658434424718669 -0.016791596997943189 0.028727558435324357 0.0019269376652171978 -0.010674642055162361 -0.034308789363929199 -0.017215185612359126 0.009125942365836295 0.003718723614301 -0.01768773392261937 0.016301851157908855 -0.0045791106211642433 -0.024095992878377433 -0.0098079673841252532 0.0096430900740836351 0.00088744520652910756 -0.0085628670901060095 -0.018454871239907602 0.0024691325474996118 -0.041349654105802373 -0.017020215212113478 0.0049526560312835501 0.0002888778627384454 0.00094826366859037542 -0.018095063111611773 0.011291214229332075 -0.0035260816215723751 -0.0037994286996378959 0.019368842462495879 0.019242448184639216 0.020682207049293948 0.012515946877512091 -0.0024989868831238708 -0.008288762338392968 -0.0048185625153779992 -0.025835738343851902 -0.012702095969495448 0.012609988839395583 -0.0049426696622294599 -0.0070187908287414101 -0.021397774599492547 -0.031954994618892674 0.0158430466396468 0.025537500052448099 0.013220930593855242 0.0040104973222250522 0.0041318000448601587 -0.05269840946793556 0.0086015305634911943 0.0093221426680684099 -0.0029720774363726377 0.0054113808383323978 0.014065040747635066 0.0087757860234123648 -0.02681952998563647 -0.01643770153105259 0.0036556575194829038 -0.025566877699146666 -0.016125622931950013 -0.032179030654522087 0.018041193435464488 0.0066113905561241242 0.0010591078331427914 -0.0022585616293721474 0.010160350857159266 0.0096371719562448558 0.0019383259485273256 0.0034407530321993612 -0.010651046295528826 0.0056103182887392378 0.014818425598227091 0.032639075484769096 0.011195805966116065 0.0068988218451426784 0.0094492981102641503 0.014654934076422994 0.020923928482131551 0.017744144105342859 0.0057344017665212355
leaf_weight=63 21 25 22 317 21 26 36 37 152 63 39 20 130 26 25 28 21 20 58 20 23 22 36 28 27 29 24 28 98 20 26 23 43 23 48 39 32 24 32 173 25 20 24 24 28 20 24 21 26 271 25 20 20 22 66 20 23 22 26 24 37 20 28 20 50 31 35 21 34 23 30 20 26 24 20 48 23 32 48 29 20 24 20 21 30 28 21 20 80 20 298 33 22 20 26 22 28 29 30 63 31 29 24 26 35 33 25 76 21 20 38 25 23 22 21 22 41 73 86 52 32 45 21 193 96 26
leaf_count=63 21 25 22 317 21 26 36 37 152 63 39 20 130 26 25 28 21 20 58 20 23 22 36 28 27 29 24 28 98 20 26 23 43 23 48 39 32 24 32 173 25 20 24 24 28 20 24 21 26 271 25 20 20 22 66 20 23 22 26 24 37 20 28 20 50 31 35 21 34 23 30 20 26 24 20 48 23 32 48 29 20 24 20 21 30 28 21 20 80 20 298 33 22 20 26 22 28 29 30 63 31 29 24 26 35 33 25 76 21 20 38 25 23 22 21 22 41 73 86 52 32 45 21 193 96 26
internal_value=0.00010433 0.0170033 -0.0341058 0.0303912 0.00477134 -0.0220935 -0.0492088 -0.0452414 0.0411771 -0.0406164 -0.0275793 -0.00149646 -0.0256467 -0.0338761 -0.0391933 -0.0573915 -0.00601342 -0.0290765 0.0236026 -0.0183205 -0.01515 -0.016479 -0.0456091 -0.0208599 -0.0461991 -0.0424409 -0.0220466 -0.03277 0.0481425 -0.00854585 -0.00520411 0.005144 0.012026 -0.0264247 -0.0501792 -0.0134134 -0.0347144 -0.0393909 -0.0137567 -0.0596912 0.0103471 -0.0157478 -0.0416871 -0.0202827 0.00104596 0.00148892 -0.00022466 -0.00542293 -0.0248772 0.0257964 -0.00759538 -0.00371885 -0.0226775 -0.0190943 0.00793522 0.00447834 -0.0118301 0.0101473 -0.0122784 -0.0139532 -0.0160987 0.00450607 0.0084788 -0.016809 -0.0177126 -0.00505344 -0.0317591 -0.0289259 0.0013429 -0.00149374 -0.00456307 -0.00841053 0.0189955 0.00260101 0.00293883 0.0145519 0.0280634 0.0128878 0.0160345 -0.00751479 -0.00963539 -0.000423384 -0.0205495 -0.0200659 0.00925496 -0.00102209 -0.0126661 -0.0286058 -0.0351719 0.0240949 0.0244698 0.0207011 0.00988145 0.0106958 -0.06523 0.00444257 0.00375712 0.00380083 0.00125984 0.0116508 0.0136865 -0.0231449 -0.0130668 0.00076314 -0.0216815 -0.0130137 -0.0397081 0.0142225 0.0112786 0.00240276 0.000540761 0.015102 0.01574 0.00591182 0.00698077 -0.00800087 0.00420766 0.0137202 0.0367402 0.0113136 0.00969457 0.0127148 0.0113444 0.0195861 0.0199428 0.00413082
internal_weight=5309 3554 1755 1696 1858 979 776 567 653 414 545 997 482 191 130 153 359 326 1043 156 434 382 64 134 223 160 61 104 250 293 52 66 861 75 77 59 83 56 268 209 521 201 63 47 638 610 389 90 51 703 67 45 114 74 270 99 44 45 140 114 94 221 70 60 159 153 266 151 299 107 73 43 340 151 192 340 294 251 80 94 65 49 40 106 50 59 53 40 115 409 389 91 171 149 89 50 172 127 59 129 292 51 44 46 85 70 53 261 64 123 62 197 172 68 49 42 61 96 403 171 84 87 66 314 289 48
internal_count=5309 3554 1755 1696 1858 979 776 567 653 414 545 997 482 191 130 153 359 326 1043 156 434 382 64 134 223 160 61 104 250 293 52 66 861 75 77 59 83 56 268 209 521 201 63 47 638 610 389 90 51 703 67 45 114 74 270 99 44 45 140 114 94 221 70 60 159 153 266 151 299 107 73 43 340 151 192 340 294 251 80 94 65 49 40 106 50 59 53 40 115 409 389 91 171 149 89 50 172 127 59 129 292 51 44 46 85 70 53 261 64 123 62 197 172 68 49 42 61 96 403 171 84 87 66 314 289 48
is_linear=0
shrinkage=0.03


Tree=6
num_leaves=126
num_cat=0
split_feature=0 0 2 0 0 2 9 35 35 35 9 2 22 22 0 0 9 2 0 22 9 2 9 16 28 2 0 22 0 15 19 21 12 13 13 15 0 13 13 2 10 12 12 16 2 4 13 0 12 20 0 19 2 15 22 17 4 13 21 12 12 22 0 2 9 10 0 22 16 1 13 1 2 27 0 15 15 17 0 4 4 4 0 15 13 15 13 13 12 2 32 22 0 18 15 0 13 16 4 0 16 22 22 22 12 1 1 27 15 13 10 4 0 17 0 1 37 19 22 0 17 19 15 20 17
split_gain=3154.01 501.206 423.252 100.817 87.1428 67.3144 45.0412 28.8443 29.8051 19.0206 18.9395 17.863 17.6517 12.3108 10.1228 9.44347 9.33466 12.4924 9.03782 6.50907 13.7862 4.99186 4.85169 5.11476 4.64207 4.59582 4.53882 4.01817 3.97261 5.15031 3.56893 3.54757 3.33853 3.3054 2.84158 2.72919 2.64743 2.17939 5.06249 6.89635 2.23612 2.11296 3.85474 2.03619 2.02144 1.92787 1.90035 1.77761 1.77397 2.27762 1.70232 1.6075 2.06093 1.58734 1.56965 1.50192 1.49203 1.46965 1.29323 1.25473 2.12902 1.1937 1.14013 1.1198 1.11241 1.09258 1.07366 2.6962 1.06095 1.03491 1.03313 1.35234 1.26092 2.06153 1.86072 1.00401 2.68918 1.15882 0.963118 1.07772 1.07526 0.956661 0.940885 0.924926 0.854061 0.846936 0.803657 0.783709 0.745087 0.735696 0.755289 1.24385 0.733128 0.646185 0.626882 0.899192 0.657211 0.710658 0.584625 0.574326 0.561012 0.559638 0.521091 1.27127 0.740718 0.49033 0.450771 0.42927 0.410484 0.409162 0.379594 0.373792 0.365781 0.303277 0.262731 0.205782 0.169297 0.158821 0.146064 0.12353 0.113353 0.0951499 0.0223272 0.0188799 0.00847237
threshold=694.50000000000011 2022.5000000000002 93.500000000000014 1159.5000000000002 3179.5000000000005 284.50000000000006 8.5000000000000018 1.0000000180025095e-35 -1.0000000180025095e-35 1.0000000180025095e-35 16.500000000000004 4214.5000000000009 56.277891854893916 46.053388090349081 1547.0000000000002 508.50000000000006 3.5000000000000004 6.5000000000000009 313.50000000000006 52.88432580424368 1.0000000180025095e-35 173.50000000000003 14.500000000000002 5.0531250000000005 3.5000000000000004 22.500000000000004 2321.5000000000005 56.284736481861749 1024.5000000000002 0.14500000000000005 47.230000000000011 2.5000000000000004 -48.834999999999994 -2.2649999999999992 1009.455 -48.089999999999996 440.50000000000006 72.720000000000013 -9.9849999999999977 702.50000000000011 418.20550054555378 -12.484999999999998 -78.714999999999989 443.25619047619051 1282.5000000000002 -349.48034667968744 0.9850000000000001 84.500000000000014 -805.92999999999995 8.5450000000000017 117.50000000000001 1024.4650000000001 423.50000000000006 -1.7900000000000029 54.970568104038342 480.72620825801732 -390.59213256835932 632.40000000000009 64.500000000000014 -56.144999999999989 -114.22499999999998 49.258042436687205 1749.5000000000002 724.50000000000011 7.5000000000000009 -207.97462530712528 2673.5000000000005 41.728952772073931 231.43275613275617 -124912.77343749999 -52.504999999999995 27404.185546875004 460.50000000000006 351248.97000000003 593.50000000000011 165.98000000000002 399.53000000000009 538.40556465528834 1219.0000000000002 569.34329223632824 -18209.779296874996 383.43298339843756 6572.5000000000009 -19.719999999999995 -5.5599999999999996 -116.33 72.720000000000013 4750.2300000000005 -2983.0949999999998 552.50000000000011 1.0000000180025095e-35 57.871321013004795 611.50000000000011 25.055000000000003 576.31000000000017 1420.5000000000002 2306.0300000000002 450.99046536796544 -17603.848632812496 145.50000000000003 761.10827380952389 76.420260095824787 59.190965092402472 41.575633127994529 -595.44999999999993 3236.974975585938 5353.4245605468759 1086940.7950000002 -66.964999999999989 310.85000000000008 -543.02541666666662 675.69558715820324 922.50000000000011 88.16266129128384 63.500000000000007 25292.966796875004 1.0000000180025095e-35 717.70000000000016 57.630390143737174 554.50000000000011 457.43527508741062 553.94500000000005 77.489999999999995 11.590000000000002 59.690835723071849
decision_type=2 2 2 2 2 2 2 2 2 2 2 2 2 2 2 2 2 2 2 2 2 2 2 2 2 2 2 2 2 2 2 2 2 2 2 2 2 2 2 2 2 2 2 2 2 2 2 2 2 2 2 2 2 2 2 2 2 2 2 2 2 2 2 2 2 2 2 2 2 2 2 2 2 2 2 2 2 2 2 2 2 2 2 2 2 2 2 2 2 2 2 2 2 2 2 2 2 2 2 2 2 2 2 2 2 2 2 2 2 2 2 2 2 2 2 2 2 2 2 2 2 2 2 2 2
left_child=2 3 7 28 26 6 12 8 19 18 24 93 21 16 44 32 17 -10 22 20 -1 -4 -8 -24 81 33 101 47 29 41 -17 -18 43 -15 105 -29 57 38 55 45 54 42 85 65 59 -40 84 -27 107 -50 64 70 -53 -33 -39 63 -49 61 66 60 78 -20 87 69 -9 -12 67 -28 -11 -31 116 72 74 -74 119 77 -77 124 79 80 -5 -7 -13 -67 98 88 106 113 109 -90 91 -91 -73 100 96 118 97 102 -30 -37 -6 -3 103 -80 108 -25 -87 117 -105 -2 -45 -100 -56 123 -21 -107 -32 -48 -96 -72 -98 -104 -123 -16 -64
right_child=1 4 5 14 11 10 9 50 13 68 15 82 -14 25 62 30 31 -19 36 114 -22 -23 23 34 -26 27 58 35 46 37 51 53 -34 -35 -36 99 -38 40 39 -41 -42 -43 -44 110 -46 -47 48 56 49 -51 -52 52 -54 -55 112 -57 -58 -59 -60 -61 -62 -63 75 -65 -66 83 -68 -69 -70 -71 71 92 73 -75 -76 76 -78 -79 94 -81 -82 -83 -84 -85 -86 86 -88 -89 89 90 -92 -93 -94 -95 95 -97 120 -99 111 -101 -102 -103 121 104 -106 115 -108 -109 -110 -111 -112 -113 -114 -115 -116 -117 -118 -119 -120 -121 -122 122 -124 -125 -126
leaf_value=-0.022515711286238263 -0.0033005085609432668 0.021452608120335 -0.0015635834432417344 0.0089345536413788802 0.037461906545095562 0.0018294619683708461 -0.017355037356274469 -0.048314081362634903 -0.035608515480389957 -0.04941712301969528 -0.018030136745423076 0.044357948954288781 -0.024027663590312002 -0.036348167266983249 0.0094655386842787265 0.0020756799646399235 -0.026081434484619387 -0.0065338965455070137 -0.016881512895057144 -0.064731890008334195 -0.055388552361413053 0.016666061274707319 -0.017803641925798728 -0.035349228926002979 0.012702310762097758 -0.026977601421251891 0.015003125705065266 -0.031915805439949034 0.00062287015599694342 -0.0083575162366032602 -0.0093441846184432516 -0.031517323620617391 -0.030157464125882022 -0.053876517738215626 -0.020447347014712597 -0.050789308159515781 -0.01311467494106874 0.0086251099569807678 -0.012513568233985167 -0.026493514284167598 -0.0075867292242182884 -0.0082414219177194999 0.013969774599586215 -0.016835468985817649 0.017426287607504771 -0.0010952461786568164 0.0029650767488139016 -0.04508672548617635 -0.010550900686830282 0.001509583998355083 -0.044656828030943868 -0.011014606705959887 0.00040375255420804025 -0.046521687627956262 -0.0038297558921267802 -0.0094586781872944403 -0.031405688286834474 -0.013504078385166146 0.017387908809185029 0.015783471765927971 0.0010543328374624252 -0.025088139724452049 0.015871621827284493 0.0041697721678827862 -0.060591373312884361 -0.0045967492588928766 0.028421246277639665 0.025819685401725787 -0.034429466548173318 0 -0.018311795440717385 -0.011650255392950315 -0.012066446252581145 -0.025864162584258749 -0.0063425991440048705 0.004963386044554088 0.017704060560245004 0.011045032645974841 0.013732413548652246 0.011953084897536497 0.00050559431957927607 -0.0071790153737446034 0.053310398825144364 -0.013618649163636667 0.011170514023862779 0.0024325527606312842 -0.0060177443677260139 0.0084377535852836454 -0.0011779586706496775 0.010481787620752584 0 0.0015233781440017213 -0.003787646692479029 0.031400079281492667 0.0069956260568329268 0.0019363883052553449 0.017825770302252335 0.012696275206031025 0.0079706263693315633 -0.037219370958597765 0.028759957158565518 0.014186472180214795 0.0078331501353532083 0.0037111542847539695 0.00093567560097345944 -0.023954255565744018 -0.0028678347577527166 0 0.0099583988386605475 0.0020103365293153647 -0.025858384351730344 0.0027587000745787427 0.0015978184456803966 0.015839204239862209 -0.051144991735617318 -0.031759740604635552 -0.0051027168079465631 0.0073526055706398825 0.01210558603833551 -0.012069167661879744 0.011755947236133657 0.010451459635809367 0.014334413624622606 0.013741289602449306 0.020681337370860333
leaf_weight=20 30 244 30 24 321 20 34 39 25 35 32 142 24 25 23 21 28 29 32 61 37 23 31 131 30 39 30 24 30 20 32 23 22 63 25 57 40 21 25 22 31 20 20 21 38 29 20 27 24 31 31 29 26 39 22 21 36 21 24 35 26 127 26 28 144 20 248 217 22 37 25 25 26 21 36 22 60 20 22 25 32 20 58 28 20 33 27 23 24 31 23 27 23 87 20 20 21 110 34 22 29 21 21 20 25 28 24 20 27 21 24 25 20 219 35 67 24 20 22 20 22 48 21 25 146
leaf_count=20 30 244 30 24 321 20 34 39 25 35 32 142 24 25 23 21 28 29 32 61 37 23 31 131 30 39 30 24 30 20 32 23 22 63 25 57 40 21 25 22 31 20 20 21 38 29 20 27 24 31 31 29 26 39 22 21 36 21 24 35 26 127 26 28 144 20 248 217 22 37 25 25 26 21 36 22 60 20 22 25 32 20 58 28 20 33 27 23 24 31 23 27 23 87 20 20 21 110 34 22 29 21 21 20 25 28 24 20 27 21 24 25 20 219 35 67 24 20 22 20 22 48 21 25 146
internal_value=-0.00011483 0.0177041 -0.0299185 0.00771141 0.03121 -0.0185665 -0.024871 -0.0467434 -0.0431 -0.0276705 -0.0104832 0.0394816 -0.00319458 -0.0388765 0.013382 -0.0127162 -0.0310861 -0.0204516 -0.0258089 -0.0548129 -0.044493 0.00645397 -0.0291615 -0.0305081 0.00396382 -0.0425762 0.0244438 -0.039409 -0.000600879 -0.00196233 -0.00965582 -0.037139 -0.0189995 -0.0493949 -0.0319884 -0.0442858 -0.0208695 -0.00486462 -0.00677566 -0.0126436 -0.00110056 0.000894956 0.00163813 -0.0167882 0.0105443 -0.00656746 0.0027588 -0.0340732 3.57115e-05 -0.00379403 -0.0565271 -0.0105289 -0.00565244 -0.0415918 0.00211285 -0.00246155 -0.0379287 -0.0224943 0.0261815 0.0100242 0.00958952 -0.0235711 0.0162661 -0.000608079 -0.058268 -0.0134872 0.0265659 0.0245838 -0.0443775 -0.00303824 -0.0116428 -0.0128297 -0.0145042 -0.0187043 -0.0118321 0.0178427 0.014423 0.0192054 0.0100425 0.00679059 0.00426401 -0.00266684 0.0472214 -0.0100913 0.00557807 0.000544345 -0.00185278 0.0147099 0.00185779 0.00329964 0.0046611 0.00645884 -0.00809817 0.0358327 0.0106765 0.00749208 0.0112296 0.0106001 0.00417786 -0.0475603 0.0368334 0.0209436 0.00926892 0.00743097 0.0053027 -0.0331561 0.000138119 0.00360014 0.0074952 -0.00105939 -0.0221704 0.00589497 -0.00119838 0.0152055 -0.0603876 -0.0297639 -0.00770046 0.00535784 0.00996132 -0.0159252 0.0151262 0.0110528 0.011864 0.0119887 0.0200676
internal_weight=5343 3344 1999 1923 1421 1195 670 804 590 593 525 637 77 437 1143 455 144 54 536 153 57 53 316 282 70 293 784 205 780 556 308 90 147 88 251 103 220 276 182 76 94 280 260 125 579 54 224 102 115 55 214 287 55 62 63 106 63 180 519 541 506 159 564 85 183 80 495 247 57 57 232 176 128 47 81 274 82 192 480 81 56 40 200 48 109 240 84 290 156 105 81 58 48 437 399 62 337 294 89 79 350 265 184 94 72 226 57 60 47 51 45 59 42 267 96 95 56 40 42 45 43 90 69 48 172
internal_count=5343 3344 1999 1923 1421 1195 670 804 590 593 525 637 77 437 1143 455 144 54 536 153 57 53 316 282 70 293 784 205 780 556 308 90 147 88 251 103 220 276 182 76 94 280 260 125 579 54 224 102 115 55 214 287 55 62 63 106 63 180 519 541 506 159 564 85 183 80 495 247 57 57 232 176 128 47 81 274 82 192 480 81 56 40 200 48 109 240 84 290 156 105 81 58 48 437 399 62 337 294 89 79 350 265 184 94 72 226 57 60 47 51 45 59 42 267 96 95 56 40 42 45 43 90 69 48 172
is_linear=0
shrinkage=0.03


Tree=7
num_leaves=123
num_cat=0
split_feature=0 0 0 0 0 0 35 35 0 22 22 3 17 3 11 0 0 35 3 0 0 0 11 16 16 16 16 16 8 22 17 0 28 32 0 14 22 13 14 22 22 14 3 13 14 13 21 19 34 0 13 22 3 13 13 16 1 16 3 3 13 16 22 16 13 10 27 0 13 1 34 3 22 21 1 33 21 3 14 13 0 19 22 22 11 1 0 17 3 0 33 1 1 14 3 16 7 14 11 37 11 11 13 22 17 27 21 33 16 0 14 21 1 14 10 33 17 16 1 1 19 16
split_gain=3029.22 457.173 394.093 106.341 58.6871 55.1616 43.9597 47.5889 21.2754 18.5965 12.9234 11.2094 20.1813 11.0911 10.757 10.6422 8.1042 7.95356 10.1636 7.15821 6.82199 6.27317 6.26398 5.87944 4.96798 11.1786 4.77083 4.61966 3.74599 3.59186 3.35148 3.22648 2.99316 2.94919 2.43524 2.39439 2.38031 2.37332 6.35496 2.97731 2.36286 4.31089 4.93991 3.59791 2.33928 5.96597 5.54262 2.33658 2.21425 2.64379 2.24374 1.94029 1.79115 1.72015 1.61833 1.5775 1.48329 1.66311 2.04999 1.4668 1.44101 1.44028 1.42139 2.24757 6.46814 1.39593 1.84318 1.38093 1.37049 1.31159 1.26504 1.22715 3.15889 1.18704 1.09232 1.0564 1.05361 1.37856 0.954292 0.944681 0.934935 1.40332 0.909856 1.41719 0.876517 0.732062 0.720477 0.70532 0.60086 0.604199 0.781488 0.732102 2.43522 0.528526 0.494271 0.492473 0.490957 0.46562 0.43994 0.42199 0.546153 0.496921 0.401058 0.395002 0.393259 0.342334 0.325667 0.318321 0.303454 0.291087 0.26023 0.258246 0.258031 0.237413 0.19628 0.102351 0.0975606 0.0818457 0.0625412 0.0279936 0.0481881 0.00154829
threshold=726.50000000000011 2321.5000000000005 204.50000000000003 1159.5000000000002 3715.5000000000005 410.50000000000006 1.0000000180025095e-35 -1.0000000180025095e-35 1547.0000000000002 56.039698836413422 52.88432580424368 5.5000000000000009 0.53899917480531523 1.5000000000000002 1.0000000180025095e-35 5222.5000000000009 530.50000000000011 1.0000000180025095e-35 24.500000000000004 3179.5000000000005 1024.5000000000002 313.50000000000006 7.1153408157327744 193.77573308270681 170.74472756410259 50.51794883720931 3.6503947368421055 1.3571130952380954 1.0000000180025095e-35 82.780287474332667 5.4658281649467684 1749.5000000000002 2.5000000000000004 1.0000000180025095e-35 117.50000000000001 -4.919999999999999 58.314852840520196 -0.105 -31.504999999999999 41.984941820670777 43.106091718001373 -44.564999999999991 133.50000000000003 -2.7849999999999997 -32.554999999999993 4.2550000000000008 5.5000000000000009 622.96000000000015 1.5000000000000002 1502.5000000000002 2994.2000000000003 32.731006160164277 81.500000000000014 506.48000000000008 632.40000000000009 118.76402272727275 -13610.023437499998 286.75582926829276 143.50000000000003 83.500000000000014 -1.0000000180025095e-35 113.37830592105264 58.186173853524991 418.90962130937106 -6.4999999999999991 -94.311284584980228 533932.80500000005 2108.0000000000005 -1.7049999999999998 96366.375000000015 3.5000000000000004 131.50000000000003 54.736481861738547 59.500000000000007 -8544.9794921874982 1.0000000180025095e-35 29.500000000000004 181.50000000000003 -10.144999999999998 1704.1000000000001 2621.0000000000005 4345.170000000001 52.993839835728956 58.186173853524991 835.395016660436 2858.845581054688 6572.5000000000009 54.842050301985985 90.500000000000014 978.50000000000011 1.5000000000000002 -358921.49999999994 -119798.19140624999 -13.424999999999999 154.50000000000003 197.43014705882356 1.0000000180025095e-35 -311.66499999999991 262.68337322941187 1.5000000000000002 35.939555471503979 144.87234017728011 -54.744999999999997 65.826146475017126 133.32015492830655 1859177.4800000002 1.0000000180025095e-35 1.5000000000000002 503.91726190476197 1271.5000000000002 -111.89999999999999 60.500000000000007 -189194.45312499997 -414.77999999999992 -1074.0557014157012 2.5000000000000004 123.03686612177621 205.64029220779221 -238228.21874999997 -38091.513671874993 944.84000000000003 92.55215211589784
decision_type=2 2 2 2 2 2 2 2 2 2 2 2 2 2 2 2 2 2 2 2 2 2 2 2 2 2 2 2 2 2 2 2 2 2 2 2 2 2 2 2 2 2 2 2 2 2 2 2 2 2 2 2 2 2 2 2 2 2 2 2 2 2 2 2 2 2 2 2 2 2 2 2 2 2 2 2 2 2 2 2 2 2 2 2 2 2 2 2 2 2 2 2 2 2 2 2 2 2 2 2 2 2 2 2 2 2 2 2 2 2 2 2 2 2 2 2 2 2 2 2 2 2
left_child=2 3 6 20 19 17 7 10 48 11 14 12 -9 -11 -1 -6 23 18 -4 80 29 51 -23 33 25 27 -18 -13 52 40 -14 79 -29 61 -8 36 93 38 82 -39 43 88 47 -2 67 46 -46 -43 71 50 62 -20 75 85 73 -22 57 58 -41 -35 -45 -7 63 68 -65 95 -67 87 -50 -58 -47 72 -5 78 -68 -25 96 -78 -24 121 106 -82 -28 -84 -26 -53 -17 -33 -42 90 91 97 -93 -15 113 -57 -44 -90 103 100 -73 -101 -54 -64 -85 -81 -3 114 -89 -70 -38 -21 -100 -94 -97 -92 -104 -19 -116 -102 -121 -10
right_child=1 4 5 8 15 16 34 9 31 13 -12 24 30 35 -16 86 26 117 21 111 55 22 54 28 84 -27 37 32 -30 -31 -32 44 -34 59 -36 -37 110 39 -40 56 41 42 76 60 45 70 -48 -49 49 -51 -52 53 102 -55 -56 65 69 -59 -60 -61 -62 -63 98 64 -66 66 74 -69 109 -71 -72 99 -74 -75 -76 -77 77 -79 -80 105 81 -83 83 104 -86 -87 -88 108 89 -91 115 92 94 -95 -96 107 -98 -99 112 101 119 -103 116 -105 -106 -107 -108 -109 -110 -111 -112 -113 -114 -115 118 -117 -118 -119 -120 120 -122 -123
leaf_value=-0.024773053924952233 -0.0062241052123904227 0.018364669849475223 -0.0050122148078866309 0.024295328019186851 0.037406914149651992 -0.0188386911038648 -0.056748236781229137 -0.021772990210698201 0.01216592941582203 -0.063033395017896371 -0.059970310270786281 -0.0166556711760757 -0.062887330708296399 -0.031992092417058894 -0.052181005323634427 0.0441862574853003 0.004713932552774038 -0.042256256014108651 -0.017416720284819602 0.033038339579419089 0.011675176926190033 -0.0044615241065621373 -0.022471792631754372 -0.018973578372597694 -0.034577863785989427 -0.0041437996845692391 -0.0033574658565223214 -0.022325618357956406 -0.0065075807061332923 -0.014113850132030037 -0.03938098791667393 0.011564400283353669 -0.038034550225362181 0.0037470469050957553 -0.04485430165912424 -0.042993120974376797 -0.033841256447813724 0.0050064209018434794 -0.023404259124398228 -0.019806455835700034 0.004706594627876968 -0.021558416937610934 -0.00162860680767335 0.013736279619591577 0.013931309537217018 0.021180990121916547 -0.0051214459879057751 -0.008222168906048561 0.00027091275483369826 0.015977513791485265 0.013991249060205048 -0.032138061350340599 -0.012708729975138392 -0.019871514010813926 -0.013300854614004492 0.00070319134605649329 0.00036817902435238166 -0.0038769848268817774 -0.0073324018515413631 -0.007186335341761942 0.0035341603529916426 -0.0071200540065765386 0.0022202917353614515 0.0080780990940447044 -0.014292231825579491 0.0064887424974988854 -0.0072812698382102616 0.023281120988524567 0.0055761062227513486 -0.0090298483515424393 0.013769081722944974 0.016432644493553951 0.0088267610535025607 -0.016697665963910126 0.0017292356592203888 -0.030207460105419155 0 -0.01093802442808043 -0.031884996422312469 0.0076336843533949417 0.027542890719343953 0.019043488933958786 -0.01629954604804516 -0.0091604973173938509 -0.023029525761093409 -0.025810935213331231 0.053547020804882051 0.020262939389335783 0.00029115268453541726 0.0031681652503708995 -0.0062142260606799808 -0.0091534326469732644 0.00092027538801942553 -0.021881013418946948 -0.0013101872142459098 0.0074298456911928955 0.0040420959203250027 0.0064398847807730945 0.0071890624186290164 0.0035588160684066157 0.011421359561740401 0.0098599751184561425 -0.021572836636304854 0.0082324430139168459 -0.0042675856649875641 0.013539604454463266 0.024018477777858781 0.0089807276016037 0.016177720032746975 0.010935461241971044 -0.043313074450241393 0.024907213954925532 0.011833642259861032 0.005707277472533117 0.0020238867219198832 -0.0027712686984226681 -0.015255202059730372 -0.029813785858452319 0.0045770091339480132 0.010086729198445877 0.0065449818258306817 0.015686330554273605
leaf_weight=27 24 35 29 23 285 21 183 38 29 20 107 39 22 48 33 95 27 20 24 189 23 23 98 29 48 29 34 29 25 20 20 20 31 20 48 99 43 20 29 22 22 20 35 20 39 97 20 35 24 32 34 100 34 30 26 20 35 32 31 22 36 22 22 25 20 25 27 117 22 20 41 22 29 37 20 23 20 21 21 32 284 32 21 42 20 73 59 145 26 35 20 26 20 20 33 23 21 20 34 20 93 41 24 22 32 22 192 28 64 33 43 24 35 21 21 25 28 20 39 44 20 220
leaf_count=27 24 35 29 23 285 21 183 38 29 20 107 39 22 48 33 95 27 20 24 189 23 23 98 29 48 29 34 29 25 20 20 20 31 20 48 99 43 20 29 22 22 20 35 20 39 97 20 35 24 32 34 100 34 30 26 20 35 32 31 22 36 22 22 25 20 25 27 117 22 20 41 22 29 37 20 23 20 21 21 32 284 32 21 42 20 73 59 145 26 35 20 26 20 20 33 23 21 20 34 20 93 41 24 22 32 22 192 28 64 33 43 24 35 21 21 25 28 20 39 44 20 220
internal_value=9.22318e-05 0.0175934 -0.0287292 0.00936884 0.0324849 -0.0164367 -0.0428945 -0.0390773 0.0140833 -0.0346633 -0.0532773 -0.0288877 -0.0386241 -0.0403647 -0.0405049 0.0412706 -0.0102088 -0.0237672 -0.022536 0.0273313 8.16605e-07 -0.0236912 -0.0196063 -0.0143603 -0.0247226 -0.0208249 -0.00718305 -0.025591 -0.0177129 -0.00194987 -0.0529398 0.0171496 -0.0309815 -0.00776523 -0.0544937 -0.0383197 -0.0350381 -0.00821418 -0.0108488 -0.00554263 -0.00140851 -0.00235441 -0.00631483 0.00325461 0.0186006 0.0156906 0.00744503 -0.0134237 0.00969692 0.00781485 0.00678477 -0.0272649 -0.0196598 -0.0283234 -0.0214689 0.0043193 -0.00709573 -0.00958286 -0.0128368 -0.00194413 0.00740747 -0.0132094 0.00568388 0.00338178 -0.00189362 0.00341802 1.56945e-05 0.0201987 0.00641036 -0.00309594 0.0191154 0.0116063 0.0160545 -0.0227178 -0.00342837 -0.0244752 -0.00215759 -0.00575571 -0.0244098 0.0144868 0.025338 0.0267544 -0.00784487 -0.00936793 -0.0316078 -0.0296492 0.0481142 0.0185165 7.65038e-05 -0.000379746 -0.00105863 0 -0.00142379 -0.0294219 0.00133786 0.00525099 0.000478882 0.00310848 0.00813194 0.0105675 0.0113995 0.00793313 -0.0164658 0.00540918 -0.00716976 0.0102968 0.0232443 0.00603003 0.0191092 0.00898315 -0.0390551 0.0322568 0.00972326 0.00352109 0.00490384 -0.00446852 -0.0185797 -0.0369871 0.00378042 0.0105757 0.00914381 0.0153386
internal_weight=5403 3362 2041 2167 1195 1094 947 716 1441 549 167 276 80 273 60 439 593 501 461 756 726 432 205 248 196 128 345 99 163 500 42 846 60 85 231 253 154 318 158 160 480 400 152 80 543 197 59 55 595 303 271 227 138 203 182 226 140 85 53 42 56 43 237 124 45 203 72 346 79 55 138 292 52 156 47 52 97 41 119 303 543 316 129 95 68 173 154 229 248 226 191 146 100 68 74 131 56 46 113 240 179 61 86 44 74 54 227 111 209 55 86 213 69 41 83 45 52 40 60 157 64 249
internal_count=5403 3362 2041 2167 1195 1094 947 716 1441 549 167 276 80 273 60 439 593 501 461 756 726 432 205 248 196 128 345 99 163 500 42 846 60 85 231 253 154 318 158 160 480 400 152 80 543 197 59 55 595 303 271 227 138 203 182 226 140 85 53 42 56 43 237 124 45 203 72 346 79 55 138 292 52 156 47 52 97 41 119 303 543 316 129 95 68 173 154 229 248 226 191 146 100 68 74 131 56 46 113 240 179 61 86 44 74 54 227 111 209 55 86 213 69 41 83 45 52 40 60 157 64 249
is_linear=0
shrinkage=0.03


Tree=8
num_leaves=127
num_cat=0
split_feature=0 0 0 0 0 0 22 1 16 3 0 0 22 0 17 3 15 35 0 15 0 0 22 0 15 22 19 17 0 7 10 15 22 0 18 14 14 16 21 27 1 35 35 13 3 22 0 10 27 10 3 14 13 7 15 1 3 14 20 20 1 34 13 20 3 3 1 16 22 0 16 13 22 16 34 22 13 0 15 22 10 13 15 19 27 3 0 15 10 21 1 0 15 22 17 17 14 0 15 0 0 16 22 3 3 4 4 15 21 3 4 21 3 1 13 4 15 15 27 3 3 22 15 19 1 15
split_gain=2882.65 503.222 284.597 115.474 77.7292 42.2712 26.843 25.2338 18.5889 16.3117 14.3647 13.5539 11.5202 9.61173 9.00934 8.30996 9.44102 7.52863 7.11206 6.54235 6.25227 5.66497 5.54123 8.79908 5.21678 5.11531 4.66732 8.19779 3.49861 3.42127 3.16787 2.86385 2.7482 2.71351 2.51855 2.46203 3.92417 2.91193 2.36591 2.24425 2.16499 2.16265 4.94052 2.25312 2.34892 2.07306 2.02983 2.01009 2.58705 4.38237 3.90759 1.93203 4.06702 2.89994 2.84963 1.73434 1.58181 1.51418 1.50057 1.60166 1.35602 1.26482 1.28249 1.40569 1.22016 1.21959 1.20898 1.19721 1.14531 1.1151 1.0965 1.08715 1.08515 1.75552 1.07599 1.38556 1.16203 0.93655 0.907487 0.87457 0.853419 0.848678 0.848472 0.764618 0.897332 0.760732 1.26765 0.723019 0.700022 0.69222 0.604204 0.59579 0.590212 0.566999 0.555003 0.464855 0.453806 0.436216 0.43224 0.408613 0.381487 0.516438 0.400295 0.505713 0.365426 0.357378 0.305205 0.299688 0.286919 0.28417 0.281908 0.371704 0.261738 0.219588 0.212178 0.17206 0.171011 0.126457 0.125353 0.114122 0.111066 0.0522906 0.0306938 0.0191579 0.0104673 0.270805
threshold=611.50000000000011 2022.5000000000002 178.50000000000003 1159.5000000000002 3179.5000000000005 410.50000000000006 56.277891854893916 12256.231445312502 0.59000000000000019 3.5000000000000004 4504.0000000000009 112.50000000000001 50.692676249144434 1547.0000000000002 2.6578978592121616 33.500000000000007 -1.1749999999999998 1.0000000180025095e-35 931.50000000000011 -130.17999999999995 2475.5000000000005 303.50000000000006 42.585900068446271 75.500000000000014 38.820000000000007 41.728952772073931 478.59500000000008 15.322561093553341 322.00000000000006 1.0000000180025095e-35 -163.28049999999999 6.0600000000000005 20.980150581793296 712.50000000000011 16.090000000000003 -53.839999999999996 -0.66999999999999993 183.02004545454548 4.5000000000000009 77650.740000000005 1429.2769775390627 -1.0000000180025095e-35 1.0000000180025095e-35 -0.014999999999999998 9.5000000000000018 41.728952772073931 5915.5000000000009 -103.28642391304346 16304.985000000002 -3.1924358974358973 183.50000000000003 -114.97499999999998 54.110000000000007 1.0000000180025095e-35 94.615000000000023 -7476.2143554687491 76.500000000000014 -17.609999999999996 553.88000000000022 627.5100000000001 -407.67510986328119 1.5000000000000002 2405.4700000000007 407.95500000000004 117.50000000000001 109.50000000000001 -1782.637756347656 24.307143774069321 31.976728268309383 542.50000000000011 243.9299873353597 2889.7200000000007 58.314852840520196 418.90962130937106 2.5000000000000004 57.871321013004795 764.93000000000006 1297.0000000000002 41.055000000000014 76.759753593429181 -217.64595238095237 481.20500000000004 -1.4850000000000008 415.15000000000003 648469.08500000008 100.50000000000001 1038.5000000000002 -0.060000000000000019 -25.941706349206346 57.500000000000007 10516.014648437502 867.50000000000011 -0.15999999999999825 59.633127994524308 156.78584078842732 116.8945772848859 -689.24999999999989 2125.5000000000005 -8.6249999999999982 1348.5000000000002 1749.5000000000002 348.85338343732275 76.052019164955524 316.50000000000006 75.500000000000014 1302.767761230469 4372.4619140625009 1416.9300000000001 55.500000000000007 194.50000000000003 2847.536987304688 1.0000000180025095e-35 358.50000000000006 168817.41406250003 -130.81499999999997 -8126.5310058593741 94.615000000000023 -56.594999999999992 117607.70500000002 402.50000000000006 287.50000000000006 65.826146475017126 -13.269999999999998 1149.5650000000003 -1248639.8124999998 199.49000000000004
decision_type=2 2 2 2 2 2 2 2 2 2 2 2 2 2 2 2 2 2 2 2 2 2 2 2 2 2 2 2 2 2 2 2 2 2 2 2 2 2 2 2 2 2 2 2 2 2 2 2 2 2 2 2 2 2 2 2 2 2 2 2 2 2 2 2 2 2 2 2 2 2 2 2 2 2 2 2 2 2 2 2 2 2 2 2 2 2 2 2 2 2 2 2 2 2 2 2 2 2 2 2 2 2 2 2 2 2 2 2 2 2 2 2 2 2 2 2 2 2 2 2 2 2 2 2 2 2
left_child=2 3 6 18 20 12 7 8 22 -10 -6 19 15 56 -9 16 -4 26 24 -8 45 82 23 -1 32 29 27 -11 40 65 -16 -30 -2 55 74 37 39 -27 93 -37 92 -21 43 44 -43 -3 -12 85 66 50 -50 91 54 -54 -53 64 -5 95 100 -60 -13 68 63 72 -34 -7 -49 -23 -58 104 -57 -51 73 80 76 -76 83 -74 -40 97 -63 114 122 -35 -85 -20 89 -29 -82 96 -84 94 -17 -38 -26 -36 -87 -47 -98 -65 101 112 103 -102 -39 -71 116 110 -22 -110 111 -70 123 -112 -69 -103 117 -88 -116 -105 -111 -79 -14 -15 -113 -126
right_child=1 4 5 13 10 25 11 14 9 17 46 60 21 58 30 28 -18 -19 47 41 108 67 -24 -25 51 35 -28 87 31 -31 -32 -33 33 34 57 36 38 69 78 -41 -42 42 -44 -45 -46 79 -48 48 49 71 -52 52 53 -55 -56 70 61 -59 59 -61 -62 62 -64 99 -66 -67 -68 81 107 105 -72 -73 77 -75 75 -77 -78 121 -80 -81 88 -83 90 84 -86 86 106 -89 -90 -91 -92 -93 -94 -95 -96 -97 98 -99 -100 -101 102 115 -104 119 -106 -107 -108 -109 109 120 113 124 -114 -115 118 -117 -118 -119 -120 -121 -122 -123 -124 -125 125 -127
leaf_value=-0.043560792793706053 0.008182459105665868 0.013402188960624777 0.0068868898036889741 0.018444203130223536 0.03342740256241182 -0.0043472551711747657 -0.032174712321032646 -0.0035805284891809734 -0.057154841873422263 -0.039202927708625789 0.039836488809097896 -0.044370466978653621 -0.028256434912364441 0.014937221140474886 -0.035530108471711473 -0.035377395832020299 -0.020656782380172184 -0.050668815944875989 0.0087536642306848718 -0.058790157554801117 0.026631178823047288 -0.014003990217511144 -0.018537217029059926 -0.018963494558930396 -0.0023456054032780227 -0.00309255696947758 -0.047500369987704537 -0.013374079899064133 -0.0098787754934281102 0.0054332840883213537 -0.019971591024349134 -0.023967222895635208 -0.015182319478982168 -0.006396248608827591 0.0014549251719904333 -0.015379377803868718 -0.0023674968438489093 -0.018846824795007704 -0.021437588760386341 -0.029439145485560095 -0.018115275486626406 -0.048430584203113206 -0.056683111486832305 -0.051380540489295468 -0.034474708049364804 0.018668101863793866 0.048049955857560993 -6.6921857874030635e-05 -0.01590969193862243 0.0052757391745224596 0 -0.0077681658637934713 -0.009182976567372679 0.0038229240021854637 -0.021538575480168218 0.0031307649725878777 0.018600651698453086 -0.011152964849348948 0.0035399839988147666 0.014460674663952417 -0.034313819688635991 0.010178795892745257 0.013148459815166212 0.0084052281980357985 -0.0052993849025204272 -0.014144984773227147 0.0092713400709649764 -0.018390250889318331 0.015825089180698762 -0.0049635323257711918 -0.0057160148393234304 -0.0025705934869519505 0.0036714391387999055 -0.0035804288201034067 0.0099847561844126805 0 0.0063045121546496047 0.012460221186812436 -0.011378584564197807 0.013408413006500764 -0.00093551706536007778 -0.015949707633138382 -0.034586565613746643 0.0045713991138339035 -0.0030589919149154616 0.0051584249952138636 0.0050195400335510528 -0.023686207684023037 0.0065860006815713391 -0.0040942431958392259 -0.026439845483366246 -2.1124138589948409e-05 -0.02428329889784599 -0.0098393023780414049 -0.0086891330562514045 -0.0046697100968366217 -0.0028453045453061348 0.022516969504245723 0.0025113644585494071 0.014176043859329716 0.019222177305363661 0.019721549953139104 0.011732267796993255 0.012124200528995557 -0.012969197087795347 -0.010964593099573483 0.0020282413836929108 0.0063945303552824517 0.016888442878018727 0.02810410791635513 0.0057725478880521321 0.0082687008704245089 0.0099283984305877839 0.010700221609622239 -0.021956602932016053 0.015089290258075507 0.0038168901223566776 0.0087584838970667794 -0.027805207282304761 0.016835356554146422 0.02123637023600547 0.0083394870418310157 -0.020972904644567858 0.010755247294902801 0.010329378495380903 0.015049830835312606
leaf_weight=39 25 45 23 21 409 31 22 20 79 41 153 45 75 110 26 22 20 41 22 85 320 20 35 24 29 38 21 20 39 22 35 22 22 20 22 26 20 23 22 26 32 32 89 60 52 91 93 22 32 39 24 28 39 24 31 21 20 22 21 34 76 25 43 38 28 20 26 20 25 22 28 25 29 23 28 23 21 27 23 21 20 21 100 24 30 23 30 20 22 23 36 29 28 20 25 20 23 237 30 28 150 42 21 32 73 25 30 22 21 27 26 24 30 24 44 62 37 26 66 42 45 24 21 20 107 23
leaf_count=39 25 45 23 21 409 31 22 20 79 41 153 45 75 110 26 22 20 41 22 85 320 20 35 24 29 38 21 20 39 22 35 22 22 20 22 26 20 23 22 26 32 32 89 60 52 91 93 22 32 39 24 28 39 24 31 21 20 22 21 34 76 25 43 38 28 20 26 20 25 22 28 25 29 23 28 23 21 27 23 21 20 21 100 24 30 23 30 20 22 23 36 29 28 20 25 20 23 237 30 28 150 42 21 32 73 25 30 22 21 27 26 24 30 24 44 62 37 26 66 42 45 24 21 20 107 23
internal_value=0.000133844 0.0159415 -0.0303048 0.0064756 0.0294318 -0.0192088 -0.0428793 -0.036917 -0.0407418 -0.0456739 0.0371383 -0.0479681 -0.0242918 0.0129325 -0.0214571 -0.0178749 -0.00603425 -0.0389576 -0.00123287 -0.0512376 0.0231348 -0.0271945 -0.0291905 -0.03468 -0.00350015 -0.0115017 -0.0337747 -0.0296438 -0.0213479 -0.00420529 -0.0271176 -0.0153129 -0.00116987 -0.00196016 -8.94307e-06 -0.0131489 -0.0162869 -0.0106807 -0.0119941 -0.0228887 -0.0255626 -0.0524421 -0.0498721 -0.0452799 -0.0403338 0.0202455 0.0431357 0.00172734 -0.000781353 -0.0031474 -0.00921105 -0.00725814 -0.00966876 -0.00419916 -0.0152919 -0.00602763 0.0101386 -0.00494029 0.0157328 0.0104822 -0.0384115 0.00978312 0.00825182 0.00729526 -0.00991913 -0.00844532 0.00501606 -0.0226405 0.0113125 -0.0126409 -0.00187775 0.00217222 0.00575478 0.00337968 0.00215124 0.00562303 0.000217024 0.00831502 -0.0167207 0.0210785 0.0058306 -0.023665 -0.0304267 -0.00153153 0.000299204 0.00346303 0.00288837 -0.0190553 0.0029961 0.000321054 -0.0326607 -0.00360618 -0.0298215 -0.00632543 -0.00544156 -0.00143257 0.00173204 0.0215182 0.000121574 0.0110733 0.0162726 0.0151031 0.017454 0.0179225 -0.0145881 -0.00838001 0.00491131 0.0106483 0.0258284 0.0227801 0.0110144 0.0116885 0.0136501 0.00836008 -0.0247572 0.0171586 0.00577794 0.00693131 -0.0257117 0.0150269 0.0242026 0.0107764 -0.0269267 0.0144038 0.0108999 0.0112959
internal_weight=5390 3548 1842 2086 1462 980 862 401 320 222 655 461 589 1135 81 186 43 143 951 340 807 403 98 63 539 391 102 81 143 73 61 61 334 309 210 318 137 181 85 52 82 318 233 144 84 394 246 412 168 120 56 205 122 63 59 99 571 64 564 55 121 550 279 236 50 51 48 171 271 143 49 64 170 90 146 51 95 80 45 349 67 151 232 74 54 244 222 40 42 99 136 83 50 40 54 42 76 328 53 66 509 264 245 224 96 47 123 251 413 93 229 179 160 50 130 104 93 56 110 74 72 51 96 130 154 130
internal_count=5390 3548 1842 2086 1462 980 862 401 320 222 655 461 589 1135 81 186 43 143 951 340 807 403 98 63 539 391 102 81 143 73 61 61 334 309 210 318 137 181 85 52 82 318 233 144 84 394 246 412 168 120 56 205 122 63 59 99 571 64 564 55 121 550 279 236 50 51 48 171 271 143 49 64 170 90 146 51 95 80 45 349 67 151 232 74 54 244 222 40 42 99 136 83 50 40 54 42 76 328 53 66 509 264 245 224 96 47 123 251 413 93 229 179 160 50 130 104 93 56 110 74 72 51 96 130 154 130
is_linear=0
shrinkage=0.03


Tree=9
num_leaves=127
num_cat=0
split_feature=2 0 2 0 0 0 9 2 9 22 22 9 0 0 0 35 0 1 0 0 1 1 0 9 5 14 1 22 0 15 10 9 0 34 9 0 9 13 12 22 22 10 13 27 22 2 34 12 1 22 13 27 11 12 2 15 1 13 15 0 0 17 35 0 34 21 14 0 22 14 37 17 17 10 11 17 34 9 14 12 12 0 10 22 21 0 22 11 11 14 0 12 33 1 0 9 33 11 17 27 10 10 9 10 2 10 27 35 10 11 13 14 11 10 11 13 10 2 27 9 27 15 22 2 13 15
split_gain=2643.72 416.381 325.636 85.3978 62.7372 40.5909 41.1617 40.2388 25.9369 25.5997 21.3471 21.0157 13.2982 10.6501 10.4174 9.60595 8.83482 8.76376 6.59739 5.92283 5.70757 5.31159 4.36383 4.65727 4.32616 4.77988 4.30349 4.21576 4.64819 4.07518 4.38602 3.83926 3.7938 3.44622 3.1465 2.77613 2.60581 2.45847 3.13375 3.96739 2.40024 2.3863 2.10408 2.07957 2.35564 1.99073 1.88716 1.8768 1.83489 1.80055 1.79659 1.67427 1.67351 1.65386 1.62891 1.5194 1.44072 2.10365 1.46852 1.39062 1.32833 1.2359 1.18409 1.13759 1.49649 1.12253 1.09345 0.96062 0.859775 0.927709 0.820207 0.80851 0.807848 0.765597 0.730853 0.703015 0.849791 2.09697 2.84752 2.4192 0.899318 0.8721 0.680995 1.65553 0.669187 1.11256 2.12876 0.650555 0.857376 0.602895 0.591495 1.07338 0.555457 0.550094 0.527512 0.740758 0.519068 0.51092 0.482119 0.461553 0.415071 0.41477 1.12933 0.852391 0.408494 0.405858 0.396632 0.395951 0.38561 0.37928 0.374322 0.341324 0.336484 0.622866 0.31687 0.308832 0.299563 0.220296 0.18492 0.166377 0.209519 0.232929 0.164727 0.151983 0.149339 0.0965782
