tree
version=v4
num_class=1
num_tree_per_iteration=1
label_index=0
max_feature_idx=40
objective=regression
feature_names=txn_count txn_sum debit_count credit_count txn_mean n_distinct_accounts has_transactional has_investments has_mortgages n_financial_snapshots nii_mean nii_std nii_min nii_max nii_last nii_trend nir_mean nir_std nir_min nir_max nir_last fin_recency_days age is_valid_age age_band gender_encoded income_missing_flag annual_gross_income income_category_enc is_low_income customer_status_enc client_type_enc marital_status_enc occupation_category_enc industry_category_enc banking_type_enc onboarding_channel_enc certification_type_enc contact_preference_enc is_south_african top_city_flag
feature_infos=[1:18728] [-40620488:52406408] [0:12696] [0:11867] [-2054903.125:1306747] [0:41] [0:1] [0:1] [0:1] [0:282] [-58504.588571428569:22829.741304347826] [0:53282.587822061527] [-244024.03:2178.8400000000001] [-45662.199999999997:418378] [-51880.860000000001:77764.470000000001] [-56954.800000000003:94425.529999999999] [-0.089999999999999789:16911.705500000004] [0:73624.91051612336] [-5250.7200000000003:958] [0:329709.20000000001] [-10.48:49879.669999999998] [0:669] [16.005475701574266:106.3791923340178] [0:1] [0:7] [-1:1] [0:1] [0:548044978.5] [0:7] [-1:1] none [0:3] [0:3] [0:17] [0:17] [-1:2] [-1:1] [0:4] [0:2] [0:1] [0:1]
tree_sizes=9704 10326 10595 10674 10521 11034 10765 11036 10795 11033 11002 11013 11024 11078 11007 11070 11100 11046 11101 11002 11024 11114 11047 11024 11064 11081 11040 11051 11062 11061 11044 11067 11141 11109 11099 11144 11092 11075 11136 11122 11160 11095 11157 11124 11189 11102 11124 11108 11159 11182 11143 11168 11168 11180 11116 11206 11160 11249 11154 11196 11220 11205 11221 11192 11162 11154 11175 11200 11208 11210 11188 11183 11164 11181 11205 11262 11237 11276 11215 11239 11166 11177 11212 11210 11231 11206 11159 11261 11249 11198 11252 11208 11225 11195 11264 11244 11288 11281 11261 11292 11296 11227 11266 11250 11297 11294 11214 11236 11259 11184 11208 11342 11307 11272 11311 11264 11307 11247 11228 11292 11274 11281 11259 11316 11218 11201 11286 11299 11241 11313 11314 11349 11281 11311 11282 11208 11289 11318 11310 11319 11228 11290 11326 11318 11289 11279 11259 11341 11309 11329 11343 11316 11363 11340 11288 11297 11318 11288 11309 11303 11305 11342 11325 11316 11264 11326 11285 11324 11341 11328 11233 11316 11302 11292 11316 11316 11363 11377 11312 11362 11362 11289 11283 11221 11320 11337 11368 11294 11296 11214 11362 11356 11406 11305 11357 11364 11332 11292 11257 11274 11374 11261 11393 11316 11347 11378 11313 11337 11294 11368 11303 11357 11370 11298 11331 11283 11247 11332 11309 11320 11314 11350 11360 11349 11339 11310 11297 11330 11325 11299 11350 11334 11412 11338 11273 11265 11389 11368 11337 11380 11305 11401 11356 11279 11274 11317 11385 11325 11294 11334 11335 11360 11405 11361 11321 11360 11263 11437 11292 11331

Tree=0
num_leaves=120
num_cat=0
split_feature=2 0 2 0 0 9 0 9 2 2 0 27 0 3 0 9 4 2 35 23 17 3 0 3 16 0 3 0 2 3 9 0 0 12 5 19 1 9 0 15 15 10 3 11 10 1 12 2 13 0 3 3 3 16 0 2 8 17 3 0 3 17 0 4 10 15 0 3 27 13 15 3 9 17 32 0 1 16 0 19 11 1 10 35 35 10 16 1 4 8 10 3 32 19 1 13 19 3 3 11 32 2 16 15 10 27 2 9 16 1 13 17 19 11 0 1 1 17 1
split_gain=4415.4 997.181 366.85 177.979 154.502 56.8041 44.9284 36.7946 32.3782 26.2598 25.8393 25.3136 19.447 18.58 15.1608 14.396 14.0949 12.3847 11.0093 10.0748 9.79692 9.17806 9.1372 8.16239 7.91151 14.8284 7.83405 7.67315 7.07 7.08807 5.9099 5.63224 5.59131 4.61333 4.41637 4.25474 3.51994 3.16821 3.02535 4.13845 2.88731 2.74904 2.69312 2.6091 2.42518 3.80783 2.66218 2.4055 2.33542 2.16804 1.97545 1.97041 3.28928 1.71316 1.53631 1.50975 1.49559 1.56721 1.43403 1.39976 1.31002 1.24882 1.10493 1.09198 1.07772 1.18737 1.07737 0.999578 0.989776 1.02301 0.960999 0.920447 0.878433 1.90273 1.06757 0.823019 0.748926 0.737596 0.731069 0.692526 1.32744 0.667502 0.765973 0.662838 2.4402 0.649952 0.646201 0.582797 3.28298 0.579931 0.562975 0.562697 0.555395 2.10007 0.551227 0.540877 0.440461 0.426206 0.422783 0.377821 0.583539 1.06041 0.376723 0.370215 0.335076 0.325086 0.289244 0.274815 0.249646 0.238729 0.152475 0.131688 0.126254 0.113854 0.0934335 0.0178727 0.45255 0.0133116 0.00080129
threshold=333.50000000000006 1816.5000000000002 83.500000000000014 1146.5000000000002 3193.5000000000005 14.500000000000002 327.50000000000006 6.5000000000000009 37.500000000000007 551.50000000000011 4935.5000000000009 649358.82500000007 111.50000000000001 6.5000000000000009 2413.5000000000005 17.500000000000004 280.09783935546881 9.5000000000000018 1.0000000180025095e-35 1.0000000180025095e-35 12.233367755700064 30.500000000000004 409.50000000000006 54.500000000000007 1.7369761904761909 15.500000000000002 111.50000000000001 1494.5000000000002 148.50000000000003 41.500000000000007 11.500000000000002 214.50000000000003 1030.5000000000002 -3.7449999999999997 1.5000000000000002 197.58000000000001 5984.9704589843759 34.500000000000007 850.50000000000011 -6.5149999999999979 -35.439999999999991 -6.2401704545454546 167.50000000000003 232.95947151103141 -111.70982683982683 5984.9704589843759 -287.42499999999995 9.5000000000000018 490.32000000000005 771.50000000000011 56.500000000000007 128.50000000000003 140.50000000000003 354.84811680327874 2118.5000000000005 1055.5000000000002 1.0000000180025095e-35 79.177607472908775 80.500000000000014 536.50000000000011 107.50000000000001 154.9875377647451 309.50000000000006 1130.2557373046877 -17.011499999999998 555.20500000000004 1465.5000000000002 176.50000000000003 1300395.5450000002 -2.8549999999999995 -1.0249999999999997 205.50000000000003 9.5000000000000018 86.956361513578386 1.0000000180025095e-35 3652.5000000000005 -34747.171874999993 515.51348484848495 945.50000000000011 292.46000000000009 195.03751191383515 -60931.710937499993 -39.610043478260863 1.0000000180025095e-35 -1.0000000180025095e-35 -228.82322727272722 259.13021978021987 106.9803810119629 1711.0445556640627 1.0000000180025095e-35 -187.88060416666664 117.50000000000001 1.0000000180025095e-35 774.62500000000011 -1496816.4374999998 -10.454999999999998 586.50500000000011 135.50000000000003 142.50000000000003 57.362641597440799 1.5000000000000002 1396.5000000000002 216.52932608695656 6.6850000000000058 -119.1302361111111 2457278.0050000004 1356.5000000000002 21.500000000000004 247.33136585365858 -32928.228515624993 52.145000000000003 261.14012307837368 649.54500000000019 417.43793138036312 1356.5000000000002 -117096.35546874999 -307646.74999999994 495.49868943165762 94363.570312500015
decision_type=2 2 2 2 2 2 2 2 2 2 2 2 2 2 2 2 2 2 2 2 2 2 2 2 2 2 2 2 2 2 2 2 2 2 2 2 2 2 2 2 2 2 2 2 2 2 2 2 2 2 2 2 2 2 2 2 2 2 2 2 2 2 2 2 2 2 2 2 2 2 2 2 2 2 2 2 2 2 2 2 2 2 2 2 2 2 2 2 2 2 2 2 2 2 2 2 2 2 2 2 2 2 2 2 2 2 2 2 2 2 2 2 2 2 2 2 2 2 2
left_child=2 3 7 9 14 16 18 8 11 15 75 19 -10 -9 54 33 28 -15 20 47 41 -18 43 83 87 -26 40 55 -4 -30 -11 -22 34 70 35 -32 -13 -36 39 -37 59 -7 81 58 97 46 -46 -1 62 51 -42 96 -53 -41 91 67 57 -39 107 -17 114 63 76 78 65 95 92 77 69 -63 -2 85 -29 74 -74 -6 -33 -5 -40 -54 -81 -24 90 84 -19 -59 -51 -21 -89 109 -83 -3 93 110 -69 -52 -28 -34 -56 -75 106 -102 -58 -78 112 115 -101 -8 -94 -45 -62 113 -82 -99 -57 116 -96 -113 -117
right_child=1 4 5 27 10 6 22 13 12 30 -12 36 -14 17 -16 26 21 23 -20 24 31 -23 42 -25 25 -27 49 72 29 -31 32 48 44 -35 37 38 -38 56 61 53 50 -43 -44 89 45 -47 -48 -49 -50 86 64 52 79 -55 98 60 102 71 -60 -61 66 68 -64 -65 -66 -67 -68 94 -70 -71 -72 -73 73 99 -76 -77 103 -79 -80 80 104 82 -84 -85 -86 -87 -88 88 -90 -91 -92 -93 108 -95 105 -97 -98 111 -100 100 101 -103 -104 -105 -106 -107 -108 -109 -110 -111 -112 117 -114 -115 -116 118 -118 -119 -120
leaf_value=4.31194458434154 4.3996332735604851 4.3996255903088999 4.3551321364779936 4.3928988269350748 4.4240034208918573 4.3684689674367174 4.3442073555876481 4.3112411187262225 4.3729725993133597 4.3962590826099994 4.4415217831357952 4.3453645492877753 4.3354057065391496 4.3112028891937264 4.4164736163708511 4.3692490892787443 4.4000987963833076 4.3177299237130029 4.3324264155927548 4.3499847244497234 4.3389100741369377 4.3753079687913958 4.3606057419844593 4.3438166903668396 4.3113494454974601 4.3451003562440143 4.3842118310645599 4.4086320177289373 4.3876322943328061 4.3645089329645419 4.3666591084529625 4.3400435052265394 4.3947989586331113 4.3782043303855191 4.3932841645248857 4.3841322807371865 4.3650013725560006 4.389152368704254 4.3845850316781858 4.3773971747600982 4.3573383619909798 4.3533184427382219 4.3744558966693443 4.3552282915991389 4.3719628183664545 4.3919791362269933 4.3860961008157515 4.3312692566933757 4.3588867475154025 4.3853923119598361 4.3683784375378245 4.3650308267122728 4.3811877841805087 4.3648936393007682 4.4039028297704625 4.3990453103534772 4.3913866641196133 4.3810517956140549 4.3591947478457955 4.3793531253659141 4.3877366303047145 4.3885099812846473 4.3565931573269996 4.379999088892669 4.3734650361774854 4.3731125797857509 4.3902759010258317 4.3911256270248273 4.3769208790868692 4.3801074078390076 4.3896663952868273 4.3853698370613943 4.3993684070934522 4.3959741207223617 4.3896595374740821 4.4291889436733491 4.352915628265106 4.3854732472486111 4.3912347736401811 4.368819147646593 4.3740419479325787 4.3666698986206018 4.3628961077011166 4.3206051330607229 4.3328093212857297 4.3747586603004667 4.3793988971455144 4.328744792782234 4.3505457583805525 4.3682634018249127 4.3747673797723818 4.4073314599600959 4.4037837791269343 4.3999871970805238 4.3967476865093609 4.3587928019952935 4.3785296643921319 4.3899154922468204 4.4115140555876105 4.401422394605925 4.4011672300052131 4.3922306987790112 4.3853422422424337 4.3440665013124216 4.3806016947745139 4.3910819977877775 4.4048381908781469 4.3558201010292796 4.3973921273082164 4.3640136951336927 4.3921883454210366 4.3926747932960257 4.3782209772645286 4.386459054287541 4.4061563254822955 4.3981109938380722 4.3911344227214322 4.3895592160395704 4.3952810330385992
leaf_weight=54 20 20 29 36 169 29 29 130 33 36 178 22 20 53 451 23 24 28 52 27 87 28 38 43 35 25 20 20 20 27 20 39 24 22 38 33 20 20 33 20 22 24 39 22 24 32 22 27 33 26 21 31 23 25 23 21 20 39 35 31 20 20 27 21 33 20 26 36 37 33 20 21 22 21 24 284 58 20 28 24 27 22 31 69 137 27 38 23 20 20 23 270 22 45 47 23 27 25 218 154 54 21 20 35 24 20 102 21 35 26 20 20 24 22 20 67 29 21 53
leaf_count=54 20 20 29 36 169 29 29 130 33 36 178 22 20 53 451 23 24 28 52 27 87 28 38 43 35 25 20 20 20 27 20 39 24 22 38 33 20 20 33 20 22 24 39 22 24 32 22 27 33 26 21 31 23 25 23 21 20 39 35 31 20 20 27 21 33 20 26 36 37 33 20 21 22 21 24 284 58 20 28 24 27 22 31 69 137 27 38 23 20 20 23 270 22 45 47 23 27 25 218 154 54 21 20 35 24 20 102 21 35 26 20 20 24 22 20 67 29 21 53
internal_value=4.38424 4.40207 4.3423 4.38851 4.41983 4.35633 4.35292 4.32737 4.33592 4.38077 4.43144 4.3314 4.3581 4.32181 4.41233 4.37555 4.37481 4.32619 4.34605 4.32708 4.34834 4.38678 4.36166 4.32932 4.33346 4.32449 4.37363 4.39828 4.36665 4.37428 4.3846 4.34602 4.38393 4.38898 4.38212 4.37968 4.35398 4.38568 4.3808 4.37593 4.36865 4.36111 4.3671 4.35638 4.38824 4.38413 4.37868 4.31763 4.34947 4.37695 4.36599 4.37541 4.37375 4.37012 4.40874 4.39577 4.38368 4.38182 4.35245 4.3748 4.39785 4.38306 4.34771 4.3857 4.36824 4.36579 4.39647 4.39431 4.38063 4.38336 4.39498 4.38006 4.40135 4.40091 4.39459 4.42735 4.34613 4.39037 4.38775 4.37613 4.37503 4.36472 4.36709 4.32685 4.32985 4.37833 4.38186 4.34192 4.33782 4.36171 4.37045 4.40687 4.39753 4.39553 4.39515 4.36285 4.38096 4.39105 4.41088 4.4017 4.40201 4.39884 4.38854 4.34916 4.37723 4.39577 4.40287 4.34838 4.40021 4.35942 4.39018 4.38988 4.3758 4.38844 4.40303 4.3962 4.39476 4.39132 4.39699
internal_weight=5312 3728 1584 2115 1613 818 690 766 306 1180 631 253 53 460 982 499 128 330 384 211 332 52 306 277 130 60 437 935 76 47 681 279 645 62 455 270 42 185 250 78 173 53 153 153 190 78 46 81 192 264 119 200 153 45 531 517 147 107 85 54 209 172 159 82 97 64 168 308 90 53 40 87 418 398 46 453 132 56 61 122 99 114 76 234 165 66 64 70 43 68 45 290 142 85 252 44 47 112 241 352 331 75 40 93 75 216 256 50 57 48 40 88 51 47 41 196 76 41 120
internal_count=5312 3728 1584 2115 1613 818 690 766 306 1180 631 253 53 460 982 499 128 330 384 211 332 52 306 277 130 60 437 935 76 47 681 279 645 62 455 270 42 185 250 78 173 53 153 153 190 78 46 81 192 264 119 200 153 45 531 517 147 107 85 54 209 172 159 82 97 64 168 308 90 53 40 87 418 398 46 453 132 56 61 122 99 114 76 234 165 66 64 70 43 68 45 290 142 85 252 44 47 112 241 352 331 75 40 93 75 216 256 50 57 48 40 88 51 47 41 196 76 41 120
is_linear=0
shrinkage=1


Tree=1
num_leaves=120
num_cat=0
split_feature=2 2 2 2 2 2 2 9 22 9 9 2 3 3 1 9 3 2 2 14 22 3 2 3 2 3 13 28 14 2 5 3 3 15 22 14 14 3 22 3 19 3 22 1 2 15 3 3 22 3 3 10 20 3 19 28 3 19 2 10 15 22 1 15 14 2 3 13 14 32 19 37 22 19 22 15 9 22 1 27 3 14 2 2 3 2 3 14 22 22 38 2 3 13 19 3 2 14 14 9 15 18 9 14 15 27 14 9 32 15 10 1 2 11 3 22 11 3 19
split_gain=4221.42 657.041 601.952 110.087 104.691 84.449 49.6137 37.0051 51.9029 36.0131 32.5233 21.9161 19.0945 16.7148 16.5989 13.3754 17.6137 13.3566 11.9013 10.5612 10.0798 9.68548 8.54115 7.78427 6.38284 6.10491 6.67548 5.78466 5.43301 5.00078 4.69159 4.43506 4.31898 4.29902 4.27997 3.72974 6.34578 6.16707 3.67957 3.62096 3.60677 3.17124 3.09711 2.9708 2.76128 2.59597 2.50358 2.45896 2.3753 2.23525 2.21196 2.06922 2.0371 2.57059 2.03219 1.8582 1.77579 1.75458 1.74097 1.67881 1.60958 1.55515 1.53421 1.48675 1.57957 1.44785 1.39918 1.26971 1.25961 1.72216 1.21094 1.18376 1.1153 1.11215 1.11192 2.12917 3.33148 1.78078 1.05067 0.96391 0.895389 0.865746 0.832797 0.790209 0.852548 0.770399 0.717191 0.775521 0.661719 0.61776 0.60298 0.582086 0.571101 0.547634 0.523709 1.08256 0.511566 0.506949 0.506233 0.519969 0.464083 0.418157 0.410337 0.406979 0.405256 0.3675 0.33288 0.320504 0.241948 0.219293 0.207868 0.201478 0.165846 0.236953 0.156449 0.113888 0.0545331 0.0482016 0.0233219
threshold=520.50000000000011 1641.0000000000002 148.50000000000003 2888.5000000000005 1001.5000000000001 45.500000000000007 267.50000000000006 2.5000000000000004 56.247775496235462 14.500000000000002 14.500000000000002 4351.5000000000009 39.500000000000007 47.500000000000007 3580.657348632813 17.500000000000004 91.500000000000014 777.50000000000011 1283.5000000000002 -4.0249999999999995 46.117727583846687 3.5000000000000004 2029.5000000000002 76.500000000000014 68.500000000000014 119.50000000000001 0.41500000000000004 6.5000000000000009 -55.804999999999993 94.500000000000014 1.5000000000000002 292.50000000000006 356.50000000000006 -3.379999999999999 24.50787132101301 -25.294999999999998 0.18500000000000003 144.50000000000003 52.810403832991106 266.50000000000006 3.4900000000000007 352.50000000000006 43.233401779603021 -4749.6728515624991 6334.5000000000009 31.535000000000007 419.00000000000006 99.500000000000014 51.70431211498974 422.50000000000006 52.500000000000007 37.226190476190489 400.27000000000004 88.500000000000014 412.78000000000003 5.5000000000000009 182.50000000000003 122.855 124.50000000000001 -622.97277962347721 -27.444999999999983 54.321697467488029 31688.550781250004 11.444999999999995 -58.614999999999988 225.50000000000003 133.50000000000003 1639.7050000000002 -11.774999999999997 1.5000000000000002 784.73500000000001 1.0000000180025095e-35 61.059548254620132 1659.7850000000001 57.414099931553736 11.444999999999995 21.500000000000004 54.72279260780288 -1991.7458496093748 2311533.9150000005 445.50000000000006 -174.31499999999997 365.50000000000006 840.50000000000011 164.50000000000003 1055.5000000000002 174.50000000000003 -186.73999999999998 62.976043805612598 58.366872005475706 1.0000000180025095e-35 108.50000000000001 178.50000000000003 -39.819999999999986 236.54000000000002 132.50000000000003 365.50000000000006 -84.154999999999987 -125.05499999999999 28.500000000000004 -19.484999999999996 197.01500000000001 38.500000000000007 -7.6749999999999998 -125.98999999999999 2435.0150000000003 -257.22999999999996 40.500000000000007 1.0000000180025095e-35 259.81 -535.94838095238083 -1496816.4374999998 825.50000000000011 1082.9641418826191 45.500000000000007 74.600958247775523 129.71122855994105 419.00000000000006 660.75500000000011
decision_type=2 2 2 2 2 2 2 2 2 2 2 2 2 2 2 2 2 2 2 2 2 2 2 2 2 2 2 2 2 2 2 2 2 2 2 2 2 2 2 2 2 2 2 2 2 2 2 2 2 2 2 2 2 2 2 2 2 2 2 2 2 2 2 2 2 2 2 2 2 2 2 2 2 2 2 2 2 2 2 2 2 2 2 2 2 2 2 2 2 2 2 2 2 2 2 2 2 2 2 2 2 2 2 2 2 2 2 2 2 2 2 2 2 2 2 2 2 2 2
left_child=2 4 5 22 17 7 10 8 14 19 12 80 -4 24 42 50 28 32 31 20 -7 -9 41 38 -11 26 45 105 48 -21 33 74 34 -30 -2 52 37 43 60 51 114 66 -1 -37 -13 -19 115 91 -17 68 -8 63 53 -36 -35 92 83 -52 62 88 -12 -38 -26 82 109 -62 -3 73 107 78 103 86 -66 94 75 77 -77 100 -70 101 -5 96 -18 -27 102 118 87 -61 -55 -39 -63 -15 -54 -33 -25 -96 -50 106 99 -84 -6 111 -85 -53 -42 -10 -73 -20 -109 -65 -111 -58 -113 -114 -23 -24 -95 -118 -76
right_child=1 3 6 11 18 9 15 21 27 13 23 44 -14 47 -16 16 39 25 49 29 -22 40 46 67 58 56 -28 -29 30 -31 -32 93 -34 54 35 36 61 89 -40 -41 104 -43 -44 -45 -46 -47 -48 -49 81 -51 57 70 55 59 -56 -57 79 -59 -60 71 65 90 -64 64 72 -67 -68 -69 69 -71 -72 97 -74 -75 85 76 -78 -79 -80 -81 -82 -83 98 84 -86 -87 -88 -89 -90 -91 -92 -93 -94 116 95 -97 -98 -99 -100 -101 -102 -103 -104 -105 -106 -107 -108 108 -110 110 -112 112 113 -115 -116 -117 117 -119 -120
leaf_value=-0.045747224773839114 0.011695361749015072 0.01587295844554901 0.018022218460386451 0.040807327774116199 0.011462099646404387 0 0.0055417842065216974 -0.072499305731138663 -0.041250724603022842 -0.06217634765307109 -0.018196756928143175 0.053182880920043092 -0.018512728979991327 -0.043089851764030754 -0.0088732460123885949 -0.0064172097638897276 -0.013033802309841847 0.012520830425300769 0.021401636285419318 -0.042921876666446521 -0.025531686769053336 -0.071410377305129474 0.031108628898817513 -0.019391854271292686 -0.05240871075590451 0.00075727100538149951 -0.010341821993600476 -0.071681179166517478 -0.018264966115355493 -0.024272545445943251 -0.012694754400423594 0.012646437834416116 0.010650964457927079 -0.027168469228148459 0.0093935359764483663 -0.02548513290357704 0.007396720537996811 -0.0059532862731509588 -0.037595585096627478 -9.6530757762272515e-06 -0.046339272179313606 0.030406621843317279 -0.029009174462069163 -0.009091196796058543 0.068162660620429291 -0.0014438263251712279 0.036874562868187508 -0.027275058254239055 -0.018853373731885639 0.025685915892784083 -0.0084483993651611466 -0.005217575403728655 -0.003702767235804991 -0.0074725188914814902 -0.043777477305868395 -0.010250067731044416 0.0077783504662414385 0.0024954884360943517 -0.037369977108915056 0.00026702495770795004 -0.035708058366179463 0.0010252462962110128 -0.037101126515052534 -0.0082178749158978454 -0.024718128503433291 -0.021964852570640767 0.024494107215212925 -0.014798981496265956 0.021127218088600783 0.0094590080630253346 -0.00060739089894507612 0.0027876774356833524 -0.013677761765196918 -0.016321199283003806 0.0069039948901838876 -0.0034641637297140229 0.010932103839132094 0.0037139558450851053 0.012174046840805273 0.0038934889048194655 0.046834573630376589 -0.024029592802343156 -0.011568162712103296 0.010745608513054321 0.0018727925850285422 0.01419045940402696 0.0018559743160238631 -0.0078370586857199678 -0.00083600102827065335 0.0011837100904168827 -0.0053377917359769345 -0.03445885740775953 0.0023364534328381222 0.014520758156664669 -0.030766809194252405 -0.020448682645192513 -0.01040902939307059 0 -0.0027263970162187301 -0.0053837479040507348 0.018082748256830702 0.0070068402226032642 0.0046376811069453001 -0.012093676384006227 -0.057678007800835401 -0.057131684119360787 0.007241220237208983 0.019320425181434703 0.013386369049135182 -0.0096033578198403118 -0.015681066789410329 0.0087405041057856802 0.011196118150165751 0.015668664563146809 -0.056409575261388512 0.023233521699905394 0.017884984232877429 0.023206376278400418 0.010403133278892886
leaf_weight=29 21 29 21 270 39 21 31 110 20 53 21 138 30 71 27 22 39 27 193 35 39 57 358 22 89 30 36 43 23 31 20 27 28 24 30 25 22 21 107 33 36 114 32 20 32 20 123 30 20 69 34 20 28 28 22 28 26 20 33 20 29 27 21 29 20 21 209 20 51 33 27 34 27 20 21 26 30 20 25 25 111 22 30 35 26 130 38 20 28 20 24 54 26 21 57 25 21 22 20 30 26 36 20 20 142 34 36 51 26 23 21 30 78 30 34 20 56 29 30
leaf_count=29 21 29 21 270 39 21 31 110 20 53 21 138 30 71 27 22 39 27 193 35 39 57 358 22 89 30 36 43 23 31 20 27 28 24 30 25 22 21 107 33 36 114 32 20 32 20 123 30 20 69 34 20 28 28 22 28 26 20 33 20 29 27 21 29 20 21 209 20 51 33 27 34 27 20 21 26 30 20 25 25 111 22 30 35 26 130 38 20 28 20 24 54 26 21 57 25 21 22 20 30 26 36 20 20 142 34 36 51 26 23 21 30 78 30 34 20 56 29 30
internal_value=0 0.0210248 -0.0341854 0.0365253 0.00935954 -0.0500276 -0.017164 -0.0579718 -0.0463065 -0.0405265 -0.0257546 0.04702 -0.00335396 -0.045518 -0.0290356 -0.0117667 -0.01359 0.00248097 0.0166962 -0.026349 -0.0166954 -0.0635212 0.0296956 -0.0292718 -0.0516249 0.00650373 -0.000742673 -0.0614882 -0.0213556 -0.0347001 -0.0266671 0.0132009 -0.000606863 -0.030435 -0.00124052 -0.00181552 -0.0055891 -0.0110649 -0.0336543 -0.00954425 -0.0595839 0.0258434 -0.0376245 -0.0186202 0.0564023 0.00660964 0.0323393 -0.0374951 -0.0155139 0.0202022 -0.000697112 -0.0105593 -2.02756e-05 0.00129056 -0.0359382 -0.00411504 0.00829956 -0.00436889 -0.0472888 0.000165088 -0.0272333 0.000883604 -0.049874 -0.0118841 -0.0143476 -0.0305386 0.023527 -0.0236392 0.0191309 0.0158432 -0.00568446 0.00166329 -0.0188554 -0.0249112 0.0112025 0.00898644 0.00425198 0.011985 0.0184174 0.00985255 0.0426892 -0.0184938 -0.00927596 0.00506495 0.0065951 0.0128535 -0.0010201 -0.00380416 -0.00427977 -0.0024551 -0.0019565 -0.0396881 -0.000750836 0.017897 -0.0263634 -0.0279415 -0.0149505 0.00395709 -0.00726869 -0.00866409 0.0143897 0.0105594 0.00870059 -0.00893991 -0.0556732 -0.0521613 0.00519005 0.0203838 0.0175525 -0.0111892 -0.0128548 0.0112739 0.0118502 0.0125984 -0.0665124 0.0307623 0.0190756 0.0199841 0.00918048
internal_weight=5284 3272 2012 1404 1868 1041 971 564 185 477 373 551 51 351 88 598 513 965 903 126 60 379 853 322 196 419 83 97 174 66 89 455 546 69 518 497 159 86 178 339 269 352 61 45 170 47 501 155 85 448 85 306 338 256 46 82 336 54 143 226 71 73 110 239 120 50 238 144 379 109 67 170 47 124 322 141 56 85 76 225 381 63 119 111 81 181 78 40 56 41 51 125 54 133 104 82 41 92 80 60 65 200 55 40 178 54 70 270 77 73 44 164 138 108 91 378 106 85 51
internal_count=5284 3272 2012 1404 1868 1041 971 564 185 477 373 551 51 351 88 598 513 965 903 126 60 379 853 322 196 419 83 97 174 66 89 455 546 69 518 497 159 86 178 339 269 352 61 45 170 47 501 155 85 448 85 306 338 256 46 82 336 54 143 226 71 73 110 239 120 50 238 144 379 109 67 170 47 124 322 141 56 85 76 225 381 63 119 111 81 181 78 40 56 41 51 125 54 133 104 82 41 92 80 60 65 200 55 40 178 54 70 270 77 73 44 164 138 108 91 378 106 85 51
is_linear=0
shrinkage=0.03


Tree=2
num_leaves=122
num_cat=0
split_feature=0 0 0 0 0 0 0 9 34 9 0 0 24 9 17 0 9 9 14 0 10 0 1 24 0 35 32 28 14 0 10 16 16 24 8 0 12 13 13 17 10 5 16 14 10 1 27 34 5 0 17 13 27 20 0 27 11 0 27 11 14 10 9 1 0 27 17 16 10 12 13 16 0 0 24 0 15 24 16 17 17 32 17 9 0 10 1 1 15 14 13 0 16 14 1 18 11 15 14 0 20 9 12 13 13 17 24 0 17 14 24 17 17 0 14 1 15 14 14 14 14
split_gain=4009.9 606.301 542.458 113.833 99.2981 97.047 45.9882 43.4314 45.2741 36.2631 27.8002 26.5086 24.0288 22.7412 20.855 14.4657 14.4419 11.8835 11.677 11.4384 11.237 9.13191 7.28932 7.12006 6.65018 6.27295 6.22573 5.96772 7.09035 5.74503 4.65902 4.13644 3.90018 3.78659 3.76737 3.48101 3.0925 3.04962 5.51989 3.54796 2.69113 2.47985 4.28156 3.95997 4.10419 2.41684 2.47838 2.39396 2.205 2.09708 1.93015 1.8603 2.18121 1.69794 1.68629 1.64644 3.02468 1.62182 1.39077 1.2913 1.33532 2.23737 1.99667 1.28241 1.25264 1.16602 1.10017 1.33029 1.07557 1.05716 1.03186 1.57322 1.02192 1.0065 0.952464 0.925999 0.904082 0.89193 0.849172 0.775914 0.769062 0.961809 0.658596 0.656142 0.643389 0.640554 0.604646 0.506576 0.503959 1.17219 0.494636 0.476062 0.464358 0.459511 0.394962 0.389009 0.382028 1.28708 1.25231 0.40026 0.392435 0.372063 0.363461 0.362685 1.32471 0.327443 1.43758 0.519766 0.308276 0.247428 0.242572 0.177009 0.175601 0.133881 0.0954922 0.0622414 0.0607479 0.0303669 0.84404 0.0938749 0.0264547
threshold=771.50000000000011 2011.5000000000002 292.50000000000006 3193.5000000000005 100.50000000000001 1159.5000000000002 468.50000000000006 12.500000000000002 1.0000000180025095e-35 19.500000000000004 4935.5000000000009 26.500000000000004 4.5000000000000009 19.500000000000004 0.86291310167265012 1494.5000000000002 10.500000000000002 16.500000000000004 -1.7849999999999999 153.50000000000003 -11.584141414141412 26.500000000000004 1127.6400146484377 4.5000000000000009 2413.5000000000005 1.0000000180025095e-35 1.0000000180025095e-35 1.5000000000000002 -58.614999999999988 1030.5000000000002 -1.6749999999999996 21.564821428571431 99.679295454545482 3.5000000000000004 1.0000000180025095e-35 398.50000000000006 -50.884999999999998 58.065000000000005 -2.8549999999999995 129.26860635076687 32.162121212121221 1.5000000000000002 40.275209603658546 -112.32999999999998 3.9142045454545458 -11426.937988281248 723775.7350000001 1.5000000000000002 1.5000000000000002 896.50000000000011 2.3824476376964063 0.065000000000000016 1732735.1050000002 54.375000000000007 1743.0000000000002 1522084.4850000001 284.04432482384112 206.50000000000003 1366954.4550000003 1280.5650181275303 -94.514999999999986 -39.610043478260863 21.500000000000004 -90950.910156249985 7121.5000000000009 1522084.4850000001 150.7906695281641 151.45387500000001 430.45368421052638 -360.58999999999997 1.0000000180025095e-35 33.199226190476196 616.50000000000011 43.500000000000007 3.5000000000000004 1318.5000000000002 -1.0000000180025095e-35 2.5000000000000004 481.14313384813391 93.80209920179766 254.437572760655 1.0000000180025095e-35 219.17493817086498 57.500000000000007 3652.5000000000005 -747.38384090909074 -108656.73046874999 -39929.966796874993 -56.749999999999993 -41.504999999999988 -51.204999999999991 935.00000000000011 211.52047619047622 -834.01499999999987 -163465.36718749997 24.675000000000004 136.56600586153425 1.4250000000000125 -37.254999999999995 1600.5000000000002 550.0200000000001 41.500000000000007 -183.89999999999998 4.1300000000000008 -12.299999999999999 164.0718676325136 4.5000000000000009 1295.5000000000002 245.48730438320737 -87.944999999999979 4.5000000000000009 110.41458602508736 327.73999835820103 53.500000000000007 -0.39499999999999996 -169342.48437499997 29.055000000000003 -404.84999999999997 -33.094999999999992 -1.0399999999999998 -338.10499999999996
decision_type=2 2 2 2 2 2 2 2 2 2 2 2 2 2 2 2 2 2 2 2 2 2 2 2 2 2 2 2 2 2 2 2 2 2 2 2 2 2 2 2 2 2 2 2 2 2 2 2 2 2 2 2 2 2 2 2 2 2 2 2 2 2 2 2 2 2 2 2 2 2 2 2 2 2 2 2 2 2 2 2 2 2 2 2 2 2 2 2 2 2 2 2 2 2 2 2 2 2 2 2 2 2 2 2 2 2 2 2 2 2 2 2 2 2 2 2 2 2 2 2 2
left_child=2 5 4 24 7 29 13 8 21 12 84 14 16 23 26 47 22 20 -13 32 -8 -1 -6 -4 103 76 -10 33 40 41 -16 50 -11 -19 35 70 -14 38 -30 -40 72 43 -43 58 45 46 -45 77 73 -47 -21 74 69 108 96 83 -57 -33 85 60 65 62 -62 -39 -12 94 67 -35 -46 101 71 -15 93 -9 -31 -63 -23 -7 87 -76 88 91 -59 -56 -5 -2 -73 -74 -44 -90 115 -82 -37 -29 -49 -87 97 99 -99 -17 117 -53 -65 104 -3 110 -107 116 -36 -61 -79 -95 -84 -50 -58 -81 -108 -98 -119 -120 -96
right_child=1 3 6 10 9 15 17 48 11 19 64 18 36 34 30 54 -18 27 -20 31 -22 25 -24 -25 -26 -27 -28 28 37 51 -32 57 -34 66 53 92 -38 63 39 -41 -42 42 80 44 68 49 -48 59 113 -51 -52 52 -54 -55 55 56 114 82 -60 109 61 75 -64 102 -66 -67 -68 -69 -70 -71 -72 86 78 -75 79 -77 -78 105 -80 90 81 -83 112 -85 -86 95 -88 -89 89 -91 -92 -93 -94 111 120 -97 100 98 -100 -101 -102 -103 -104 -105 -106 106 107 -109 -110 -111 -112 -113 -114 -115 -116 -117 -118 118 119 -121 -122
leaf_value=-0.065397392928828388 -0.001777224306988975 0.024736176687247372 0.0016722782749682664 0.0374108493683631 -0.014663221405576105 0.019658274756478411 0.019727163767847028 -0.075394183219603769 -0.022881720448391776 -0.040283210908644826 0.052249077796119529 -0.0095325560644268989 -0.023201554007046588 -0.018294528956567361 -0.046101670697629452 0.021292519624744141 -0.029386382266051236 0.0036481931714806705 -0.03387757960525719 -0.036823466946897296 -0.0068288169342436292 -0.034073395318255338 0.0079381793393143284 -0.019275556346320586 0.030238121658534328 -0.063338863877149723 -0.045044358170550795 -0.008981012496736742 -0.011251934359813557 0.012339466544920984 -0.071103274053997467 -0.044716942153871064 -0.055513585295475704 -0.0043221817372197449 -0.010643309655558804 -0.016471263326704504 -0.039911873954747407 -0.018519460668337755 -0.018925563526689077 -0.037594007516279816 0.00050331445787425916 0.01269417342916131 0.0042206748457991189 -0.021023573131466813 0.0044779045080336234 0.0018594507791779256 -0.0078261734751053167 0.0075271926280111069 -0.062196507894075832 -0.011218130670149217 -0.022711723631138311 0.0035020670169668097 -0.0062050161593231483 -0.026148899083618411 0.022397295028759309 0.0063451548539675204 0.021036140871899468 -0.039038786790732825 -0.0044718102667279346 0.010237704650339921 -0.006789460675258722 0.0044762278050184245 0.0050362003015523606 -0.006503097855844177 0.064686259845892588 0.0044507839707657697 -0.0038715329108810104 -0.014262854879623962 -0.0043232786545995619 -0.0013572184816002843 -0.035137454777956011 -0.037169697893517352 -0.0084552011336955068 -0.063198476400200293 0.00095902422266080976 0.013935714984717577 -0.047801143670082084 0.017270283321625196 -0.013145072449160657 0.0065705408168890119 -0.0025445556054192204 -0.0066798201005905866 -0.024584001106633377 0.015357394557978426 0.042216083471366066 0.0063937712096376349 -0.027443519655812314 -0.0029132406826975054 -0.0046114264499396082 0.0040790688792924183 0.0032627017429958166 0.0032992867029138975 -0.023980359336880384 -0.018118753709431206 0.010292448203672061 0.001496917318891395 0.01932911966516547 0.014598576279623169 0.0038632149706068247 0.013384801728384835 0.012064715122482901 0.008895572676090523 -0.012891734276499067 0.026020652043881837 0.017905720075623965 0.0045156234139255413 0.011068254131337871 0.014588359528371403 -0.017828338840178079 0.015624799536466597 0.012285109933116472 -0.012334204701276923 -0.035181474574234171 -0.046834610816091297 0.014787908784367821 0.01070766921956902 0.0068591127353055141 0.013764191995942737 0.023004914643971815 0.016794238202455566 0.014872265357862817
leaf_weight=97 22 117 39 170 22 20 22 52 34 43 145 37 20 21 24 20 26 31 36 22 37 28 28 22 476 25 22 30 28 22 26 83 70 21 22 25 55 28 23 23 22 23 30 27 25 21 29 23 25 21 33 32 26 21 155 25 41 111 36 40 20 20 32 25 35 31 36 37 23 25 56 20 36 142 29 22 29 28 22 20 30 34 21 27 281 31 84 31 29 25 25 20 60 20 21 32 72 20 22 27 28 23 20 190 58 28 22 61 20 24 63 38 22 31 21 22 20 81 22 40 32
leaf_count=97 22 117 39 170 22 20 22 52 34 43 145 37 20 21 24 20 26 31 36 22 37 28 28 22 476 25 22 30 28 22 26 83 70 21 22 25 55 28 23 23 22 23 30 27 25 21 29 23 25 21 33 32 26 21 155 25 41 111 36 40 20 20 32 25 35 31 36 37 23 25 56 20 36 142 29 22 29 28 22 20 30 34 21 27 281 31 84 31 29 25 25 20 60 20 21 32 72 20 22 27 28 23 20 190 58 28 22 61 20 24 63 38 22 31 21 22 20 81 22 40 32
internal_value=4.08272e-05 0.0208066 -0.032456 0.0350639 -0.0460587 0.00906749 -0.015211 -0.0545007 -0.0474369 -0.0367404 0.0447283 -0.0363329 -0.0238735 -0.0230295 -0.0459646 0.0145439 -0.0116945 -0.00941952 -0.0218744 -0.0414597 0.00318716 -0.0582607 -0.00204014 -0.00602333 0.0277646 -0.0490961 -0.0322786 -0.0110085 -0.0130444 0.000157725 -0.0603006 -0.0379274 -0.0501485 -0.00529033 -0.0261458 -0.0278076 -0.0358592 -0.0180719 -0.022517 -0.0289249 -0.00924383 -0.00176292 0.000832418 -0.00362688 -0.00693653 -0.0104276 -0.014499 0.0107574 -0.0643749 -0.00471839 -0.0289668 0.00408847 0.00115176 -0.0187573 0.01771 0.019666 0.0156798 -0.0398638 0.000366113 0.00868346 0.00739324 0.00464356 0.00038898 -0.013282 0.055028 0.00971571 -0.00827709 -0.0108488 0.000197282 0.00362684 -0.0303713 -0.0279503 -0.0104682 -0.0668527 0.00666947 0.00970982 -0.0418132 0.012971 -0.00793781 0.00522535 -0.000839266 -0.00286341 -0.0369572 0.0214589 0.0404982 0.00247817 -0.0296787 -0.00601568 0.00115946 -0.000532491 0.00698659 -0.000129337 -0.0220239 -0.0128757 0.0117386 0.00401561 0.0160618 0.013626 0.00926568 0.0171858 0.0168821 0.00592968 -0.00962624 0.024457 0.022604 0.0122696 0.0109321 0.0125874 -0.0144696 0.0125133 0.0140227 -0.014653 -0.0307505 -0.0547161 0.0192357 0.00900599 0.0093398 0.0174369 0.0163357 0.0193758 0.0133374
internal_weight=5346 3262 2084 1472 1164 1790 920 608 358 556 631 179 151 390 106 1108 76 530 73 405 59 179 50 61 841 82 56 471 346 682 50 292 113 125 329 266 75 147 74 46 199 458 191 267 146 98 56 507 250 42 55 224 106 63 601 269 87 237 121 265 201 94 52 73 180 107 94 58 48 80 181 125 177 194 118 42 57 242 89 96 168 84 154 182 451 85 104 67 84 54 67 50 85 88 76 63 332 89 42 47 243 55 45 365 175 222 131 103 42 64 91 58 43 56 62 42 42 215 143 62 53
internal_count=5346 3262 2084 1472 1164 1790 920 608 358 556 631 179 151 390 106 1108 76 530 73 405 59 179 50 61 841 82 56 471 346 682 50 292 113 125 329 266 75 147 74 46 199 458 191 267 146 98 56 507 250 42 55 224 106 63 601 269 87 237 121 265 201 94 52 73 180 107 94 58 48 80 181 125 177 194 118 42 57 242 89 96 168 84 154 182 451 85 104 67 84 54 67 50 85 88 76 63 332 89 42 47 243 55 45 365 175 222 131 103 42 64 91 58 43 56 62 42 42 215 143 62 53
is_linear=0
shrinkage=0.03


Tree=3
num_leaves=124
num_cat=0
split_feature=0 0 2 0 0 9 0 35 35 0 22 22 2 0 22 35 9 32 28 2 2 0 2 0 0 22 22 3 0 9 19 9 3 15 14 13 15 3 22 15 19 0 9 14 13 15 22 1 34 12 2 13 13 22 9 12 17 3 14 4 9 13 4 1 32 2 9 27 0 9 13 12 2 4 12 0 0 33 34 9 22 14 14 3 22 18 9 12 0 1 4 27 0 12 34 14 22 22 13 14 3 22 22 17 15 22 3 3 33 20 1 3 1 27 22 0 14 3 17 2 27 27 27
split_gain=3798.14 791.272 339.389 137.699 133.732 56.2444 46.419 32.109 44.0052 26.4433 18.1022 17.916 16.0677 16.0173 15.561 14.9875 13.5877 13.4692 10.5393 9.68833 9.03224 7.7712 7.7153 7.2576 6.48339 11.3048 6.26699 5.86603 4.7197 4.69803 4.36162 4.17616 4.22358 5.76304 6.02521 4.01232 3.89498 4.31849 3.67554 3.44167 3.37756 3.39883 3.14497 3.10247 6.88618 7.08993 2.98214 2.85165 2.60063 2.46837 2.33674 2.2809 4.21122 2.23066 2.48871 2.18099 1.98959 1.69373 2.4421 1.54728 1.31867 1.2345 1.20896 1.2064 1.19571 4.56476 1.17658 2.01806 1.17474 1.17145 1.40722 1.16238 1.08064 1.00137 0.977208 0.957391 0.956399 0.948661 1.09623 0.977007 1.61614 0.936863 0.904829 0.856816 0.847647 0.762526 0.708007 0.910569 0.802056 0.738092 1.05217 0.687834 0.679396 0.660616 0.632999 0.82962 0.619821 0.598942 0.598859 0.468392 0.466757 0.46665 0.416136 0.367641 0.35755 0.345344 0.338096 0.325509 0.298048 0.249019 0.242313 0.328801 0.176618 0.159827 0.127918 0.120928 0.110099 0.0955881 0.0694846 0.0652022 0.0290291 0.591114 0.208325
threshold=536.50000000000011 1816.5000000000002 83.500000000000014 3193.5000000000005 1146.5000000000002 19.500000000000004 398.50000000000006 1.0000000180025095e-35 -1.0000000180025095e-35 4935.5000000000009 55.68925393566051 45.668720054757024 551.50000000000011 2413.5000000000005 52.945927446954151 1.0000000180025095e-35 5.5000000000000009 1.0000000180025095e-35 5.5000000000000009 43.500000000000007 124.50000000000001 1494.5000000000002 148.50000000000003 84.500000000000014 15.500000000000002 37.42231348391514 22.828199863107464 34.500000000000007 1030.5000000000002 2.5000000000000004 97.855000000000018 17.500000000000004 119.50000000000001 1.819999999999997 -18.694999999999997 2393.0700000000002 -32.969999999999992 148.50000000000003 40.065708418891177 -19.484999999999996 97.855000000000018 309.50000000000006 4.5000000000000009 -31.854999999999997 4.1300000000000008 7.6150000000000011 56.90622861054073 1127.6400146484377 1.5000000000000002 -17.909999999999997 1055.5000000000002 218.52500000000001 -4.3549999999999995 54.970568104038342 31.500000000000004 -71.464999999999989 36.694035943922316 111.50000000000001 -104.54499999999999 -2636.4614257812495 30.500000000000004 0.025000000000000005 -44.28375053405761 50118.074218750007 1.0000000180025095e-35 1486.5000000000002 21.500000000000004 1530176.7200000004 7121.5000000000009 23.500000000000004 143.94500000000002 -489.55999999999995 1107.5000000000002 -14.923774719238279 -762.63999999999999 697.50000000000011 117.50000000000001 4.5000000000000009 8.5000000000000018 40.500000000000007 57.690622861054081 -94.514999999999986 -128.18999999999997 128.50000000000003 45.668720054757024 49.520000000000003 20.500000000000004 -796.99499999999989 980.50000000000011 65078.443359375007 -49246.390624999993 1732735.1050000002 3652.5000000000005 -1609.3499999999997 1.0000000180025095e-35 -13.969999999999997 56.409308692676255 46.643394934976051 -108.75999999999999 -574.76999999999987 47.500000000000007 57.577002053388092 45.920602327173178 4.7438339730847057 -1453.0799999999997 64.116358658453137 117.50000000000001 162.50000000000003 3.5000000000000004 219.60500000000002 -1181186.8124999998 205.50000000000003 -58154.337890624993 1416860.9400000002 72.687200547570171 2118.5000000000005 -316.66999999999996 311.50000000000006 220.83011773098352 1283.5000000000002 1890992.2350000001 1769336.7400000002 1550774.1800000004
decision_type=2 2 2 2 2 2 2 2 2 2 2 2 2 2 2 2 2 2 2 2 2 2 2 2 2 2 2 2 2 2 2 2 2 2 2 2 2 2 2 2 2 2 2 2 2 2 2 2 2 2 2 2 2 2 2 2 2 2 2 2 2 2 2 2 2 2 2 2 2 2 2 2 2 2 2 2 2 2 2 2 2 2 2 2 2 2 2 2 2 2 2 2 2 2 2 2 2 2 2 2 2 2 2 2 2 2 2 2 2 2 2 2 2 2 2 2 2 2 2 2 2 2 2
left_child=2 4 7 13 12 10 15 8 14 92 18 17 30 43 16 20 -1 -10 22 29 63 48 -4 -21 -19 26 -26 -24 31 -13 47 42 33 46 82 40 53 51 -8 -25 103 -42 -14 104 45 -45 60 -2 50 -12 110 52 109 54 -32 74 -34 58 99 71 -33 84 106 100 72 97 67 81 -11 -63 -71 105 -23 -51 -31 112 -9 78 79 80 -68 116 -35 -59 -30 -60 -58 88 89 90 -88 117 -5 -92 -89 -96 -81 -66 -86 -40 -7 -72 -43 -22 -3 -39 -52 -100 119 -38 -6 -112 -55 -15 -99 -106 -50 -46 -61 -74 121 122 -115
right_child=1 3 5 9 21 6 38 76 11 68 49 19 28 113 -16 -17 -18 24 -20 23 35 64 27 39 25 -27 -28 -29 61 55 36 32 56 34 -36 -37 37 59 57 -41 41 102 -44 44 91 -47 -48 -49 66 73 62 -53 -54 75 -56 -57 86 83 85 118 -62 69 -64 -65 65 -67 77 -69 -70 70 101 -73 108 -75 -76 -77 -78 -79 -80 96 -82 -83 -84 -85 98 -87 87 94 -90 -91 93 -93 -94 -95 95 -97 -98 114 107 -101 -102 -103 -104 -105 115 -107 -108 -109 -110 -111 111 -113 -114 120 -116 -117 -118 -119 -120 -121 -122 -123 -124
leaf_value=-0.029117759740123379 -0.0051679881478731452 0.01942592881559109 -0.010320388158590628 0.036543378530922585 0.0064840303632617002 -0.046278421746058902 -0.0047833080123300129 -0.063848557401149669 -0.017139114400092508 0.05095686163547191 -0.013176932408940046 -0.041737185020391879 -0.0014302441327144267 0.030717741254612664 -0.070349763813805075 -0.047792193478206173 -0.061394511176693818 -0.053907297153025863 -0.017897646668937894 -0.022214354031085966 -0.024898244198750363 0.010032598148798571 0.019259871867986823 -0.03079664012445853 -0.026979995489120483 -0.013930490877267651 -0.053029176697134972 0.00034761316499983273 0.011694421035322276 -0.057433703235217501 0.0085716513938137468 0.009374851952791214 0.0086434000551869929 0 -0.020428580730663316 -0.016562725855615631 -0.013446312933313576 -0.0028536804764616214 -0.019399416865272957 -0.047922187731482768 -0.035062169378537393 -0.019636575297053371 0.013556578871394907 0.021688881723210214 0.026393916962777864 0.00016116599916644832 -0.0069107891222195969 0.0096764369968857095 0.007829465702176094 -0.03167212793111801 0.017350940206221171 -0.0063614410100361471 -0.025171802232394347 -0.01230456660149376 -0.0046316412138667972 -0.060603617945607278 -0.0056671124179847538 -0.007788532623222896 -0.020527179761994172 -0.012850314204248465 -0.00055209771802891853 -0.0047461435073720554 0.021251837432384488 -0.03014414372526366 0.011135875385254622 0 0.018293487265706062 -0.001192686685200395 0.063004600505571107 -0.0030104033118960533 0.0094488696435635743 0.0026390683033636637 0.01533534893683261 -0.019279472351074217 -0.041746280608744149 -0.0029759070924483236 -0.04938873297827584 0.003951021009948678 0.0047441317396504541 0.0044032786381072719 0.0087551758892834199 0.003151362884512099 -0.0082668081456795332 -0.016112181760370731 0.0077982502924152522 -0.029902495503425598 -0.0022354901541955766 0.00074816679498180747 0.0053555732347886076 -0.0039043786658439789 0.0069978854183498172 0.017398666524305575 0.041242047130799202 0 -0.0075470746234059345 0 0.01141689395236558 0.017941766330384107 -6.0483061465556193e-05 -0.012011454759644611 -0.036009456265636758 0.0031807581398893021 -0.028102108328895908 -0.016150011524558066 0.022577690302156683 -0.0088036281268411704 0.01110670984884103 0.0045471882404090136 0.022999226052314043 -0.0078841129061968419 0.0078699251640854135 0.011947392658361892 -0.0075939491846332601 0.021846720089515048 0.012802349756956101 0.02600691375135724 0.012626624848407049 0.0205828856466846 -0.0081391389425843948 0.018343585224291921 0.029497563229501249 0.017815880997614428 0.030599429930959425
leaf_weight=25 25 48 28 176 24 43 22 186 39 140 23 56 22 320 93 63 30 23 30 24 21 23 25 25 20 21 23 35 21 20 20 24 21 24 37 28 32 21 21 54 129 20 27 23 50 33 34 20 21 24 20 25 36 22 32 70 23 20 40 20 22 20 35 28 35 20 41 28 36 21 21 20 80 20 40 33 27 25 27 25 34 25 23 53 36 26 39 29 31 31 30 40 283 21 33 22 28 75 22 34 45 28 104 23 144 20 44 31 23 22 41 88 34 26 24 142 25 43 21 136 79 21 27
leaf_count=25 25 48 28 176 24 43 22 186 39 140 23 56 22 320 93 63 30 23 30 24 21 23 25 25 20 21 23 35 21 20 20 24 21 24 37 28 32 21 21 54 129 20 27 23 50 33 34 20 21 24 20 25 36 22 32 70 23 20 40 20 22 20 35 28 35 20 41 28 36 21 21 20 80 20 40 33 27 25 27 25 34 25 23 53 36 26 39 29 31 31 30 40 283 21 33 22 28 75 22 34 45 28 104 23 144 20 44 31 23 22 41 88 34 26 24 142 25 43 21 136 79 21 27
internal_value=-4.23262e-05 0.0170467 -0.0373818 0.0326223 0.00460077 -0.0248488 -0.0286411 -0.0519436 -0.0479284 0.0435629 -0.00999874 -0.042667 -0.00253153 0.0256073 -0.0622763 -0.0336424 -0.0475588 -0.0325755 -0.00283906 -0.0469289 -0.0315107 0.0128524 0.00240426 -0.0384403 -0.0391878 -0.0331039 -0.04187 0.00846345 0.000236115 -0.0513828 -0.007287 -0.00133661 -0.00226287 -0.00607022 -0.0115104 -0.0286867 -0.00839216 -0.0109219 -0.0168562 -0.0429929 -0.0297602 -0.0312093 0.00687377 0.021864 0.0184373 0.00928093 -0.000249439 0.00143125 0.0103909 -0.022337 0.012649 -0.0149208 -0.0171694 -0.00442826 0.000455859 -0.0551646 -8.50108e-06 -0.0181784 -0.0205342 -0.00628305 0.00465262 0.00411518 0.0163524 -0.0390843 0.0159546 0.0135037 0.0083028 0.00550888 0.0537802 0.00144197 0.0032942 -0.00310059 0.017327 -0.0266594 -0.0478804 -0.0072886 -0.062269 0.00978395 0.0106742 0.0118553 0.014181 0.00817328 -0.00414783 -0.0140083 0.00624263 -0.0246564 -0.000752091 -0.000238535 0.00113177 0 0.00139256 0.0221723 0.0395303 0.00421428 -0.00273758 -0.00460963 0.00830695 0.0154854 0.00480727 -0.0151819 -0.0415246 0.00606234 -0.0269287 -0.0208525 0.0237332 -0.00596803 0.0133411 0.00261331 0.0179717 -0.0114193 0.0101426 0.010745 -0.00968058 0.0296852 0.0168663 0.0243754 0.0107136 0.0239866 -0.0107599 0.0173191 0.0273208 0.0245946 0.0268453
internal_weight=5355 3674 1681 1631 2043 905 720 776 563 635 185 415 1096 996 148 504 55 126 118 289 441 947 88 103 87 64 43 60 693 186 403 493 444 164 84 325 358 217 216 79 297 253 49 523 189 56 80 45 531 67 252 115 90 141 52 130 280 194 121 102 46 200 99 116 416 154 279 99 176 90 70 61 262 44 60 89 213 180 155 128 75 71 47 73 110 66 259 236 152 121 90 133 459 51 84 55 53 134 89 55 88 49 124 44 334 41 64 53 239 54 153 129 56 473 99 286 46 93 41 216 153 74 53
internal_count=5355 3674 1681 1631 2043 905 720 776 563 635 185 415 1096 996 148 504 55 126 118 289 441 947 88 103 87 64 43 60 693 186 403 493 444 164 84 325 358 217 216 79 297 253 49 523 189 56 80 45 531 67 252 115 90 141 52 130 280 194 121 102 46 200 99 116 416 154 279 99 176 90 70 61 262 44 60 89 213 180 155 128 75 71 47 73 110 66 259 236 152 121 90 133 459 51 84 55 53 134 89 55 88 49 124 44 334 41 64 53 239 54 153 129 56 473 99 286 46 93 41 216 153 74 53
is_linear=0
shrinkage=0.03


Tree=4
num_leaves=121
num_cat=0
split_feature=2 0 2 0 0 9 0 35 35 0 24 35 24 0 2 32 34 0 2 34 2 0 9 17 9 0 17 9 0 10 34 9 0 9 9 27 4 5 14 38 1 19 3 16 3 13 14 13 16 0 34 13 2 0 27 1 10 4 27 16 19 9 14 15 33 3 27 4 15 19 37 3 10 19 0 33 13 19 15 1 0 24 14 14 3 1 2 1 32 2 19 19 1 16 0 13 4 14 4 0 13 0 3 3 21 1 3 9 13 1 27 17 19 17 0 17 15 0 2 3
split_gain=3633.8 721.472 336.424 132.174 125.147 42.2927 52.268 39.184 57.1334 20.3569 17.8954 16.6789 16.0989 16.0117 15.1326 14.6065 9.12526 8.02212 7.69366 9.00635 6.8521 9.9211 6.98342 7.95008 6.82342 6.44736 10.8433 6.38904 5.68373 5.48883 4.97318 4.82464 4.55359 4.52471 3.93993 3.65563 3.57374 3.30073 4.36871 4.24337 4.21766 3.18549 3.36076 3.14233 3.10772 2.84203 2.67458 6.18974 2.62152 2.59342 2.53199 2.45146 2.37165 2.19794 2.10415 2.04923 2.48436 2.97148 2.03472 2.01825 2.44417 1.9648 1.90817 1.86234 1.84202 2.27873 1.7358 1.4525 1.40802 1.38627 1.34658 1.31387 1.29442 1.28861 1.26496 1.18639 1.12176 1.11212 1.06463 1.05979 1.01223 0.98185 0.942786 1.97296 0.858673 0.854645 0.841262 0.791725 0.769459 2.18335 0.715285 0.659694 0.625699 0.615901 0.993287 0.592863 0.55222 0.549598 0.518905 0.496265 0.464527 0.45686 0.951189 0.443361 0.411568 0.406862 0.36243 0.327521 0.305726 0.288432 0.597462 0.252987 0.245354 0.240155 0.211257 0.184834 0.125061 0.241042 0.09653 0.0306115
threshold=375.50000000000006 1816.5000000000002 94.500000000000014 1146.5000000000002 3193.5000000000005 13.500000000000002 398.50000000000006 1.0000000180025095e-35 -1.0000000180025095e-35 4935.5000000000009 4.5000000000000009 1.0000000180025095e-35 3.5000000000000004 2316.5000000000005 540.50000000000011 1.0000000180025095e-35 1.0000000180025095e-35 15.500000000000002 148.50000000000003 2.5000000000000004 37.500000000000007 80.500000000000014 1.5000000000000002 146.91248983012702 17.500000000000004 309.50000000000006 12.233367755700064 6.5000000000000009 1494.5000000000002 130.73982186732189 1.0000000180025095e-35 5.5000000000000009 1030.5000000000002 1.5000000000000002 13.500000000000002 6171.4450000000006 130.48639678955081 1.5000000000000002 -40.249999999999993 1.5000000000000002 -7862.4973144531241 2151.9650000000006 74.500000000000014 171.64931034482763 86.500000000000014 -0.064999999999999988 -31.854999999999997 -1.0000000180025095e-35 11.860625000000001 117.50000000000001 1.5000000000000002 28.525000000000002 1097.0000000000002 771.50000000000011 630699.14500000014 5984.9704589843759 -111.70982683982683 -1596.0632324218748 1213573.5900000001 255.19242063492067 799.68000000000018 21.500000000000004 -38.769999999999989 -66.339999999999989 1.0000000180025095e-35 132.50000000000003 173931.58500000005 312.00030517578131 -0.58499999999999985 548.49000000000012 1.0000000180025095e-35 195.50000000000003 -69.361142857142838 361.51000000000005 7121.5000000000009 4.5000000000000009 -78.684999999999988 677.45000000000016 -0.58499999999999985 2691.789428710938 3652.5000000000005 4.5000000000000009 0.8650000000000001 -2.4649999999999994 138.50000000000003 111208.31640625001 1067.0000000000002 -72756.957031249985 1.0000000180025095e-35 1486.5000000000002 3786.4950000000003 591.12000000000012 164081.46875000003 236.19000872093025 573.00000000000011 58.065000000000005 -10777.791992187498 -22.234999999999996 -13176.953613281248 1087.5000000000002 490.32000000000005 2580.5000000000005 187.50000000000003 49.500000000000007 3.5000000000000004 -1580487.8749999998 172.50000000000003 40.500000000000007 -5.5849999999999991 9228.3154296875018 268833.71500000003 116.98601222382906 640.73000000000013 45.089674555652898 2099.5000000000005 82.6051375186277 4.0300000000000002 1223.5000000000002 1326.5000000000002 164.50000000000003
decision_type=2 2 2 2 2 2 2 2 2 2 2 2 2 2 2 2 2 2 2 2 2 2 2 2 2 2 2 2 2 2 2 2 2 2 2 2 2 2 2 2 2 2 2 2 2 2 2 2 2 2 2 2 2 2 2 2 2 2 2 2 2 2 2 2 2 2 2 2 2 2 2 2 2 2 2 2 2 2 2 2 2 2 2 2 2 2 2 2 2 2 2 2 2 2 2 2 2 2 2 2 2 2 2 2 2 2 2 2 2 2 2 2 2 2 2 2 2 2 2 2
left_child=2 3 7 14 13 10 11 8 16 80 18 25 15 46 24 31 -1 -17 -4 -20 22 -22 30 35 -2 26 67 -19 50 78 -14 -10 34 -18 -16 -24 -12 38 70 40 51 42 69 66 68 -43 114 -48 -39 -9 52 -40 105 54 72 56 112 -58 -56 113 -61 62 87 -23 65 -50 -8 -7 -45 -26 76 -67 73 -44 -11 86 -36 -60 -28 -80 -6 -54 83 -49 -66 96 100 -52 90 109 115 -86 99 -46 111 -55 -72 -74 -84 -57 108 102 -15 -65 -75 -5 -88 -102 -63 110 -90 -95 -34 -27 -3 -30 -107 -118 -117 -114
right_child=1 4 5 28 9 6 43 49 12 74 36 -13 20 101 32 17 33 27 19 -21 21 63 23 -25 41 59 29 -29 88 -31 -32 -33 55 -35 37 -37 -38 48 39 -41 -42 45 53 44 93 -47 47 82 64 -51 61 -53 81 95 58 92 57 -59 77 60 -62 75 -64 103 84 71 -68 -69 -70 -71 85 -73 97 104 -76 -77 -78 -79 79 -81 -82 -83 98 -85 91 -87 106 -89 89 -91 -92 -93 -94 94 -96 -97 -98 -99 -100 -101 107 -103 -104 -105 -106 116 -108 -109 -110 -111 -112 -113 119 -115 -116 118 117 -119 -120 -121
leaf_value=-0.068902638840120892 0.0045874818483223187 0.021048720942945454 -0.013771235658702525 0.0060946178731762553 0.035104280620979859 -0.02407085823241089 -0.0040362635968396298 -0.062209240317045146 -0.0059688959974050528 0.048264329836858029 -0.030189292102404262 -0.04541350270991347 -0.044700010666251178 0.019946248113706305 0.0077115722312950169 -0.053424690525978799 -0.037357465067735081 -0.016969334010034798 -0.0020937789157032963 0.021272068388760085 -0.020154242184545309 -0.032091553327712144 -0.038921543776988976 -0.031500394208090643 -0.010965889157652856 -0.022686446998922083 -0.032831506639328455 -0.038371377001237127 0.013310741071216761 -0.019147500083498335 -0.022680839291640689 -0.026201413291905604 0.0023892131652450189 -0.057620539156758056 -0.00034923731177472151 -0.058717256926496826 -0.013165940234065055 0.010550514015453783 -0.018484328517042424 -0.019287813839399148 0.0019555340632797379 -0.0085040693043477167 -0.015430927471723407 -0.016259624224156142 -0.019570253780909947 0.006731639208441431 0.0051362794536927887 0.020880587927423991 0.008913445441263981 -0.04662357678413391 0.0034068305101846493 -0.0047122496482250942 0.022118230728898194 0.0013552615632070227 -0.020017350596664794 0.013056881816983222 0.0024463465567678209 -0.011667180442291756 -0.012815743517077394 -0.031288350400328638 -0.018515184863869629 0.010372685114065042 -0.0026316741925016367 -0.048218565140899859 -0.0070071516504976901 -0.0056094156407884193 -0.014196301016424382 -0.011782725778520107 -0.028707935774555573 -0.022398982283771036 -9.0912578925660896e-05 0.0040433835122005444 0.000221614743466489 -0.0098781241870352192 0.060728040379862624 0.0036474867496315549 -0.0077850198209085293 -0.0034705806438411983 -0.0435884293091367 -0.032496252873327046 0.039980595071549697 0.013963806382247378 0.016989781419436138 0.0093023491087887017 0.002783760975115001 -0.0030216526918941072 0.01865017143798911 0.010290950810438708 0.0092244659162336786 0.0041153734705664888 0.011524153556336056 -0.0037262165305966682 0.0040699177858504378 -0.017946821712960415 -0.0071878790055112593 -0.0054817967166785496 0.0055985317604225048 -0.0058596655818922766 0.02475085113079924 0.0059715840028732514 0.015647623498524939 0.029502845032220209 0.027441241061814673 -0.038125321789928099 -0.0038847668842006957 0.012806688160862067 0.011067828358574347 0.0086088562285793688 0.0053395087949931622 0.018253193678955233 0.015444816579381303 -0.012670361190002696 0.0077118104039026157 -0.016776923293586481 0.024377182695581468 0.016373400762571759 0.0062835191244428809 0.01113390434219649 0.019567786732539724 0.0048435994381783535
leaf_weight=85 38 178 21 21 178 20 38 198 24 150 22 69 29 36 38 23 25 23 38 23 27 32 20 20 24 38 92 39 29 22 20 20 29 48 38 89 29 21 22 26 38 21 23 23 20 21 32 38 32 29 30 27 31 22 28 24 31 22 34 59 27 25 22 56 35 27 27 24 25 24 24 22 23 20 30 22 36 20 63 34 278 48 26 26 23 26 22 37 30 21 32 32 32 25 28 21 37 28 56 22 20 350 163 45 30 73 21 20 34 35 61 64 20 43 128 105 21 56 96 29
leaf_count=85 38 178 21 21 178 20 38 198 24 150 22 69 29 36 38 23 25 23 38 23 27 32 20 20 24 38 92 39 29 22 20 20 29 48 38 89 29 21 22 26 38 21 23 23 20 21 32 38 32 29 30 27 31 22 28 24 31 22 34 59 27 25 22 56 35 27 27 24 25 24 24 22 23 20 30 22 36 20 63 34 278 48 26 26 23 26 22 37 30 21 32 32 32 25 28 21 37 28 56 22 20 350 163 45 30 73 21 20 34 35 61 64 20 43 128 105 21 56 96 29
internal_value=-0.000145971 0.0167322 -0.0360346 0.00458276 0.0312925 -0.0229097 -0.0257057 -0.0494522 -0.0453648 0.0417861 -0.00723453 -0.0313993 -0.0398911 0.0247948 -0.00246589 -0.0302751 -0.0611719 -0.0375618 0.00144464 0.00686891 -0.0434521 -0.0381029 -0.048004 -0.0520724 -0.00731849 -0.0289988 -0.0321711 -0.0308749 0.0130039 -0.035046 -0.036406 -0.01561 0.000102391 -0.0513203 -0.0014373 -0.0554991 -0.0210064 -0.00220469 -0.00431406 -0.00881217 -0.00546383 -0.00867148 -0.00976278 -0.0144309 -0.0164583 -0.000837057 0.0206905 0.0174108 0.000796771 -0.0604445 0.0108018 -0.0112017 0.0129946 -0.00827675 -0.00956405 0.00381879 0.00147629 -0.00346411 -0.0133486 -0.0239743 -0.0275716 0.00858046 0.00484599 -0.0415466 -0.000437991 0.00280583 -0.00845319 -0.0178457 -0.0232579 -0.0170841 -0.00110358 -0.00122132 -0.00695058 -0.00951636 0.0506822 0.0105473 -0.00406221 -0.00953515 -0.0367703 -0.0401023 0.0381647 0.0174376 0.0200274 0.0164386 -0.00338915 0.00139644 0.0115623 0.00734806 0.0156719 0.0135148 0.0168147 -0.000949194 0.00764653 -0.013903 -0.0127512 -0.00196428 0.00334631 -0.00310791 0.0225605 0.00993124 0.00974959 0.0283634 0.0262069 -0.0441689 -0.00648762 0.0108352 0.015351 0.0124972 0.00765954 0.015013 0.0135493 -0.0143688 0.00487256 -0.0198287 0.0225257 0.0174848 0.0114342 0.00994705 0.0180032 0.00620512
internal_weight=5397 3671 1726 2002 1669 874 741 852 625 636 133 491 467 1033 1090 129 158 85 82 61 338 160 178 129 377 422 255 62 912 211 49 44 713 73 504 109 51 466 274 113 87 339 297 250 185 42 484 178 192 227 503 49 250 249 206 209 131 53 82 167 86 253 89 133 171 81 65 44 48 48 161 49 124 73 180 164 74 54 189 97 456 79 146 64 90 87 142 67 409 147 262 55 78 137 117 43 61 51 82 46 99 549 199 101 50 171 43 40 59 126 91 89 78 81 306 230 150 77 201 49
internal_count=5397 3671 1726 2002 1669 874 741 852 625 636 133 491 467 1033 1090 129 158 85 82 61 338 160 178 129 377 422 255 62 912 211 49 44 713 73 504 109 51 466 274 113 87 339 297 250 185 42 484 178 192 227 503 49 250 249 206 209 131 53 82 167 86 253 89 133 171 81 65 44 48 48 161 49 124 73 180 164 74 54 189 97 456 79 146 64 90 87 142 67 409 147 262 55 78 137 117 43 61 51 82 46 99 549 199 101 50 171 43 40 59 126 91 89 78 81 306 230 150 77 201 49
is_linear=0
shrinkage=0.03


Tree=5
num_leaves=127
num_cat=0
split_feature=2 0 2 0 0 0 35 35 0 22 11 22 0 0 0 34 2 18 35 22 11 28 16 2 0 0 2 14 14 22 16 22 14 15 2 16 16 0 4 4 0 31 27 34 22 11 27 15 27 5 14 14 16 11 10 14 10 15 0 0 37 14 15 10 22 22 2 2 0 21 21 19 16 11 11 11 4 14 0 19 4 32 15 28 33 4 28 4 16 27 14 4 4 22 16 22 0 10 21 21 15 19 4 20 2 22 16 2 11 0 20 15 16 11 0 20 15 16 14 27 22 10 4 0 4 15
split_gain=3351.67 646.06 334.051 120.714 111.355 48.7475 28.7935 34.1889 21.9573 20.2617 20.9997 17.1532 17.1309 13.5017 11.9481 11.0485 8.77835 7.812 7.47526 7.2726 6.39441 6.3421 8.90535 6.22421 6.17058 5.07931 6.66998 5.06613 4.94595 4.65026 4.36306 4.34744 4.64854 3.95292 3.81588 3.47058 3.21546 4.2648 3.1161 3.03029 2.91708 2.08267 2.0642 2.03684 1.77947 1.75344 1.79876 2.54761 2.79325 3.04066 1.73425 5.65696 4.98114 1.73338 1.60891 1.75025 1.57854 1.56479 1.53813 1.45713 1.38859 1.33302 1.37221 1.83407 1.24555 1.23592 1.22838 1.18868 1.18406 1.30331 1.19075 3.32617 1.21969 1.62947 1.17234 1.12013 1.75303 2.71435 1.2193 1.01211 1.8129 1.00195 0.94268 0.815659 0.802892 0.755345 0.752852 0.685762 0.669439 2.86118 0.668501 0.664074 0.655386 0.856938 0.756301 0.650536 0.58398 0.729187 0.505881 0.50325 0.517269 0.500205 0.466002 0.449202 0.486384 0.480545 0.418646 0.404445 0.414653 0.39503 0.357936 0.32986 0.825036 0.329165 0.293576 0.238404 0.223335 0.792032 0.221293 0.199986 0.198121 0.146094 0.118132 0.131629 0.0899295 0.322328
threshold=399.50000000000006 1816.5000000000002 83.500000000000014 3193.5000000000005 1146.5000000000002 387.50000000000006 1.0000000180025095e-35 -1.0000000180025095e-35 4935.5000000000009 56.247775496235462 1.0000000180025095e-35 41.712525667351137 26.500000000000004 2336.0000000000005 905.50000000000011 1.0000000180025095e-35 3.5000000000000004 1.0000000180025095e-35 1.0000000180025095e-35 41.043121149897338 1.0000000180025095e-35 2.5000000000000004 96.752037523452174 134.50000000000003 1494.5000000000002 71.500000000000014 64.500000000000014 -0.86499999999999988 -191.74499999999998 58.731006160164277 3.8145238095238096 56.409308692676255 -112.32999999999998 -9.0749999999999993 45.500000000000007 307.24350000000004 183.07629545454549 480.50000000000006 38.852966308593757 198.14089202880862 221.50000000000003 1.5000000000000002 545995.65000000002 1.5000000000000002 36.767967145790564 838.70338967616954 1569474.8900000004 1.1050000000000002 6171.4450000000006 1.5000000000000002 -31.854999999999997 0.8650000000000001 272.332843137255 57.362641597440799 273.12158783783792 -3.7099999999999995 -7.8894285714285717 0.18500000000000003 117.50000000000001 3652.5000000000005 1.5000000000000002 -55.804999999999993 51.565000000000005 -3.990479797979797 24.50787132101301 56.091718001368932 520.50000000000011 1055.5000000000002 1030.5000000000002 63.500000000000007 4.5000000000000009 361.51000000000005 253.57763585793757 126.63669344466369 1730.0937149991121 1280.5650181275303 -1378.0451660156248 -94.514999999999986 1356.5000000000002 612.21000000000015 -8530.3305664062482 1.0000000180025095e-35 -50.97499999999998 3.5000000000000004 6.5000000000000009 893.75329589843761 4.5000000000000009 3764.2897949218755 223.67611721611723 399384.13000000006 -4.0249999999999995 -7815.0400390624991 -1009.6910400390624 49.808350444900761 283.50047142857147 61.742642026009584 573.00000000000011 -80.428934426229489 12.000000000000002 55.500000000000007 37.970000000000006 647.68500000000006 -6745.3918457031241 250.28000000000003 1259.5000000000002 72.687200547570171 115.26186206896553 1021.5000000000001 114.53343146187744 309.50000000000006 167.10000000000005 -47.674999999999997 262.58895833333344 183.02505539381909 353.50000000000006 269.09000000000003 21.750000000000018 240.01535185925633 -87.944999999999979 847222.71000000008 66.835044490075305 -155.59642857142853 -13176.953613281248 2056.5000000000005 -3827.5180664062495 -437.04999999999995
decision_type=2 2 2 2 2 2 2 2 2 2 2 2 2 2 2 2 2 2 2 2 2 2 2 2 2 2 2 2 2 2 2 2 2 2 2 2 2 2 2 2 2 2 2 2 2 2 2 2 2 2 2 2 2 2 2 2 2 2 2 2 2 2 2 2 2 2 2 2 2 2 2 2 2 2 2 2 2 2 2 2 2 2 2 2 2 2 2 2 2 2 2 2 2 2 2 2 2 2 2 2 2 2 2 2 2 2 2 2 2 2 2 2 2 2 2 2 2 2 2 2 2 2 2 2 2 2
left_child=2 4 6 13 14 11 7 15 59 10 16 17 38 50 19 -1 -9 21 23 33 -17 39 -23 30 43 44 -27 31 66 35 -13 34 -33 -2 -11 56 61 79 -12 -4 57 45 64 67 -14 46 47 60 -49 53 116 52 90 -50 68 -56 109 -32 -8 -5 82 95 63 -63 -35 -58 83 107 70 92 71 -16 73 -72 91 76 77 98 -79 113 -81 102 -30 -21 -15 -78 -74 -47 89 -26 -52 -68 94 -94 -70 -7 -39 -98 -45 100 -87 -85 -73 105 -105 -90 -69 108 -6 -25 -37 -108 -113 -38 -31 -93 124 -118 119 -77 -95 -91 -53 -124 125 -3
right_child=1 3 5 8 24 36 58 9 -10 27 12 18 25 84 54 20 -18 -19 -20 28 -22 22 -24 29 88 26 -28 -29 41 114 40 32 -34 42 -36 110 37 96 -40 -41 -42 -43 -44 75 -46 87 -48 48 49 -51 51 122 -54 -55 55 -57 65 -59 -60 -61 -62 62 -64 -65 -66 -67 74 106 69 -71 72 81 86 -75 -76 118 85 78 -80 80 -82 -83 -84 101 -86 99 -88 -89 103 121 -92 115 93 120 -96 -97 97 -99 -100 -101 -102 -103 -104 104 -106 -107 111 -109 -110 -111 -112 112 -114 -115 -116 -117 117 -119 -120 -121 -122 -123 123 -125 -126 -127
leaf_value=-0.065962802668651899 0.011706475170650359 0.017772124158011542 -0.026053900325298307 0.033363575091728798 0.01412323487888683 -0.00066064998202703209 -0.060212944681657117 -0.028831310180481521 0.049811988851716435 -0.042131944518822892 -0.062590128673447501 -0.021099656020849941 -0.030312128526823856 0.027656958271384639 -0.012317306609026024 -0.032547995747791394 -0.0028166423920128079 -0.030424683562329698 -0.040699725870788094 -0.0017447275036945938 -0.05497757257775563 0.008582770989276468 -0.018154435405042021 -0.024725113105893665 0.0055776134316737839 -0.0478265507920035 -0.023114440057088025 -0.055346810573944825 -0.0062975957456231123 -0.031999263062893628 -0.032230832380941134 -0.037347299998005228 -0.055157741006815204 0.00030917051434516905 -0.026123911756661625 -0.023001466939086092 -0.018978575470990366 -0.013622672278764125 -0.040108729698828283 -0.0098840226759868022 -0.026459804254927131 -0.017936671967537184 0.0062495989999310541 0.011395283345665251 -0.016818289411813018 -0.0057601270010585294 -0.016085047742743466 -0.0030794537442511523 -0.010561275585421494 -0.0044779436496848405 0.019744450401122632 0.018038067074418067 0.0021095588004047218 -0.023217235814659822 -0.0096075656041502942 0.0019423398894723501 -0.0065688771266828889 -0.043115753682522941 -0.045670496910810474 0.038748865972394526 -0.010802530339785983 -0.019297645168006416 -0.0043183087046657293 -0.0078727167131186562 -0.0089791768979464136 -0.017476754770330762 -0.0055115705466558858 0.019116579150376112 -6.4064335472022098e-05 -0.0025205190591514109 0.012216503602655037 0.00050222381782428973 0.0030714831125612054 0.00073975511168828236 0.0057325304427861493 0.0064802833514457396 0.014434831943660974 -0.0058689949033925168 0.0038199001784835545 -0.0091818633368238797 -0.021674469835228385 -0.0034745605954065403 0.001132122537264457 -0.011157513919569876 0.019040964743365411 0.0081390793804938973 -0.0033598091170191761 0.0010846303371446473 0.017770269993759961 0.012238457350858621 0.011199588409225854 0.0019516210160883409 0.01232787316545312 0.0063172039226761885 0.0056357295406474304 -0.0083343051794384209 -0.011781674313274298 -0.0041684889764241548 0.0046321350679449412 0.011912790661920672 0.0018618576462779725 -0.0047360541732050484 0.0061247406930862256 0.010524636963551695 0.016000743919014928 0.011378479553305584 0.017112824157528257 0.0058063743753502001 0.0093367525131828819 -0.016365509884357452 -0.032678941331803796 0.0063738514977693559 0.014024756582205493 -0.02743360445896784 -0.024904846260753961 -0.0022703520575804367 0.012778793558721309 0.020905819975096603 0.014501279498934747 0.011797265863977374 0.0022490469158991523 0.017243462957184891 0.020060463400291544 0.027541705548763274 0.024447015854382068 0.023605960603555041
leaf_weight=82 28 53 29 155 32 21 187 21 185 51 26 29 20 497 20 26 26 30 59 39 40 23 20 27 38 28 21 63 24 82 47 35 52 23 30 29 27 78 20 20 37 22 21 27 29 33 32 28 20 21 37 24 32 30 22 23 21 57 27 275 20 29 20 28 27 22 30 22 38 23 22 28 35 23 21 21 24 25 20 23 26 28 38 22 22 38 29 20 165 27 20 27 20 34 43 20 32 22 22 22 20 31 27 43 49 22 22 25 88 24 23 24 44 26 38 20 22 86 24 23 22 57 27 33 106 44
leaf_count=82 28 53 29 155 32 21 187 21 185 51 26 29 20 497 20 26 26 30 59 39 40 23 20 27 38 28 21 63 24 82 47 35 52 23 30 29 27 78 20 20 37 22 21 27 29 33 32 28 20 21 37 24 32 30 22 23 21 57 27 275 20 29 20 28 27 22 30 22 38 23 22 28 35 23 21 21 24 25 20 23 26 28 38 22 22 38 29 20 165 27 20 27 20 34 43 20 32 22 22 22 20 31 27 43 49 22 22 25 88 24 23 24 44 26 38 20 22 86 24 23 22 57 27 33 106 44
internal_value=-0.000350133 0.0163848 -0.034289 0.0303738 0.0046944 -0.0224663 -0.0488503 -0.0450835 0.0408611 -0.0404868 -0.0328133 -0.0275572 -0.038509 0.0239062 -0.00216766 -0.0578107 -0.0148612 -0.0171838 -0.030068 -0.0049994 -0.0468041 -0.0125531 -0.00391492 -0.0285326 0.0122223 -0.0307635 -0.0379698 -0.0466498 -0.0065316 -0.0253576 -0.0333056 -0.0430625 -0.0485325 0.00235982 -0.0366305 -0.0213419 -0.0134816 -0.0155598 -0.0539408 -0.0198436 -0.0356286 -0.00901003 -0.00139591 0.0100183 -0.0228821 -0.00819608 -0.00941723 -0.00814 -0.0113834 -0.0145283 0.0201746 0.0173515 0.01179 -0.01852 0.00156731 -0.00372517 -0.0174413 -0.038579 -0.0586131 0.0368965 -0.00409808 -0.00923931 -0.0115888 -0.0139696 -0.00472543 -0.0124882 -0.00273163 0.0119757 0.00219044 0.00397622 0.000648565 -0.00163816 0.00283193 0.00655943 -0.000351263 0.0080781 0.00683226 0.0037498 -0.00150817 -0.0202591 -0.0161715 0.00101542 -0.00175059 -0.00520393 0.0273348 0.00952751 0.000104294 -0.00314939 0.0150573 0.0127343 0.0170428 -0.00210116 0.00495689 0.00698332 0.002957 -0.00458464 -0.0117809 -0.00886674 0.00857214 0.00785824 0.00609361 -0.00761438 0.00337602 0.0160132 0.0136142 0.0170988 0.014449 0.00995893 0.0107441 -0.0212392 -0.0278743 0.0130775 0.0114994 -0.0236131 -0.0300019 8.26666e-05 0.0216747 0.0194103 0.0115106 0.00952668 0.00483913 0.0158329 0.0230007 0.0246084 0.0227637 0.0206629
internal_weight=5309 3556 1753 1618 1938 969 784 570 615 422 191 617 144 1003 1014 148 47 122 495 577 66 92 43 436 924 98 49 231 478 266 170 168 87 99 81 146 352 234 46 49 141 288 71 523 49 266 213 181 99 71 484 173 89 50 437 45 94 104 214 430 82 118 77 57 50 43 190 257 392 180 212 103 109 45 98 266 198 94 45 102 49 83 62 92 519 104 64 53 401 122 57 77 157 76 81 41 132 54 49 80 58 53 55 279 92 187 112 145 120 51 52 90 68 53 120 47 311 108 68 44 56 84 84 60 203 97
internal_count=5309 3556 1753 1618 1938 969 784 570 615 422 191 617 144 1003 1014 148 47 122 495 577 66 92 43 436 924 98 49 231 478 266 170 168 87 99 81 146 352 234 46 49 141 288 71 523 49 266 213 181 99 71 484 173 89 50 437 45 94 104 214 430 82 118 77 57 50 43 190 257 392 180 212 103 109 45 98 266 198 94 45 102 49 83 62 92 519 104 64 53 401 122 57 77 157 76 81 41 132 54 49 80 58 53 55 279 92 187 112 145 120 51 52 90 68 53 120 47 311 108 68 44 56 84 84 60 203 97
is_linear=0
shrinkage=0.03


Tree=6
num_leaves=124
num_cat=0
split_feature=2 0 2 0 0 9 0 35 35 0 22 35 22 32 0 2 4 16 1 22 9 2 0 16 13 10 8 16 22 9 0 9 5 0 19 2 19 9 0 28 19 13 13 21 1 13 4 2 15 0 15 4 16 16 13 16 13 2 22 2 22 1 15 13 13 2 22 12 0 13 16 1 15 15 4 9 32 1 0 13 1 17 10 9 4 37 22 4 13 16 13 17 22 4 2 17 15 19 19 0 4 1 0 13 17 0 17 9 2 17 17 16 0 19 19 4 0 12 13 13 13 0 0
split_gain=3186.52 618.672 306.835 111.281 104.233 45.3831 48.2407 28.656 33.9354 22.7546 16.9326 16.7437 14.5329 18.6583 13.6528 9.92712 8.12138 7.45088 6.86949 6.08357 6.05935 6.03098 5.49978 8.20987 5.49774 5.47247 5.19928 5.46151 4.84211 11.7321 4.38408 4.5099 3.84801 3.83962 3.69329 5.81479 3.64348 3.40053 2.80346 4.1414 3.62827 3.04207 3.88769 2.42232 3.13697 2.5586 2.23475 2.2236 1.9414 1.89054 3.27575 1.85984 1.80109 1.77188 1.46384 1.6021 1.63909 1.46122 1.38784 1.37935 4.75064 1.27962 1.2658 1.71615 4.09316 1.22092 1.19831 1.16774 1.15116 1.12295 1.12107 1.09722 1.08994 0.999143 1.52043 0.952608 1.22613 0.940928 0.913523 0.705374 0.640302 0.639449 0.630674 0.619766 0.603745 0.574792 1.05201 0.648153 0.502362 0.501683 0.466518 0.444415 0.429288 0.427307 0.354747 0.351614 0.340978 0.337067 0.46291 0.323122 0.320543 0.313084 0.278155 0.576681 0.25763 0.247951 0.236942 0.262763 0.220923 0.212324 1.43633 0.37272 0.167893 0.296203 0.272303 0.150827 0.133347 0.105893 0.092123 0.62886 0.202657 0.0590961 0.267983
threshold=399.50000000000006 1833.0000000000002 94.500000000000014 3193.5000000000005 1159.5000000000002 13.500000000000002 409.50000000000006 1.0000000180025095e-35 -1.0000000180025095e-35 4935.5000000000009 55.68925393566051 1.0000000180025095e-35 45.920602327173178 1.0000000180025095e-35 2316.5000000000005 558.50000000000011 -791.78366088867176 36.298681818181826 4515.0222167968759 25.783709787816566 17.500000000000004 1097.0000000000002 309.50000000000006 5.0568750000000007 -0.17499999999999996 130.73982186732189 1.0000000180025095e-35 0.99083333333333357 52.945927446954151 1.0000000180025095e-35 1030.5000000000002 12.500000000000002 1.5000000000000002 504.00000000000006 402.71500000000009 658.50000000000011 2.0950000000000002 32.500000000000007 771.50000000000011 3.5000000000000004 792.10000000000014 264.68500000000006 -1.1449999999999998 65.500000000000014 5984.9704589843759 1056.1200000000001 -39934.781249999993 174.50000000000003 -1.3449999999999998 850.50000000000011 -25.574999999999999 18.309341430664066 188.33117982456142 36.298681818181826 -9.3449999999999971 535.27769047619051 202.65000000000003 1283.5000000000002 47.130732375085564 1184.5000000000002 45.668720054757024 65078.443359375007 7.6150000000000011 24.070000000000004 -12.299999999999999 30.500000000000004 42.880219028062974 -78.279999999999987 7121.5000000000009 10.025000000000002 546.09929545454554 4515.0222167968759 -1.0000000180025095e-35 3.4050000000000007 -27.959287643432614 38.500000000000007 1.5000000000000002 -391566.29687499994 659.00000000000011 79.420000000000016 -29431.471679687496 219.17493817086498 188.31745915841586 40.500000000000007 -16390.507812499996 1.5000000000000002 54.970568104038342 -929.04223632812489 1413.3900000000001 196.69672971627679 79.420000000000016 355.4204815544818 64.116358658453137 754.67892456054699 706.50000000000011 414.90492061196386 -203.40499999999994 117.50000000000001 281.435 2118.5000000000005 -9645.0288085937482 67398.347656250015 1335.0000000000002 4.1300000000000008 257.22607392944184 3652.5000000000005 248.44793715187947 21.500000000000004 520.50000000000011 100.95212324192784 24.385134712069274 411.59942934782617 1600.5000000000002 1034.1250000000002 627.05000000000007 -13176.953613281248 1424.5000000000002 -867.14999999999986 -11.154999999999999 6.1900000000000004 -53.879999999999988 2580.5000000000005 2552.5000000000005
decision_type=2 2 2 2 2 2 2 2 2 2 2 2 2 2 2 2 2 2 2 2 2 2 2 2 2 2 2 2 2 2 2 2 2 2 2 2 2 2 2 2 2 2 2 2 2 2 2 2 2 2 2 2 2 2 2 2 2 2 2 2 2 2 2 2 2 2 2 2 2 2 2 2 2 2 2 2 2 2 2 2 2 2 2 2 2 2 2 2 2 2 2 2 2 2 2 2 2 2 2 2 2 2 2 2 2 2 2 2 2 2 2 2 2 2 2 2 2 2 2 2 2 2 2
left_child=2 4 7 14 15 10 11 8 28 105 16 22 13 18 62 20 -4 19 -10 -15 -2 67 23 -7 36 48 27 -26 29 -1 31 -17 34 46 35 -33 72 -34 39 40 85 42 84 44 45 80 -8 -12 -25 50 -36 77 97 -18 70 56 -56 59 -46 66 -61 -53 88 64 92 -30 -23 82 -11 -44 94 93 -14 117 -75 109 96 -39 89 108 106 116 100 -79 -41 86 -22 -88 -3 -35 -91 -54 -64 -50 -51 -83 -77 -24 -99 -90 102 -60 103 -6 -43 -5 107 -32 -40 110 -59 -111 113 114 -62 -65 -68 -48 120 -120 -102 122 -16
right_child=1 3 5 9 21 6 33 -9 12 68 47 -13 24 17 121 30 53 -19 -20 -21 38 57 52 25 26 -27 -28 -29 65 -31 43 32 37 78 49 -37 -38 51 79 41 -42 104 69 -45 58 -47 73 -49 71 54 -52 61 91 -55 55 -57 -58 75 101 60 112 -63 63 115 -66 -67 81 -69 -70 -71 -72 -73 -74 74 -76 76 -78 83 -80 -81 -82 95 -84 -85 -86 -87 87 -89 99 90 -92 -93 -94 -95 -96 -97 -98 98 -100 -101 118 -103 -104 -105 -106 -107 -108 -109 -110 111 -112 -113 -114 -115 -116 -117 -118 -119 119 -121 -122 -123 -124
leaf_value=-0.02714319362491369 0.0053868346877396101 0.022254587244184224 -0.0095307220241853171 0.033115191966996471 0.0082992484274391955 -0.014427221624739467 -0.008444659728843432 -0.05617265367590718 -0.024332296592295168 0.046007500490316974 -0.023808990181520065 -0.044980767864605482 -0.033646590246435473 -0.02895218449115753 0.02573316080570626 0.0096845420842291783 0.0052134501656983046 -0.020633740274743601 -0.0011420631330946217 -0.051247755055244155 -8.3662476677160986e-05 0.022218165112393242 -0.022100845033228393 -0.029546290048048832 -0.041464137521190721 -0.016640462942097499 -0.031591301954709564 -0.057265989162268181 -0.06399893008437875 -0.05740360640339992 0.005830673130398447 -0.0010921652990464983 0.010451164426702646 -0.0074113583046600002 0.00093539073050022121 -0.021535748927782358 -0.040906680509805678 0.00090143883104125649 0.002770110522518339 -0.004577532873089824 0.0071076241742287364 -0.0072862533153119418 -0.027669558245156489 -0.0057503846309014733 0.016518881046346256 -0.0075671252213817628 -0.018293909882721695 -0.010785271858264292 -0.04309911596449939 0.0011864331994544378 -0.013681377760945789 0.0088215704257958213 -0.026415853074189789 0.0165404715500772 -0.01239064773498103 0.0031282033034201176 -0.0013145535838686756 0.020755323719233273 0.0098519367440603675 -0.0017400382268428802 0.010230413263494317 -0.0008616855521585145 0.014910102390695828 0.016923020016115443 0.0050534337637099351 -0.047744878580937018 0.0073920104030985381 0.0028820012898317401 0.056630368788067889 -0.015423023011874069 -0.0033588318293104351 -0.03006739024294389 -0.021208875639098033 -0.02761445287019014 -0.015996636498077161 0.010512180311605335 0.0067821095786415615 -0.0086349124742814126 -0.0036950068306177853 -0.0052488056482747191 -0.00071680914475159212 0.017562326608009115 0.013552715888133317 -0.0022845891237258907 -0.011828312148723532 -0.011153841762380167 -0.0033055309999201975 -0.01094352785398304 0.013945128371939062 -0.0145296052343079 -0.0088078432746908891 -0.01823541235923767 0.021605267173227138 -0.031205436904322013 0.0064171786408542706 0.010891027503392913 0.016495224216757642 -0.010614259702818735 -0.018962405277881771 0.021287754744291305 0.009274964491836726 0.0047475506453907917 0.0095868315462802733 0.002290718857731138 -0.0021385135735784255 0.037131772880664493 0.0067943785881623619 0.0012128948901362459 -0.0013951407875865698 0.020897801044487182 0.0094390096902847286 0.015880044383662084 0.015360093126552442 0.0083654990520547427 0.016091963385343553 0.022153515924784269 0.012125197573350026 -0.01274642081897367 0.0052762476762102262 0.010607239135630327 0.013682276030536742 0.027747697336787901 0.018814369544386863
leaf_weight=23 39 191 27 169 38 29 25 215 24 155 28 57 33 24 183 31 31 21 22 38 25 20 24 95 60 22 25 61 72 33 21 25 30 36 24 25 124 35 22 20 20 21 20 20 20 20 22 27 54 21 30 25 115 23 23 20 26 20 23 24 32 22 39 38 32 25 23 27 40 21 22 36 20 29 28 23 25 26 21 29 21 42 40 34 33 21 20 26 31 48 32 20 33 21 33 21 61 20 20 20 47 34 42 27 20 280 39 28 21 61 29 62 34 33 24 65 25 32 36 72 31 347 23
leaf_count=23 39 191 27 169 38 29 25 215 24 155 28 57 33 24 183 31 31 21 22 38 25 20 24 95 60 22 25 61 72 33 21 25 30 36 24 25 124 35 22 20 20 21 20 20 20 20 22 27 54 21 30 25 115 23 23 20 26 20 23 24 32 22 39 38 32 25 23 27 40 21 22 36 20 29 28 23 25 26 21 29 21 42 40 34 33 21 20 26 31 48 32 20 33 21 33 21 61 20 20 20 47 34 42 27 20 280 39 28 21 61 29 62 34 33 24 65 25 32 36 72 31 347 23
internal_value=0.000232483 0.0163462 -0.0330658 0.0298927 0.00492983 -0.0211496 -0.0239169 -0.0464185 -0.0428603 0.0396459 -0.00507669 -0.0293466 -0.0385096 -0.0294076 0.0235879 -0.00159225 0.00362124 -0.0378858 -0.0135654 -0.0432614 -0.00562682 0.0122793 -0.0272916 -0.0303739 -0.0420336 -0.0323172 -0.0469876 -0.049859 -0.0553601 -0.0457221 0.000538834 -0.00116209 -0.00198894 -0.0136329 -0.00436883 -0.0115946 -0.0376894 0.00144437 -0.00699531 -0.00851232 -0.00415213 -0.0120505 -0.015028 0.00394402 0.00492296 0.00200419 -0.0172649 -0.0177759 -0.0338884 -0.00248941 -0.0072316 -0.000497268 -0.0231641 0.0103055 -0.000665368 -0.0038168 -0.00671737 0.0142517 0.00968599 0.0125214 0.0103002 0.00430296 0.0195712 0.0174609 0.0143214 -0.0603703 0.0148941 0.00917724 0.0484797 -0.0219849 0.00216925 -0.0372809 -0.0294883 -0.0191315 -0.0223334 0.0159024 0.0132485 -0.00292345 -0.00990667 -0.00170472 0.00384049 0.0133611 0.00966852 -0.00518202 -0.00928316 -0.00668227 -0.00518148 -0.00782748 0.0212846 -0.0109644 -0.0124149 -0.025369 0.0182737 -0.0402628 0.0044961 0.0155904 0.0150352 -0.0181482 -0.0152222 0.0172363 0.00908376 0.00699329 0.00746338 0.00592138 -0.00495729 0.0357036 0.00495757 0.00332898 0.00068226 0.0174806 0.0144406 0.0185412 0.0126688 0.0114481 0.0130334 0.0204339 0.0101156 -0.0153526 0.00995498 0.00892247 0.0112156 0.0268026 0.0250698
internal_weight=5343 3601 1742 1646 1955 922 786 820 605 644 136 513 452 129 1002 1036 81 83 46 62 358 919 456 257 323 228 146 121 153 56 678 452 421 273 249 50 177 172 319 247 112 135 94 226 206 129 136 55 206 199 54 142 199 54 145 69 49 559 77 278 147 47 449 207 104 97 131 360 195 41 76 111 53 111 57 281 109 95 137 72 109 111 333 60 53 92 71 46 242 116 80 135 72 75 54 63 84 64 40 51 293 57 107 65 41 449 88 49 43 172 49 123 123 89 56 103 48 54 186 108 78 553 206
internal_count=5343 3601 1742 1646 1955 922 786 820 605 644 136 513 452 129 1002 1036 81 83 46 62 358 919 456 257 323 228 146 121 153 56 678 452 421 273 249 50 177 172 319 247 112 135 94 226 206 129 136 55 206 199 54 142 199 54 145 69 49 559 77 278 147 47 449 207 104 97 131 360 195 41 76 111 53 111 57 281 109 95 137 72 109 111 333 60 53 92 71 46 242 116 80 135 72 75 54 63 84 64 40 51 293 57 107 65 41 449 88 49 43 172 49 123 123 89 56 103 48 54 186 108 78 553 206
is_linear=0
shrinkage=0.03


Tree=7
num_leaves=127
num_cat=0
split_feature=0 0 0 0 0 0 35 35 22 0 27 3 6 22 22 0 3 18 0 35 22 0 0 22 19 1 0 10 22 0 0 22 0 14 14 11 14 3 3 3 16 1 13 11 0 3 0 14 1 13 11 0 0 34 13 22 11 34 34 14 21 19 3 10 22 14 16 14 14 1 3 0 22 22 10 0 3 1 14 22 17 17 17 21 0 10 17 13 33 27 18 0 3 0 33 10 16 17 22 3 3 22 3 14 1 0 27 10 1 14 27 16 27 17 17 22 1 19 27 22 3 22 10 14 11 1
split_gain=2916.16 494.468 369.822 91.2817 84.7678 53.2551 46.0397 42.1598 29.9547 17.5055 15.5252 15.1305 13.3164 16.5395 11.9195 11.7578 11.7118 9.43078 8.60592 8.55807 10.0377 6.47605 5.61887 5.6025 5.51416 5.266 5.02641 4.96121 4.9156 5.97148 4.86523 4.6008 4.5639 4.01863 3.90828 3.76946 3.2147 2.85776 2.5806 5.21826 2.54916 2.33224 2.75182 2.31781 7.3006 2.24439 2.15521 1.79725 4.85171 7.09519 1.99415 1.77815 1.76173 1.61677 1.65015 1.57096 1.52827 1.47449 1.57118 1.54086 1.47196 3.55002 1.27844 1.2017 1.4673 1.15106 1.12777 2.12904 6.85556 1.29528 1.0133 1.01102 0.979193 1.61258 0.902107 0.900753 0.872421 0.86214 1.19758 0.846879 0.82075 0.816342 0.829667 0.778417 0.814453 0.774282 0.734716 1.81817 0.71976 0.811882 0.709262 0.597758 0.592402 0.578196 0.679737 0.558859 0.556729 0.534339 0.525935 0.54446 1.35248 0.51512 0.436774 0.433979 0.400659 0.370849 0.353075 0.349062 0.772685 0.675901 0.340616 0.269745 0.252117 0.237949 0.226939 0.206388 0.189523 0.24708 0.179633 0.132229 0.124189 0.111108 0.0847573 0.0725625 0.0667048 0.0267158
threshold=687.50000000000011 2035.5000000000002 221.50000000000003 1146.5000000000002 3193.5000000000005 409.50000000000006 1.0000000180025095e-35 -1.0000000180025095e-35 45.489390828199866 4935.5000000000009 839320.92000000004 24.500000000000004 1.0000000180025095e-35 53.527720739219724 51.234770704996585 1494.5000000000002 54.500000000000007 1.4800000000000002 117.50000000000001 1.0000000180025095e-35 31.937029431895965 153.50000000000003 905.50000000000011 24.50787132101301 183.04000000000002 1127.6400146484377 2413.5000000000005 -21.617958333333331 37.42231348391514 47.500000000000007 309.50000000000006 56.409308692676255 100.50000000000001 -87.944999999999979 -249.12499999999997 2.9361984279653153 -55.804999999999993 68.500000000000014 86.500000000000014 97.500000000000014 255.19242063492067 -34747.171874999993 11.835000000000003 1.0000000180025095e-35 47.500000000000007 97.500000000000014 504.00000000000006 -36.249999999999993 1389.660095214844 58.065000000000005 74.607956595685252 378.50000000000006 1052.5000000000002 1.5000000000000002 2516.6950000000006 36.312114989733068 4.8634193033085191 5.5000000000000009 10.500000000000002 -122.02499999999999 12.000000000000002 352.42500000000001 105.50000000000001 -149.09299999999999 59.690622861054081 -8.9899999999999984 178.88865079365084 -63.309999999999995 -1.7849999999999999 43.075473785400398 130.50000000000003 1816.5000000000002 55.431895961670101 63.394934976043814 -4.9800152439024385 525.50000000000011 85.500000000000014 -619613.81249999988 -451.14999999999992 56.247775496235462 167.69073434965222 227.39416855332118 45.089674555652898 53.500000000000007 1616.5000000000002 -6.2401704545454546 229.00930023816926 -0.064999999999999988 1.0000000180025095e-35 468540.07000000007 24.255000000000003 795.50000000000011 111.50000000000001 1006.5000000000001 1.0000000180025095e-35 -7.8894285714285717 1.0000000180025095e-35 239.24353111213142 72.687200547570171 121.50000000000001 189.50000000000003 47.857631759069143 152.50000000000003 -741.2349999999999 -1580487.8749999998 582.50000000000011 710285.49500000011 -162.9600162337662 -1991.7458496093748 -278.13499999999993 1718927.9150000003 234.16469941348976 821999.61500000011 176.27582163726638 209.49518198622278 77.010266940451757 111208.31640625001 643.40500000000009 1135827.6950000001 62.162902121834371 221.50000000000003 42.405201916495564 9.4872500000000031 -21.239999999999998 631.88516609342867 10331.034667968752
decision_type=2 2 2 2 2 2 2 2 2 2 2 2 2 2 2 2 2 2 2 2 2 2 2 2 2 2 2 2 2 2 2 2 2 2 2 2 2 2 2 2 2 2 2 2 2 2 2 2 2 2 2 2 2 2 2 2 2 2 2 2 2 2 2 2 2 2 2 2 2 2 2 2 2 2 2 2 2 2 2 2 2 2 2 2 2 2 2 2 2 2 2 2 2 2 2 2 2 2 2 2 2 2 2 2 2 2 2 2 2 2 2 2 2 2 2 2 2 2 2 2 2 2 2 2 2 2
left_child=2 3 6 22 26 11 7 12 10 -6 17 -4 13 -1 16 53 -7 28 -8 20 -13 31 23 -2 -23 -12 55 36 29 -9 41 43 -14 46 -33 -19 75 -35 -24 -40 51 42 -22 -10 56 -29 106 62 49 -49 -50 119 66 70 65 -3 -45 -28 59 -59 71 -62 -25 64 80 77 69 93 -69 -41 79 98 -39 111 101 -18 123 78 -55 -5 -64 82 -43 -63 -85 -67 103 -88 -66 -90 -65 -51 -75 94 97 -31 -46 -68 99 -17 114 -54 -72 -48 -104 -105 -16 109 -109 118 -73 -74 -86 -78 -101 -57 117 -103 -79 -32 -111 -106 -70 -42 -119 -26
right_child=1 4 5 15 9 14 18 8 21 -11 25 19 32 -15 33 60 27 35 -20 -21 30 24 38 47 125 -27 57 45 -30 95 40 34 -34 37 -36 -37 -38 72 39 52 76 81 -44 44 96 -47 86 48 50 91 -52 -53 74 54 -56 115 -58 58 -60 -61 61 83 63 90 88 85 67 68 122 -71 102 110 73 92 -76 -77 113 107 -80 -81 -82 -83 -84 84 112 -87 87 -89 89 -91 -92 -93 -94 -95 -96 -97 -98 -99 -100 100 -102 116 104 105 121 -107 -108 108 -110 120 -112 -113 -114 -115 -116 -117 -118 124 -120 -121 -122 -123 -124 -125 -126 -127
leaf_value=-0.021327631847560403 0.011930092362420899 0.011386766036706311 0.001113385080643322 0.020443452050643306 0.035156503439375333 0.015619620953819581 -0.057192970998206374 -0.039800480766892431 -0.028312676668755317 0.046703640990121205 -0.018079476954681532 -0.0076033305065020132 -0.06299140232329882 -0.054576235944032665 -0.010522413362376391 0.021497878053310243 -0.01092079800993204 -0.051141428843140602 -0.041587307852506639 -0.039268018799669596 -0.040069039228984284 -0.020473342281455795 0.0091541489294730133 0.0027280429420438968 -0.039339081548154353 0.0027190067962459897 0.026847893601600174 0.0076140620398521429 -0.012502667048438028 -0.014295639344624109 -0.01700815235476854 -0.030718820427145275 -0.043240163286526995 -0.025252518467903134 -0.049174190836794238 -0.02873370506082262 -0.021019864914672715 -0.018807324893532259 -0.013408200989078198 0.0074415449654758985 -0.023592906559795832 -0.021412017352677677 -0.023233292101220947 -0.056589773067406243 -0.026226424878670107 -0.0040760114199947569 -0.0048261015065495048 -0.021029146056622264 0.007722262452223471 -0.0065696087703108787 -0.0044045388599986152 -0.0096027717189542186 0.010190054265516146 0.008797490668361602 0.013668162455292123 0.021711648769375376 -0.038862728990614409 0.0233924880745736 0.027896654366254804 0.011495185886798747 0.00090361361205577851 0.0082866008318960675 -0.0046088710087537768 0.0034702505062920068 0.0013284844230860471 -0.00033135644998401402 -0.00080096105659114463 -0.014650105153265243 0.0017912506054022482 -0.0017192812157286839 0.005384295979919641 0.019889453509729357 -0.004163700386881828 -0.020144229839422875 -0.0003493464133805699 -0.0027590325772762297 -0.022603632812914637 0.0090644442844722006 -0.00074604851612821224 0.011014464607012683 -0.012958043822944165 -0.018064659862518311 -0.029967609847946598 0.010906572251021861 0.019259820787155109 0.0067511919648386544 -0.0086791682566702364 0.0032620174166347296 0 -0.0071738702909400062 -0.0033855594573542471 0.00021902993624098598 -0.012345918253064156 0.0047687123855396822 -0.0029263104662189589 -0.023943012998862697 -0.035896212750802868 0.0056299197190627457 0.01026571379750967 0.0067954280133480614 0.016369374429950345 0.001671493189593145 0.0065503322769213338 -0.012092513457598054 0.0078201841161302903 -0.0063474128505644897 -0.016956263873312206 0.0025981878639043617 0.010055336934963948 0.015591863629492848 0.014726991538938722 -0.0094515787137447495 0.014739173199143259 -0.014663489042648248 0.012266280012130737 0.01545393744962556 0.0073535775616765022 0.0034536016487649508 0.0044144706608993658 -0.023485192756761201 0.010094947405457497 0.01165903768986201 0.0050176115887505665 -0.031196850519913891 0.0067839088429781525 -0.030647801406894406
leaf_weight=29 20 20 22 20 454 27 176 24 37 183 20 37 78 29 29 21 24 20 59 33 34 35 39 36 47 22 393 24 32 20 42 20 26 24 101 20 20 30 20 36 42 36 21 27 26 35 30 36 20 21 28 28 20 22 37 305 23 21 24 28 20 23 24 30 29 31 20 33 20 21 22 119 20 20 26 28 22 26 23 28 24 24 54 44 45 23 24 20 24 35 23 23 41 38 33 21 68 24 29 22 168 34 28 33 22 25 26 26 28 21 37 28 79 20 24 20 21 20 20 21 24 141 20 25 21 34
leaf_count=29 20 20 22 20 454 27 176 24 37 183 20 37 78 29 29 21 24 20 59 33 34 35 39 36 47 22 393 24 32 20 42 20 26 24 101 20 20 30 20 36 42 36 21 27 26 35 30 36 20 21 28 28 20 22 37 305 23 21 24 28 20 23 24 30 29 31 20 33 20 21 22 119 20 20 26 28 22 26 23 28 24 24 54 44 45 23 24 20 24 35 23 23 41 38 33 21 68 24 29 22 168 34 28 33 22 25 26 26 28 21 37 28 79 20 24 20 21 20 20 21 24 141 20 25 21 34
internal_value=0.000343812 0.0169921 -0.0288233 0.00728667 0.0303275 -0.0156058 -0.0416767 -0.0379525 -0.0341321 0.0385465 -0.0235781 -0.022987 -0.0517173 -0.038646 -0.00886969 0.0126493 -0.00199047 -0.028456 -0.0534805 -0.0242014 -0.0228759 -0.0385773 -0.00039621 -0.00311205 -0.031658 -0.00730539 0.0238287 -0.00573359 -0.0228934 -0.0276965 -0.0243745 -0.0411119 -0.058541 -0.0119521 -0.0464251 -0.0409848 -0.0109651 -0.0154417 0.00187028 0.00114423 -0.0208852 -0.028339 -0.0342241 -0.037308 -0.0393874 0.000676919 -0.00882849 -0.00400406 -0.00684432 -0.0113253 0.000641549 -0.0166577 0.00193665 0.00936248 0.0076874 0.020848 -0.0494161 0.0259796 0.020965 0.0170199 0.0154484 0.0131403 -0.00235186 -0.00334451 -0.00483053 0.00671615 0.000377271 -0.000733886 -0.0047178 0.00404333 0.0111182 0.0165669 -0.013558 -0.0119281 0.00458469 -0.00671758 -0.0242039 0.00782215 0.00394429 0.0153415 -0.00902394 -0.0252007 -0.0268512 0.0143946 0.0151591 0.00269864 -0.00661853 -0.00323282 -0.00243381 -0.0043244 0.000431932 -0.00302833 -0.0152348 0.00178804 0.000236324 -0.0197608 -0.0335574 0.00268728 0.0151785 0.015726 0.0150483 0.00570978 0.0100853 -0.00822233 0.0105802 -0.00981658 -0.0138659 0.00896982 0.00663192 0.0102374 0.0187857 -0.00743946 0.0165447 -0.0193213 0.00991387 0.0213843 0.00465003 0.00376676 0.00724349 -0.0195473 0.0130086 0.01121 0.00356064 -0.0268914 0.00535171 -0.0361457
internal_weight=5403 3440 1963 1992 1448 969 994 759 597 637 179 461 162 58 508 1173 158 137 235 439 406 418 819 373 116 42 811 131 97 65 369 302 104 350 121 40 72 163 446 407 200 169 55 181 144 59 187 353 128 80 48 91 387 542 281 345 50 466 73 49 631 211 225 189 136 244 245 188 73 57 261 420 139 109 142 52 109 190 45 48 48 114 90 191 168 54 132 44 88 59 53 44 61 115 77 41 94 44 264 235 214 116 213 88 191 58 55 145 54 91 156 48 124 42 46 325 96 75 46 63 45 163 40 67 41 81
internal_count=5403 3440 1963 1992 1448 969 994 759 597 637 179 461 162 58 508 1173 158 137 235 439 406 418 819 373 116 42 811 131 97 65 369 302 104 350 121 40 72 163 446 407 200 169 55 181 144 59 187 353 128 80 48 91 387 542 281 345 50 466 73 49 631 211 225 189 136 244 245 188 73 57 261 420 139 109 142 52 109 190 45 48 48 114 90 191 168 54 132 44 88 59 53 44 61 115 77 41 94 44 264 235 214 116 213 88 191 58 55 145 54 91 156 48 124 42 46 325 96 75 46 63 45 163 40 67 41 81
is_linear=0
shrinkage=0.03


Tree=8
num_leaves=124
num_cat=0
split_feature=0 0 0 0 0 0 35 35 22 0 22 32 22 4 21 4 3 0 4 16 3 34 13 0 17 20 0 22 15 3 3 0 13 21 0 23 0 0 19 3 15 0 40 13 3 21 16 14 13 13 15 22 14 17 13 17 22 0 3 22 31 32 0 16 19 27 15 22 17 34 0 16 1 15 14 14 22 16 15 0 0 17 16 1 15 20 19 4 17 3 4 0 8 14 1 22 27 0 1 4 18 0 32 3 13 22 1 1 19 3 3 1 22 3 0 3 15 10 19 1 3 3 27
split_gain=2890.77 485.168 320.419 102.315 69.0016 60.3048 34.2478 39.1071 19.0194 16.6244 15.974 15.2496 14.2972 11.8365 11.2474 10.5417 10.3637 9.85895 9.53919 9.35475 8.22179 7.62509 7.05082 6.74763 5.90461 5.84432 5.48783 5.10748 4.57189 4.41151 3.69597 4.30719 3.56631 4.04917 3.73223 3.49749 3.32598 2.6539 2.64195 2.45409 2.27871 2.23939 2.22161 3.12724 3.27289 2.937 1.86284 2.28789 5.6346 1.71584 1.67987 1.67586 1.52103 1.97792 1.51576 1.71764 1.48336 1.41841 1.39596 1.30975 1.29325 1.20437 1.18294 1.1671 1.16653 1.42198 1.16573 1.15477 1.13561 1.06443 1.44577 1.21095 0.982479 1.09809 0.97774 4.24444 0.96196 2.6779 0.956332 0.954423 0.929994 0.90687 2.17441 0.905671 0.872085 0.865626 1.04079 0.828475 0.821869 0.784401 0.685669 0.941572 0.584711 1.24122 0.963466 0.769186 0.521867 0.471773 0.431937 0.425771 0.405246 0.388894 0.386673 0.328707 0.32557 0.256559 0.264844 0.25431 0.232361 0.216792 0.186992 0.168197 0.167617 0.129965 0.106342 1.11384 0.0817317 0.0791218 0.0422327 0.0259729 0.0244445 0.104207 0.00843334
threshold=675.50000000000011 2118.5000000000005 170.50000000000003 1159.5000000000002 3193.5000000000005 387.50000000000006 1.0000000180025095e-35 -1.0000000180025095e-35 45.920602327173178 4935.5000000000009 50.747433264887071 1.0000000180025095e-35 52.945927446954151 -585.91909790039051 1.0000000180025095e-35 -2782.588745117187 6.5000000000000009 1521.5000000000002 73.707504272460952 81.272205882352964 36.500000000000007 4.5000000000000009 -0.92499999999999993 875.50000000000011 3.0292699712743212 12.125000000000002 309.50000000000006 31.937029431895965 2.359999999999999 62.500000000000007 8.5000000000000018 145.50000000000003 2720.8900000000003 3.5000000000000004 454.50000000000006 1.0000000180025095e-35 2316.5000000000005 7121.5000000000009 183.04000000000002 76.500000000000014 -10.004999999999997 63.500000000000007 1.0000000180025095e-35 -0.084999999999999978 119.50000000000001 59.500000000000007 503.11920995670999 -14.644999999999998 73.960000000000022 647.0100000000001 -212.38499999999996 43.233401779603021 -17.019999999999996 167.69073434965222 -72.094999999999985 180.73586780088721 56.409308692676255 980.50000000000011 26.500000000000004 61.201916495550996 1.0000000180025095e-35 1.0000000180025095e-35 573.00000000000011 477.39523809523814 585.5350000000002 1659104.5200000003 0.18500000000000003 31.937029431895965 28.47123194760594 11.500000000000002 1816.5000000000002 49.563273809523821 -551016.24999999988 4.0300000000000002 -2.6449999999999996 11.240000000000002 58.495550992470918 247.33136585365858 -2944.1299999999997 514.50000000000011 795.50000000000011 18.161523862902872 85.342395104895118 -50724.535156249993 269.13000000000005 48.57500000000001 565.07000000000005 -1009.6910400390624 154.9875377647451 80.500000000000014 -24206.770507812496 784.50000000000011 1.0000000180025095e-35 -10.529999999999998 31688.550781250004 54.321697467488029 575122.63000000012 1295.5000000000002 -55219.369140624993 49307.494140625007 50.995000000000012 117.50000000000001 1.0000000180025095e-35 130.50000000000003 811.3850000000001 49.452429842573586 210168.43750000003 -83225.910156249985 677.45000000000016 197.50000000000003 142.50000000000003 33240.476562500007 50.930869267624921 161.50000000000003 2580.5000000000005 187.50000000000003 -161.37499999999997 -657.13783882783866 964.51500000000021 -90950.910156249985 213.50000000000003 255.50000000000003 1085.0400000000002
decision_type=2 2 2 2 2 2 2 2 2 2 2 2 2 2 2 2 2 2 2 2 2 2 2 2 2 2 2 2 2 2 2 2 2 2 2 2 2 2 2 2 2 2 2 2 2 2 2 2 2 2 2 2 2 2 2 2 2 2 2 2 2 2 2 2 2 2 2 2 2 2 2 2 2 2 2 2 2 2 2 2 2 2 2 2 2 2 2 2 2 2 2 2 2 2 2 2 2 2 2 2 2 2 2 2 2 2 2 2 2 2 2 2 2 2 2 2 2 2 2 2 2 2 2
left_child=2 3 6 23 36 10 7 12 11 -6 15 24 14 -13 -1 98 22 67 -15 29 25 30 -10 28 -9 -17 35 -22 38 -7 -18 99 34 -34 61 -12 52 -11 -2 -25 76 -20 51 85 -45 64 47 90 -49 68 59 -41 -3 -54 119 56 -56 83 -37 -40 79 100 -57 -58 -46 102 -29 -5 -28 70 78 -72 73 117 -73 -76 77 -36 -19 -31 111 -80 -83 -53 -75 86 -44 -14 -78 116 -30 -92 93 103 96 108 -95 -97 -4 -32 -21 -8 -66 -74 109 -105 120 -87 -94 110 -59 -52 -79 -88 115 -38 -60 -69 -86 -42 -107 -122 -84
right_child=1 4 5 17 9 19 101 8 16 37 26 13 87 18 -16 20 21 69 41 32 27 -23 -24 39 -26 -27 49 66 46 60 31 -33 33 -35 40 58 114 -39 50 42 54 -43 43 44 45 -47 -48 48 -50 -51 80 57 53 -55 55 62 63 104 89 -61 -62 -63 -64 -65 65 -67 -68 72 -70 -71 71 74 92 84 75 -77 88 112 81 -81 -82 82 122 -85 118 107 113 -89 -90 -91 91 -93 95 94 -96 97 -98 -99 -100 -101 -102 -103 -104 105 -106 106 -108 -109 -110 -111 -112 -113 -114 -115 -116 -117 -118 -119 -120 -121 121 -123 -124
leaf_value=-0.023705091130786705 0.0074281524285674102 0.021851725247298039 -0.034957159323351715 0.016341122906368511 0.034105646909361603 0.0097837241161614647 -0.055181767104462501 -0.00028156202828342265 -0.032945394440554082 0.042448698948938525 -0.021399832822525729 -0.014559356133143107 -0.048310464729865388 -0.053836125890059129 -0.051378678947900019 -0.012105067625641824 -0.023620934497565031 0.021105803604636875 -0.036711047045058676 -0.012355666618709538 -0.0082672850835052419 -0.018523584034707809 -0.052666438598798798 0.010181098954545127 -0.020563969381366454 0.0095495115028960357 -0.016174192462648666 -0.029199366827805835 -0.0073454196918010719 -0.012645627284852357 -0.039127325136886264 -0.025450254943221805 0.0046723833444358943 -0.01313043061888311 0.0024670743597266466 -0.023108631050884721 0.01698588105042775 0.054722711536288264 0.0047167788528788245 0.010079573630704544 -0.010337504161255701 -0.021329251967668533 -0.0047200921327299012 -0.01305415131876685 0.0050247622113142702 -0.010546272651188904 -0.015997441419823604 -0.021681852598786352 -0.0023292469724547115 -0.01362175548483025 -0.010666607003997674 -0.0041400279343477451 0.0069375635551458051 0.019299349351475634 -0.02364245948505898 -0.01536313868281634 -0.018129836985074418 0.0056533174364065582 -0.028552349521267797 -0.0030961739029018928 -1.3914041519165033e-05 -0.023985674132874821 -0.0050070536330180321 -0.0079538845398596358 0.0035164304429199543 -0.0067500827839598061 -0.017795889478590749 0.0071744918170506544 -0.026450129118669466 0.0078881874343623287 0.0090450432119624953 0.018888646960472374 0.013370229948498307 -0.00096216473762284621 0.0020424259581736156 0.019260017806326503 -0.016349596251140942 -0.012740070044994355 0.020064818219646164 -0.0036690261562395353 -0.0011523336201374019 0.0041056034043431278 0.010731797250694243 0.0022655675714978803 0.0078265489073736337 0.002996804156207612 0.0007351540762132832 -0.063738673959692863 -0.0075210381036417357 -0.027224619118905648 -0.0048380317438224503 0.0024783103257417678 0.011733611389166778 0.0039116595600332529 0 0.0053198997566233511 0.011240223983895372 0.011561455879546701 -0.024378015885910678 -0.050056086239607438 -0.019296902523017842 -0.043455406332015986 -0.0014182537890225647 0.0056506536751985553 0.00062192815967968527 0.011961060422517003 0.0069075135642333941 0.0080320550973216696 0.018021727633017758 0.0067819437638058193 0.0016784114228561519 -0.0057081832663918083 -0.0072627223038247658 0.0039809359295575539 0.025920536769894614 0.024516243580428431 -0.03625634136136089 0.011169868289803465 0.0045577405057847494 -0.0066224222379651946 0.0066861936651656162 0.010496983876265586 0.013993841246003285
leaf_weight=27 29 123 20 25 455 20 186 21 31 142 38 26 26 27 34 23 23 20 26 32 32 26 78 26 34 20 20 26 24 25 121 26 21 23 22 24 35 39 37 27 20 24 21 26 34 26 21 24 31 21 21 39 21 35 35 22 33 21 30 38 24 37 22 20 31 29 26 22 82 22 20 208 39 21 20 39 21 20 22 22 27 25 28 38 20 20 20 72 26 40 32 29 26 20 21 22 21 39 30 22 25 29 24 21 20 62 33 26 25 41 29 21 20 37 349 168 139 35 21 21 22 59 255
leaf_count=27 29 123 20 25 455 20 186 21 31 142 38 26 26 27 34 23 23 20 26 32 32 26 78 26 34 20 20 26 24 25 121 26 21 23 22 24 35 39 37 27 20 24 21 26 34 26 21 24 31 21 21 39 21 35 35 22 33 21 30 38 24 37 22 20 31 29 26 22 82 22 20 208 39 21 20 39 21 20 22 22 27 25 28 38 20 20 20 72 26 40 32 29 26 20 21 22 21 39 30 22 25 29 24 21 20 62 33 26 25 41 29 21 20 37 349 168 139 35 21 21 22 59 255
internal_value=-0.0002293 0.0162506 -0.0295076 0.00712549 0.030131 -0.0186149 -0.0431869 -0.0395536 -0.0351457 0.0373897 -0.0253177 -0.0262005 -0.0526769 -0.0330187 -0.039758 -0.0176039 -0.0393656 0.0127509 -0.0389467 -0.0110845 -0.0127943 -0.0351188 -0.0474355 -0.000729026 -0.0130167 -0.00197686 -0.0287221 -0.0182081 -0.00407059 -0.00229417 -0.0372429 -0.0389293 -0.012972 -0.00465195 -0.0139227 -0.0312556 0.023769 0.045396 -0.000656203 0.00135521 -0.0120811 -0.0299496 0.000879419 -0.000807145 -0.00344899 -0.00161597 -0.00769424 -0.00632286 -0.011064 -0.0229088 -0.00234499 0.00319265 0.0197945 0.0149194 -0.0142751 -0.0159029 -0.0184334 0.0021396 -0.0327519 0.00073009 -0.00582669 -0.0192307 -0.0104781 -0.0145638 0.000398602 -0.00147568 -0.0239976 0.00975161 -0.024641 0.0152492 0.015486 0.0172221 0.00940429 0.00680491 0.0177874 0.0136049 -0.00847341 -0.00576692 0.0140088 -0.00867029 -0.00569301 0.0135072 0.0129657 -0.000951846 0.00386445 0.00278936 0.000795845 -0.0602051 -0.0117866 -0.0337296 -0.00312722 -0.00132751 0.0101331 0.00930601 0.00529159 0.0122052 0.00791499 0.0094809 -0.029271 -0.0411654 -0.015732 -0.0538225 0.00132267 0.0103212 0.00430025 0.00963797 0.0100622 0.00601699 0.015161 0.00506051 0.00348481 -0.00844757 -0.0103185 0.0029261 0.0250143 0.0233222 -0.0350824 0.0098298 0.00637209 -0.00870907 0.0107163 0.0095927 0.0137206
internal_weight=5390 3449 1941 2082 1367 1082 859 644 485 636 571 158 159 103 61 177 327 1213 77 511 127 218 109 869 55 43 394 84 334 91 192 169 420 44 376 271 731 181 173 535 282 50 509 294 170 144 161 140 55 123 144 215 179 56 173 132 88 188 233 75 71 94 44 53 118 84 52 554 102 659 637 287 529 119 267 59 109 62 350 47 69 330 308 77 62 124 78 98 47 209 85 61 410 298 62 112 41 61 50 143 57 215 55 236 111 197 176 46 51 91 50 42 40 57 552 203 169 57 41 41 143 81 283
internal_count=5390 3449 1941 2082 1367 1082 859 644 485 636 571 158 159 103 61 177 327 1213 77 511 127 218 109 869 55 43 394 84 334 91 192 169 420 44 376 271 731 181 173 535 282 50 509 294 170 144 161 140 55 123 144 215 179 56 173 132 88 188 233 75 71 94 44 53 118 84 52 554 102 659 637 287 529 119 267 59 109 62 350 47 69 330 308 77 62 124 78 98 47 209 85 61 410 298 62 112 41 61 50 143 57 215 55 236 111 197 176 46 51 91 50 42 40 57 552 203 169 57 41 41 143 81 283
is_linear=0
shrinkage=0.03


Tree=9
num_leaves=127
num_cat=0
split_feature=0 0 2 0 0 0 35 35 9 22 9 22 11 2 9 22 35 9 0 0 0 15 0 1 22 9 2 10 15 11 17 0 0 9 0 0 0 14 27 14 2 12 0 10 2 11 0 13 15 22 11 22 21 21 11 17 14 0 12 9 12 10 22 22 2 22 10 34 14 9 1 0 27 17 27 18 17 13 10 9 15 22 13 27 2 0 13 11 15 17 22 22 22 22 2 15 13 13 13 9 40 34 13 21 17 15 17 32 11 18 15 22 27 14 27 14 0 9 15 1 2 15 32 9 2 2
split_gain=2554.62 397.824 350.875 71.6915 64.6156 55.7636 37.4657 46.3992 37.1094 17.6859 19.0129 13.3525 13.1111 12.4266 11.788 13.1082 9.72603 9.06043 8.72449 8.64352 8.37732 8.19731 6.48778 6.14543 6.13738 6.05775 8.28771 6.01552 5.63015 4.65691 4.5371 5.37134 4.44354 4.39796 4.21851 3.37429 3.19261 3.09571 4.12404 3.3121 3.18662 3.07097 2.92465 2.88246 2.6413 4.7527 2.45963 2.39999 2.39551 2.21584 2.39115 2.19578 2.07743 1.899 1.76007 3.94771 1.55504 1.82879 1.61801 3.4429 1.46301 1.45682 1.34332 1.32104 1.28662 1.27127 1.21052 1.37305 1.25144 1.66021 1.14231 1.08305 1.89457 2.51604 1.0672 0.989083 0.975898 0.969303 0.958253 1.51424 0.950269 0.916107 0.896365 0.84628 0.840706 0.968291 0.816647 0.741786 0.707832 0.673502 0.644798 0.631342 0.586573 0.625928 0.577263 0.515943 0.508691 1.36136 0.487779 0.47759 0.491032 0.365846 0.341614 0.401546 0.510015 0.313328 0.300226 0.312819 0.307596 0.287637 0.302387 0.268557 0.258334 0.258173 0.232807 0.220222 0.212699 0.196847 0.191725 0.153553 0.124509 0.0878472 0.0761485 0.029568 0.0256 0.0159551
